svm_type one_class
kernel_type rbf
gamma 0.16666666666666666
nr_class 2
total_sv 100001
rho 88898.52160438895
SV
1.0 0:0.0 1:1.0 2:0.0 3:0.0 4:0.0 5:1.0 
1.0 0:0.0 1:1.0 2:0.0 3:0.0 4:0.0 5:0.0 
1.0 0:0.0 1:1.0 2:0.0 3:0.0 4:0.0 5:1.0 
1.0 0:0.0 1:0.0 2:0.0 3:1.0 4:0.0 5:1.0 
1.0 0:0.0 1:0.0 2:0.0 3:1.0 4:0.0 5:1.0 
1.0 0:0.0 1:0.0 2:0.0 3:1.0 4:0.0 5:1.0 
1.0 0:0.0 1:0.0 2:0.0 3:0.0 4:0.0 5:0.0 
1.0 0:0.0 1:0.0 2:0.0 3:1.0 4:0.0 5:1.0 
1.0 0:0.0 1:0.0 2:0.0 3:0.0 4:0.0 5:0.0 
1.0 0:0.0 1:0.0 2:0.0 3:1.0 4:0.0 5:1.0 
1.0 0:0.0 1:0.0 2:0.0 3:1.0 4:0.0 5:1.0 
1.0 0:0.0 1:0.0 2:0.0 3:1.0 4:0.0 5:1.0 
1.0 0:0.0 1:0.0 2:0.0 3:0.0 4:0.0 5:0.0 
1.0 0:0.0 1:0.0 2:0.0 3:1.0 4:0.0 5:0.0 
1.0 0:0.0 1:0.0 2:0.0 3:1.0 4:0.0 5:1.0 
1.0 0:0.0 1:0.0 2:0.0 3:0.0 4:0.0 5:0.0 
1.0 0:0.0 1:0.0 2:0.0 3:0.0 4:0.0 5:1.0 
1.0 0:0.0 1:0.0 2:0.0 3:1.0 4:0.0 5:0.0 
1.0 0:0.0 1:0.0 2:0.0 3:0.0 4:0.0 5:0.0 
1.0 0:0.0 1:0.0 2:0.0 3:0.0 4:0.0 5:1.0 
1.0 0:0.0 1:0.0 2:0.0 3:0.0 4:0.0 5:0.0 
1.0 0:0.0 1:1.0 2:0.0 3:0.0 4:0.0 5:1.0 
1.0 0:0.0 1:0.0 2:0.0 3:0.0 4:0.0 5:0.0 
1.0 0:0.0 1:0.0 2:0.0 3:0.0 4:0.0 5:1.0 
1.0 0:0.0 1:0.0 2:0.0 3:0.0 4:0.0 5:1.0 
1.0 0:0.0 1:0.0 2:0.0 3:0.0 4:0.0 5:1.0 
1.0 0:0.0 1:0.0 2:0.0 3:0.0 4:0.0 5:1.0 
1.0 0:0.0 1:0.0 2:0.0 3:0.0 4:0.0 5:1.0 
1.0 0:0.0 1:0.0 2:0.0 3:0.0 4:0.0 5:0.0 
1.0 0:0.0 1:0.0 2:0.0 3:0.0 4:0.0 5:0.0 
1.0 0:0.0 1:0.0 2:0.0 3:0.0 4:0.0 5:1.0 
1.0 0:0.0 1:0.0 2:0.0 3:0.0 4:0.0 5:1.0 
1.0 0:0.0 1:1.0 2:0.0 3:0.0 4:0.0 5:0.0 
1.0 0:0.0 1:0.0 2:0.0 3:0.0 4:0.0 5:0.0 
1.0 0:0.0 1:1.0 2:0.0 3:1.0 4:0.0 5:0.0 
1.0 0:0.0 1:1.0 2:0.0 3:0.0 4:0.0 5:0.0 
1.0 0:0.0 1:0.0 2:0.0 3:0.0 4:0.0 5:1.0 
1.0 0:0.0 1:0.0 2:0.0 3:0.0 4:0.0 5:0.0 
1.0 0:0.0 1:0.0 2:0.0 3:0.0 4:0.0 5:0.0 
1.0 0:0.0 1:0.0 2:0.0 3:0.0 4:0.0 5:0.0 
1.0 0:0.0 1:0.0 2:0.0 3:0.0 4:0.0 5:0.0 
1.0 0:0.0 1:0.0 2:0.0 3:0.0 4:0.0 5:1.0 
1.0 0:0.0 1:0.0 2:0.0 3:0.0 4:0.0 5:1.0 
1.0 0:0.0 1:0.0 2:0.0 3:0.0 4:0.0 5:1.0 
1.0 0:0.0 1:0.0 2:0.0 3:0.0 4:0.0 5:0.0 
1.0 0:0.0 1:0.0 2:0.0 3:0.0 4:0.0 5:0.0 
1.0 0:0.0 1:0.0 2:0.0 3:0.0 4:0.0 5:1.0 
1.0 0:0.0 1:0.0 2:0.0 3:0.0 4:0.0 5:0.0 
1.0 0:0.0 1:0.0 2:0.0 3:0.0 4:0.0 5:0.0 
1.0 0:0.0 1:0.0 2:0.0 3:0.0 4:0.0 5:0.0 
1.0 0:0.0 1:0.0 2:0.0 3:0.0 4:0.0 5:0.0 
1.0 0:0.0 1:0.0 2:0.0 3:0.0 4:0.0 5:0.0 
1.0 0:0.0 1:0.0 2:0.0 3:0.0 4:0.0 5:0.0 
1.0 0:0.0 1:0.0 2:0.0 3:0.0 4:0.0 5:1.0 
1.0 0:0.0 1:0.0 2:0.0 3:0.0 4:0.0 5:0.0 
1.0 0:0.0 1:0.0 2:0.0 3:0.0 4:0.0 5:0.0 
1.0 0:0.0 1:0.0 2:0.0 3:0.0 4:0.0 5:1.0 
1.0 0:0.0 1:0.0 2:0.0 3:0.0 4:0.0 5:0.0 
1.0 0:0.0 1:0.0 2:0.0 3:0.0 4:0.0 5:0.0 
1.0 0:0.0 1:0.0 2:0.0 3:0.0 4:0.0 5:0.0 
1.0 0:0.0 1:0.0 2:0.0 3:0.0 4:0.0 5:0.0 
1.0 0:0.0 1:0.0 2:0.0 3:0.0 4:0.0 5:1.0 
1.0 0:0.0 1:0.0 2:0.0 3:0.0 4:0.0 5:1.0 
1.0 0:0.0 1:0.0 2:0.0 3:0.0 4:0.0 5:0.0 
1.0 0:0.0 1:0.0 2:0.0 3:0.0 4:0.0 5:1.0 
1.0 0:0.0 1:0.0 2:0.0 3:0.0 4:0.0 5:1.0 
1.0 0:0.0 1:0.0 2:0.0 3:0.0 4:0.0 5:1.0 
1.0 0:0.0 1:0.0 2:0.0 3:0.0 4:0.0 5:0.0 
1.0 0:0.0 1:0.0 2:0.0 3:0.0 4:0.0 5:1.0 
1.0 0:0.0 1:0.0 2:0.0 3:0.0 4:0.0 5:1.0 
1.0 0:0.0 1:0.0 2:0.0 3:0.0 4:0.0 5:1.0 
1.0 0:0.0 1:0.0 2:0.0 3:0.0 4:0.0 5:0.0 
1.0 0:0.0 1:0.0 2:0.0 3:0.0 4:0.0 5:1.0 
1.0 0:0.0 1:0.0 2:0.0 3:0.0 4:0.0 5:0.0 
1.0 0:0.0 1:0.0 2:0.0 3:0.0 4:0.0 5:1.0 
1.0 0:0.0 1:0.0 2:0.0 3:0.0 4:0.0 5:0.0 
1.0 0:0.0 1:0.0 2:0.0 3:0.0 4:0.0 5:1.0 
1.0 0:0.0 1:0.0 2:0.0 3:0.0 4:0.0 5:1.0 
1.0 0:0.0 1:0.0 2:0.0 3:0.0 4:0.0 5:1.0 
1.0 0:0.0 1:0.0 2:0.0 3:0.0 4:0.0 5:0.0 
1.0 0:0.0 1:0.0 2:0.0 3:0.0 4:0.0 5:1.0 
1.0 0:0.0 1:0.0 2:0.0 3:0.0 4:0.0 5:1.0 
1.0 0:0.0 1:0.0 2:0.0 3:0.0 4:0.0 5:1.0 
1.0 0:0.0 1:0.0 2:0.0 3:0.0 4:0.0 5:0.0 
1.0 0:0.0 1:0.0 2:0.0 3:0.0 4:0.0 5:1.0 
1.0 0:0.0 1:0.0 2:0.0 3:0.0 4:0.0 5:1.0 
1.0 0:0.0 1:0.0 2:0.0 3:0.0 4:0.0 5:1.0 
1.0 0:0.0 1:0.0 2:0.0 3:0.0 4:0.0 5:0.0 
1.0 0:0.0 1:0.0 2:0.0 3:0.0 4:0.0 5:1.0 
1.0 0:0.0 1:0.0 2:0.0 3:0.0 4:0.0 5:1.0 
1.0 0:0.0 1:0.0 2:0.0 3:0.0 4:0.0 5:0.0 
1.0 0:0.0 1:0.0 2:0.0 3:0.0 4:0.0 5:1.0 
1.0 0:0.0 1:0.0 2:0.0 3:0.0 4:0.0 5:1.0 
1.0 0:0.0 1:0.0 2:0.0 3:0.0 4:0.0 5:1.0 
1.0 0:0.0 1:0.0 2:0.0 3:0.0 4:0.0 5:1.0 
1.0 0:0.0 1:0.0 2:0.0 3:0.0 4:0.0 5:0.0 
1.0 0:0.0 1:0.0 2:0.0 3:0.0 4:0.0 5:0.0 
1.0 0:0.0 1:0.0 2:0.0 3:0.0 4:0.0 5:0.0 
1.0 0:0.0 1:0.0 2:0.0 3:0.0 4:0.0 5:1.0 
1.0 0:0.0 1:0.0 2:0.0 3:0.0 4:0.0 5:1.0 
1.0 0:0.0 1:0.0 2:0.0 3:0.0 4:0.0 5:1.0 
1.0 0:0.0 1:0.0 2:0.0 3:0.0 4:0.0 5:1.0 
1.0 0:0.0 1:0.0 2:0.0 3:0.0 4:0.0 5:1.0 
1.0 0:0.0 1:0.0 2:0.0 3:0.0 4:0.0 5:1.0 
1.0 0:0.0 1:0.0 2:0.0 3:0.0 4:0.0 5:1.0 
1.0 0:0.0 1:0.0 2:0.0 3:0.0 4:0.0 5:0.0 
1.0 0:0.0 1:0.0 2:0.0 3:0.0 4:0.0 5:0.0 
1.0 0:0.0 1:0.0 2:0.0 3:0.0 4:0.0 5:0.0 
1.0 0:0.0 1:0.0 2:0.0 3:0.0 4:0.0 5:1.0 
1.0 0:0.0 1:0.0 2:0.0 3:0.0 4:0.0 5:1.0 
1.0 0:0.0 1:0.0 2:0.0 3:0.0 4:0.0 5:0.0 
1.0 0:0.0 1:1.0 2:0.0 3:0.0 4:0.0 5:1.0 
1.0 0:0.0 1:0.0 2:0.0 3:0.0 4:0.0 5:1.0 
1.0 0:0.0 1:0.0 2:0.0 3:0.0 4:0.0 5:0.0 
1.0 0:0.0 1:0.0 2:0.0 3:0.0 4:0.0 5:0.0 
1.0 0:0.0 1:0.0 2:0.0 3:0.0 4:0.0 5:0.0 
1.0 0:0.0 1:0.0 2:0.0 3:0.0 4:0.0 5:0.0 
1.0 0:0.0 1:0.0 2:0.0 3:0.0 4:0.0 5:0.0 
1.0 0:0.0 1:0.0 2:0.0 3:0.0 4:0.0 5:1.0 
1.0 0:0.0 1:0.0 2:0.0 3:0.0 4:0.0 5:1.0 
1.0 0:0.0 1:0.0 2:0.0 3:0.0 4:0.0 5:0.0 
1.0 0:0.0 1:0.0 2:0.0 3:0.0 4:0.0 5:0.0 
1.0 0:0.0 1:0.0 2:0.0 3:0.0 4:0.0 5:0.0 
1.0 0:0.0 1:0.0 2:0.0 3:0.0 4:0.0 5:0.0 
1.0 0:0.0 1:0.0 2:0.0 3:0.0 4:0.0 5:0.0 
1.0 0:0.0 1:0.0 2:0.0 3:0.0 4:0.0 5:0.0 
1.0 0:0.0 1:0.0 2:0.0 3:0.0 4:0.0 5:0.0 
1.0 0:0.0 1:0.0 2:0.0 3:0.0 4:0.0 5:1.0 
1.0 0:0.0 1:0.0 2:0.0 3:0.0 4:0.0 5:0.0 
1.0 0:0.0 1:0.0 2:0.0 3:0.0 4:0.0 5:1.0 
1.0 0:0.0 1:0.0 2:0.0 3:0.0 4:0.0 5:1.0 
1.0 0:0.0 1:0.0 2:0.0 3:0.0 4:0.0 5:1.0 
1.0 0:0.0 1:0.0 2:0.0 3:0.0 4:0.0 5:1.0 
1.0 0:0.0 1:0.0 2:0.0 3:0.0 4:0.0 5:0.0 
1.0 0:0.0 1:0.0 2:0.0 3:0.0 4:0.0 5:1.0 
1.0 0:0.0 1:0.0 2:0.0 3:0.0 4:0.0 5:1.0 
1.0 0:0.0 1:0.0 2:0.0 3:0.0 4:0.0 5:1.0 
1.0 0:0.0 1:0.0 2:0.0 3:0.0 4:0.0 5:0.0 
1.0 0:0.0 1:0.0 2:0.0 3:0.0 4:0.0 5:0.0 
1.0 0:0.0 1:0.0 2:0.0 3:0.0 4:0.0 5:0.0 
1.0 0:0.0 1:0.0 2:0.0 3:0.0 4:0.0 5:1.0 
1.0 0:0.0 1:0.0 2:0.0 3:0.0 4:0.0 5:0.0 
1.0 0:0.0 1:0.0 2:0.0 3:0.0 4:0.0 5:0.0 
1.0 0:0.0 1:0.0 2:0.0 3:0.0 4:0.0 5:1.0 
1.0 0:0.0 1:0.0 2:0.0 3:0.0 4:0.0 5:0.0 
1.0 0:0.0 1:0.0 2:0.0 3:0.0 4:0.0 5:0.0 
1.0 0:0.0 1:0.0 2:0.0 3:0.0 4:0.0 5:0.0 
1.0 0:0.0 1:0.0 2:0.0 3:0.0 4:0.0 5:0.0 
1.0 0:0.0 1:0.0 2:0.0 3:0.0 4:0.0 5:1.0 
1.0 0:0.0 1:0.0 2:0.0 3:0.0 4:0.0 5:1.0 
1.0 0:0.0 1:0.0 2:0.0 3:0.0 4:0.0 5:1.0 
1.0 0:0.0 1:0.0 2:0.0 3:0.0 4:0.0 5:0.0 
1.0 0:0.0 1:0.0 2:0.0 3:0.0 4:0.0 5:0.0 
1.0 0:0.0 1:0.0 2:0.0 3:0.0 4:0.0 5:1.0 
1.0 0:0.0 1:0.0 2:0.0 3:0.0 4:0.0 5:1.0 
1.0 0:0.0 1:0.0 2:0.0 3:0.0 4:0.0 5:0.0 
1.0 0:0.0 1:0.0 2:0.0 3:0.0 4:0.0 5:1.0 
1.0 0:0.0 1:0.0 2:0.0 3:0.0 4:0.0 5:0.0 
1.0 0:0.0 1:0.0 2:0.0 3:0.0 4:0.0 5:0.0 
1.0 0:0.0 1:0.0 2:0.0 3:0.0 4:0.0 5:1.0 
1.0 0:0.0 1:0.0 2:0.0 3:0.0 4:0.0 5:0.0 
1.0 0:0.0 1:0.0 2:0.0 3:0.0 4:0.0 5:0.0 
1.0 0:0.0 1:0.0 2:0.0 3:0.0 4:0.0 5:0.0 
1.0 0:0.0 1:0.0 2:0.0 3:0.0 4:0.0 5:0.0 
1.0 0:0.0 1:0.0 2:0.0 3:0.0 4:0.0 5:0.0 
1.0 0:0.0 1:0.0 2:0.0 3:0.0 4:0.0 5:0.0 
1.0 0:0.0 1:0.0 2:0.0 3:0.0 4:0.0 5:0.0 
1.0 0:0.0 1:0.0 2:0.0 3:0.0 4:0.0 5:0.0 
1.0 0:0.0 1:0.0 2:0.0 3:0.0 4:0.0 5:1.0 
1.0 0:0.0 1:0.0 2:0.0 3:0.0 4:0.0 5:0.0 
1.0 0:0.0 1:0.0 2:0.0 3:0.0 4:0.0 5:0.0 
1.0 0:0.0 1:0.0 2:0.0 3:0.0 4:0.0 5:0.0 
1.0 0:0.0 1:0.0 2:0.0 3:0.0 4:0.0 5:0.0 
1.0 0:0.0 1:0.0 2:0.0 3:1.0 4:0.0 5:1.0 
1.0 0:0.0 1:0.0 2:0.0 3:0.0 4:0.0 5:0.0 
1.0 0:0.0 1:0.0 2:0.0 3:1.0 4:0.0 5:0.0 
1.0 0:0.0 1:0.0 2:0.0 3:0.0 4:0.0 5:0.0 
1.0 0:0.0 1:0.0 2:0.0 3:0.0 4:0.0 5:0.0 
1.0 0:0.0 1:0.0 2:0.0 3:0.0 4:0.0 5:1.0 
1.0 0:0.0 1:0.0 2:0.0 3:1.0 4:0.0 5:1.0 
1.0 0:0.0 1:0.0 2:0.0 3:0.0 4:0.0 5:0.0 
1.0 0:0.0 1:0.0 2:0.0 3:0.0 4:0.0 5:0.0 
1.0 0:0.0 1:0.0 2:0.0 3:0.0 4:0.0 5:1.0 
1.0 0:0.0 1:0.0 2:0.0 3:0.0 4:0.0 5:1.0 
1.0 0:0.0 1:0.0 2:0.0 3:0.0 4:0.0 5:0.0 
1.0 0:0.0 1:0.0 2:0.0 3:0.0 4:0.0 5:0.0 
1.0 0:0.0 1:0.0 2:0.0 3:0.0 4:0.0 5:1.0 
1.0 0:0.0 1:0.0 2:0.0 3:0.0 4:0.0 5:0.0 
1.0 0:0.0 1:0.0 2:0.0 3:0.0 4:0.0 5:0.0 
1.0 0:0.0 1:0.0 2:0.0 3:0.0 4:0.0 5:0.0 
1.0 0:0.0 1:0.0 2:0.0 3:0.0 4:0.0 5:0.0 
1.0 0:0.0 1:0.0 2:0.0 3:0.0 4:0.0 5:1.0 
1.0 0:0.0 1:0.0 2:0.0 3:0.0 4:0.0 5:0.0 
1.0 0:0.0 1:0.0 2:0.0 3:0.0 4:0.0 5:0.0 
1.0 0:0.0 1:0.0 2:0.0 3:0.0 4:0.0 5:0.0 
1.0 0:0.0 1:0.0 2:0.0 3:0.0 4:0.0 5:1.0 
1.0 0:0.0 1:0.0 2:0.0 3:0.0 4:0.0 5:0.0 
1.0 0:0.0 1:0.0 2:0.0 3:0.0 4:0.0 5:1.0 
1.0 0:0.0 1:0.0 2:0.0 3:0.0 4:0.0 5:1.0 
1.0 0:0.0 1:0.0 2:0.0 3:0.0 4:0.0 5:1.0 
1.0 0:0.0 1:0.0 2:0.0 3:0.0 4:0.0 5:0.0 
1.0 0:0.0 1:0.0 2:0.0 3:0.0 4:0.0 5:1.0 
1.0 0:0.0 1:0.0 2:0.0 3:0.0 4:0.0 5:0.0 
1.0 0:0.0 1:0.0 2:0.0 3:0.0 4:0.0 5:0.0 
1.0 0:0.0 1:0.0 2:0.0 3:0.0 4:0.0 5:1.0 
1.0 0:0.0 1:0.0 2:0.0 3:0.0 4:0.0 5:0.0 
1.0 0:0.0 1:0.0 2:0.0 3:0.0 4:0.0 5:0.0 
1.0 0:0.0 1:1.0 2:0.0 3:0.0 4:0.0 5:0.0 
1.0 0:0.0 1:0.0 2:0.0 3:0.0 4:0.0 5:0.0 
1.0 0:0.0 1:0.0 2:0.0 3:0.0 4:0.0 5:0.0 
1.0 0:0.0 1:0.0 2:0.0 3:0.0 4:0.0 5:0.0 
1.0 0:0.0 1:0.0 2:0.0 3:0.0 4:0.0 5:0.0 
1.0 0:0.0 1:0.0 2:0.0 3:0.0 4:0.0 5:0.0 
1.0 0:0.0 1:0.0 2:0.0 3:0.0 4:0.0 5:0.0 
1.0 0:0.0 1:0.0 2:0.0 3:0.0 4:0.0 5:0.0 
1.0 0:0.0 1:0.0 2:0.0 3:0.0 4:0.0 5:1.0 
1.0 0:0.0 1:0.0 2:0.0 3:0.0 4:0.0 5:0.0 
1.0 0:0.0 1:0.0 2:0.0 3:0.0 4:0.0 5:0.0 
1.0 0:0.0 1:0.0 2:0.0 3:0.0 4:0.0 5:0.0 
1.0 0:0.0 1:0.0 2:0.0 3:0.0 4:0.0 5:1.0 
1.0 0:0.0 1:0.0 2:0.0 3:0.0 4:0.0 5:0.0 
1.0 0:0.0 1:0.0 2:0.0 3:0.0 4:0.0 5:1.0 
1.0 0:0.0 1:0.0 2:0.0 3:0.0 4:0.0 5:0.0 
1.0 0:0.0 1:0.0 2:0.0 3:0.0 4:0.0 5:1.0 
1.0 0:0.0 1:0.0 2:0.0 3:0.0 4:0.0 5:1.0 
1.0 0:0.0 1:0.0 2:0.0 3:0.0 4:0.0 5:0.0 
1.0 0:0.0 1:0.0 2:0.0 3:0.0 4:0.0 5:1.0 
1.0 0:0.0 1:0.0 2:0.0 3:0.0 4:0.0 5:0.0 
1.0 0:0.0 1:0.0 2:0.0 3:0.0 4:0.0 5:1.0 
1.0 0:0.0 1:0.0 2:0.0 3:0.0 4:0.0 5:0.0 
1.0 0:0.0 1:0.0 2:0.0 3:0.0 4:0.0 5:1.0 
1.0 0:0.0 1:0.0 2:0.0 3:0.0 4:0.0 5:0.0 
1.0 0:0.0 1:0.0 2:0.0 3:0.0 4:0.0 5:1.0 
1.0 0:0.0 1:0.0 2:0.0 3:0.0 4:0.0 5:0.0 
1.0 0:0.0 1:0.0 2:0.0 3:0.0 4:0.0 5:0.0 
1.0 0:0.0 1:0.0 2:0.0 3:0.0 4:0.0 5:0.0 
1.0 0:0.0 1:0.0 2:0.0 3:0.0 4:0.0 5:0.0 
1.0 0:0.0 1:0.0 2:0.0 3:0.0 4:0.0 5:0.0 
1.0 0:0.0 1:0.0 2:0.0 3:0.0 4:0.0 5:0.0 
1.0 0:0.0 1:0.0 2:0.0 3:0.0 4:0.0 5:0.0 
1.0 0:0.0 1:0.0 2:0.0 3:0.0 4:0.0 5:0.0 
1.0 0:0.0 1:0.0 2:0.0 3:0.0 4:0.0 5:0.0 
1.0 0:0.0 1:0.0 2:0.0 3:0.0 4:0.0 5:0.0 
1.0 0:0.0 1:0.0 2:0.0 3:0.0 4:0.0 5:1.0 
1.0 0:0.0 1:0.0 2:0.0 3:0.0 4:0.0 5:0.0 
1.0 0:0.0 1:0.0 2:0.0 3:0.0 4:0.0 5:0.0 
1.0 0:0.0 1:0.0 2:0.0 3:0.0 4:0.0 5:0.0 
1.0 0:0.0 1:0.0 2:0.0 3:0.0 4:0.0 5:0.0 
1.0 0:0.0 1:0.0 2:0.0 3:0.0 4:0.0 5:0.0 
1.0 0:0.0 1:0.0 2:0.0 3:0.0 4:0.0 5:0.0 
1.0 0:0.0 1:0.0 2:0.0 3:0.0 4:0.0 5:0.0 
1.0 0:0.0 1:0.0 2:0.0 3:0.0 4:0.0 5:0.0 
1.0 0:0.0 1:0.0 2:0.0 3:0.0 4:0.0 5:1.0 
1.0 0:0.0 1:0.0 2:0.0 3:0.0 4:0.0 5:0.0 
1.0 0:0.0 1:0.0 2:0.0 3:0.0 4:0.0 5:0.0 
1.0 0:0.0 1:0.0 2:0.0 3:0.0 4:0.0 5:1.0 
1.0 0:0.0 1:0.0 2:0.0 3:0.0 4:0.0 5:0.0 
1.0 0:0.0 1:0.0 2:0.0 3:0.0 4:0.0 5:0.0 
1.0 0:0.0 1:0.0 2:0.0 3:0.0 4:0.0 5:0.0 
1.0 0:0.0 1:0.0 2:0.0 3:0.0 4:0.0 5:0.0 
1.0 0:0.0 1:0.0 2:0.0 3:0.0 4:0.0 5:1.0 
1.0 0:0.0 1:0.0 2:0.0 3:0.0 4:0.0 5:0.0 
1.0 0:0.0 1:0.0 2:0.0 3:0.0 4:0.0 5:0.0 
1.0 0:0.0 1:0.0 2:0.0 3:0.0 4:0.0 5:0.0 
1.0 0:0.0 1:0.0 2:0.0 3:0.0 4:0.0 5:1.0 
1.0 0:0.0 1:0.0 2:0.0 3:0.0 4:0.0 5:0.0 
1.0 0:0.0 1:0.0 2:0.0 3:0.0 4:0.0 5:1.0 
1.0 0:0.0 1:0.0 2:0.0 3:0.0 4:0.0 5:1.0 
1.0 0:0.0 1:0.0 2:0.0 3:0.0 4:0.0 5:0.0 
1.0 0:0.0 1:0.0 2:0.0 3:0.0 4:0.0 5:1.0 
1.0 0:0.0 1:0.0 2:0.0 3:0.0 4:0.0 5:0.0 
1.0 0:0.0 1:0.0 2:0.0 3:0.0 4:0.0 5:1.0 
1.0 0:0.0 1:0.0 2:0.0 3:0.0 4:0.0 5:0.0 
1.0 0:0.0 1:1.0 2:0.0 3:0.0 4:0.0 5:0.0 
1.0 0:0.0 1:0.0 2:0.0 3:0.0 4:0.0 5:0.0 
1.0 0:0.0 1:0.0 2:0.0 3:0.0 4:0.0 5:1.0 
1.0 0:0.0 1:0.0 2:0.0 3:0.0 4:0.0 5:1.0 
1.0 0:0.0 1:0.0 2:0.0 3:0.0 4:0.0 5:1.0 
1.0 0:0.0 1:0.0 2:0.0 3:0.0 4:0.0 5:1.0 
1.0 0:1.0 1:0.0 2:0.0 3:0.0 4:0.0 5:1.0 
1.0 0:0.0 1:0.0 2:0.0 3:0.0 4:0.0 5:1.0 
1.0 0:0.0 1:0.0 2:0.0 3:0.0 4:0.0 5:1.0 
1.0 0:0.0 1:0.0 2:0.0 3:0.0 4:0.0 5:1.0 
1.0 0:0.0 1:0.0 2:0.0 3:0.0 4:0.0 5:1.0 
1.0 0:1.0 1:1.0 2:0.0 3:0.0 4:0.0 5:0.0 
1.0 0:0.0 1:0.0 2:0.0 3:0.0 4:0.0 5:1.0 
1.0 0:0.0 1:0.0 2:0.0 3:0.0 4:0.0 5:1.0 
1.0 0:0.0 1:0.0 2:0.0 3:0.0 4:0.0 5:0.0 
1.0 0:0.0 1:0.0 2:0.0 3:0.0 4:0.0 5:0.0 
1.0 0:0.0 1:0.0 2:0.0 3:0.0 4:0.0 5:0.0 
1.0 0:0.0 1:0.0 2:0.0 3:0.0 4:0.0 5:1.0 
1.0 0:0.0 1:0.0 2:0.0 3:0.0 4:0.0 5:1.0 
1.0 0:0.0 1:0.0 2:0.0 3:0.0 4:0.0 5:1.0 
1.0 0:0.0 1:0.0 2:0.0 3:0.0 4:0.0 5:1.0 
1.0 0:0.0 1:0.0 2:0.0 3:0.0 4:0.0 5:1.0 
1.0 0:0.0 1:0.0 2:0.0 3:0.0 4:0.0 5:1.0 
1.0 0:0.0 1:0.0 2:0.0 3:0.0 4:0.0 5:0.0 
1.0 0:0.0 1:0.0 2:0.0 3:0.0 4:0.0 5:0.0 
1.0 0:0.0 1:0.0 2:0.0 3:0.0 4:0.0 5:1.0 
1.0 0:0.0 1:1.0 2:0.0 3:0.0 4:0.0 5:1.0 
1.0 0:0.0 1:0.0 2:0.0 3:0.0 4:0.0 5:0.0 
1.0 0:0.0 1:0.0 2:0.0 3:0.0 4:0.0 5:0.0 
1.0 0:0.0 1:0.0 2:0.0 3:0.0 4:0.0 5:0.0 
1.0 0:0.0 1:0.0 2:0.0 3:0.0 4:0.0 5:0.0 
1.0 0:0.0 1:0.0 2:0.0 3:0.0 4:0.0 5:1.0 
1.0 0:0.0 1:0.0 2:0.0 3:0.0 4:0.0 5:0.0 
1.0 0:0.0 1:0.0 2:0.0 3:0.0 4:0.0 5:1.0 
1.0 0:0.0 1:0.0 2:0.0 3:0.0 4:0.0 5:0.0 
1.0 0:0.0 1:0.0 2:0.0 3:0.0 4:0.0 5:1.0 
1.0 0:0.0 1:0.0 2:0.0 3:0.0 4:0.0 5:0.0 
1.0 0:0.0 1:0.0 2:0.0 3:0.0 4:0.0 5:0.0 
1.0 0:0.0 1:0.0 2:0.0 3:0.0 4:0.0 5:0.0 
1.0 0:0.0 1:0.0 2:0.0 3:0.0 4:0.0 5:0.0 
1.0 0:0.0 1:0.0 2:0.0 3:0.0 4:0.0 5:0.0 
1.0 0:0.0 1:1.0 2:0.0 3:0.0 4:0.0 5:0.0 
1.0 0:0.0 1:0.0 2:0.0 3:0.0 4:0.0 5:0.0 
1.0 0:0.0 1:0.0 2:0.0 3:0.0 4:0.0 5:0.0 
1.0 0:0.0 1:0.0 2:0.0 3:0.0 4:0.0 5:1.0 
1.0 0:0.0 1:0.0 2:0.0 3:0.0 4:0.0 5:0.0 
1.0 0:0.0 1:0.0 2:0.0 3:0.0 4:0.0 5:0.0 
1.0 0:0.0 1:0.0 2:0.0 3:0.0 4:0.0 5:0.0 
1.0 0:0.0 1:0.0 2:0.0 3:0.0 4:0.0 5:0.0 
1.0 0:0.0 1:0.0 2:0.0 3:0.0 4:0.0 5:0.0 
1.0 0:0.0 1:0.0 2:0.0 3:0.0 4:0.0 5:0.0 
1.0 0:0.0 1:0.0 2:0.0 3:0.0 4:0.0 5:0.0 
1.0 0:0.0 1:0.0 2:0.0 3:0.0 4:0.0 5:0.0 
1.0 0:0.0 1:0.0 2:0.0 3:0.0 4:0.0 5:0.0 
1.0 0:0.0 1:0.0 2:0.0 3:0.0 4:0.0 5:0.0 
1.0 0:0.0 1:1.0 2:0.0 3:0.0 4:0.0 5:0.0 
1.0 0:0.0 1:1.0 2:0.0 3:0.0 4:0.0 5:0.0 
1.0 0:0.0 1:1.0 2:0.0 3:0.0 4:0.0 5:0.0 
1.0 0:0.0 1:1.0 2:0.0 3:0.0 4:0.0 5:0.0 
1.0 0:0.0 1:0.0 2:0.0 3:0.0 4:0.0 5:0.0 
1.0 0:0.0 1:1.0 2:0.0 3:0.0 4:0.0 5:0.0 
1.0 0:0.0 1:1.0 2:0.0 3:0.0 4:0.0 5:0.0 
1.0 0:0.0 1:0.0 2:0.0 3:0.0 4:0.0 5:0.0 
1.0 0:0.0 1:0.0 2:0.0 3:0.0 4:0.0 5:0.0 
1.0 0:0.0 1:0.0 2:0.0 3:0.0 4:0.0 5:0.0 
1.0 0:0.0 1:0.0 2:0.0 3:0.0 4:0.0 5:0.0 
1.0 0:0.0 1:0.0 2:0.0 3:0.0 4:0.0 5:1.0 
1.0 0:0.0 1:0.0 2:0.0 3:0.0 4:0.0 5:1.0 
1.0 0:0.0 1:0.0 2:0.0 3:0.0 4:0.0 5:0.0 
1.0 0:0.0 1:0.0 2:0.0 3:0.0 4:0.0 5:1.0 
1.0 0:0.0 1:0.0 2:0.0 3:0.0 4:0.0 5:0.0 
1.0 0:0.0 1:0.0 2:0.0 3:0.0 4:0.0 5:1.0 
1.0 0:0.0 1:0.0 2:0.0 3:0.0 4:0.0 5:0.0 
1.0 0:0.0 1:0.0 2:0.0 3:0.0 4:0.0 5:1.0 
1.0 0:0.0 1:0.0 2:0.0 3:0.0 4:0.0 5:0.0 
1.0 0:0.0 1:0.0 2:0.0 3:0.0 4:0.0 5:0.0 
1.0 0:0.0 1:0.0 2:0.0 3:0.0 4:0.0 5:1.0 
1.0 0:0.0 1:0.0 2:0.0 3:0.0 4:0.0 5:0.0 
1.0 0:0.0 1:0.0 2:0.0 3:0.0 4:0.0 5:1.0 
1.0 0:0.0 1:0.0 2:0.0 3:0.0 4:0.0 5:0.0 
1.0 0:0.0 1:1.0 2:0.0 3:0.0 4:0.0 5:0.0 
1.0 0:0.0 1:0.0 2:0.0 3:0.0 4:0.0 5:0.0 
1.0 0:0.0 1:0.0 2:0.0 3:0.0 4:0.0 5:1.0 
1.0 0:0.0 1:0.0 2:0.0 3:0.0 4:0.0 5:1.0 
1.0 0:0.0 1:0.0 2:0.0 3:0.0 4:0.0 5:1.0 
1.0 0:0.0 1:0.0 2:0.0 3:0.0 4:0.0 5:1.0 
1.0 0:0.0 1:0.0 2:0.0 3:0.0 4:0.0 5:0.0 
1.0 0:0.0 1:0.0 2:0.0 3:0.0 4:0.0 5:0.0 
1.0 0:0.0 1:0.0 2:0.0 3:0.0 4:0.0 5:1.0 
1.0 0:0.0 1:1.0 2:0.0 3:0.0 4:0.0 5:0.0 
1.0 0:0.0 1:0.0 2:0.0 3:0.0 4:0.0 5:1.0 
1.0 0:0.0 1:0.0 2:0.0 3:0.0 4:0.0 5:1.0 
1.0 0:0.0 1:0.0 2:0.0 3:0.0 4:0.0 5:0.0 
1.0 0:0.0 1:0.0 2:0.0 3:0.0 4:0.0 5:0.0 
1.0 0:0.0 1:0.0 2:0.0 3:0.0 4:0.0 5:0.0 
1.0 0:0.0 1:0.0 2:0.0 3:0.0 4:0.0 5:0.0 
1.0 0:0.0 1:0.0 2:0.0 3:0.0 4:0.0 5:1.0 
1.0 0:0.0 1:0.0 2:0.0 3:0.0 4:0.0 5:1.0 
1.0 0:0.0 1:0.0 2:0.0 3:0.0 4:0.0 5:0.0 
1.0 0:0.0 1:0.0 2:0.0 3:0.0 4:0.0 5:0.0 
1.0 0:0.0 1:0.0 2:0.0 3:0.0 4:0.0 5:0.0 
1.0 0:0.0 1:0.0 2:0.0 3:0.0 4:0.0 5:0.0 
1.0 0:0.0 1:0.0 2:0.0 3:0.0 4:0.0 5:0.0 
1.0 0:0.0 1:0.0 2:0.0 3:0.0 4:0.0 5:1.0 
1.0 0:0.0 1:0.0 2:0.0 3:0.0 4:0.0 5:1.0 
1.0 0:0.0 1:0.0 2:0.0 3:0.0 4:0.0 5:1.0 
1.0 0:0.0 1:0.0 2:0.0 3:0.0 4:0.0 5:0.0 
1.0 0:0.0 1:0.0 2:0.0 3:0.0 4:0.0 5:0.0 
1.0 0:0.0 1:0.0 2:0.0 3:0.0 4:0.0 5:0.0 
1.0 0:0.0 1:0.0 2:0.0 3:0.0 4:0.0 5:1.0 
1.0 0:0.0 1:0.0 2:0.0 3:0.0 4:0.0 5:0.0 
1.0 0:0.0 1:0.0 2:0.0 3:0.0 4:0.0 5:0.0 
1.0 0:0.0 1:0.0 2:0.0 3:0.0 4:0.0 5:0.0 
1.0 0:0.0 1:0.0 2:0.0 3:0.0 4:0.0 5:1.0 
1.0 0:0.0 1:0.0 2:0.0 3:0.0 4:0.0 5:0.0 
1.0 0:0.0 1:0.0 2:0.0 3:0.0 4:0.0 5:0.0 
1.0 0:0.0 1:0.0 2:0.0 3:0.0 4:0.0 5:1.0 
1.0 0:0.0 1:0.0 2:0.0 3:0.0 4:0.0 5:0.0 
1.0 0:0.0 1:0.0 2:0.0 3:0.0 4:0.0 5:0.0 
1.0 0:0.0 1:0.0 2:0.0 3:0.0 4:0.0 5:0.0 
1.0 0:0.0 1:0.0 2:0.0 3:0.0 4:0.0 5:0.0 
1.0 0:0.0 1:0.0 2:0.0 3:0.0 4:0.0 5:1.0 
1.0 0:0.0 1:0.0 2:0.0 3:0.0 4:0.0 5:0.0 
1.0 0:0.0 1:0.0 2:0.0 3:0.0 4:0.0 5:0.0 
1.0 0:0.0 1:0.0 2:0.0 3:0.0 4:0.0 5:0.0 
1.0 0:0.0 1:0.0 2:0.0 3:0.0 4:0.0 5:0.0 
1.0 0:0.0 1:0.0 2:0.0 3:0.0 4:0.0 5:0.0 
1.0 0:0.0 1:0.0 2:0.0 3:0.0 4:0.0 5:0.0 
1.0 0:0.0 1:0.0 2:0.0 3:0.0 4:0.0 5:1.0 
1.0 0:0.0 1:0.0 2:0.0 3:0.0 4:0.0 5:0.0 
1.0 0:0.0 1:0.0 2:0.0 3:0.0 4:0.0 5:0.0 
1.0 0:0.0 1:0.0 2:0.0 3:0.0 4:0.0 5:1.0 
1.0 0:0.0 1:0.0 2:0.0 3:0.0 4:0.0 5:1.0 
1.0 0:0.0 1:0.0 2:0.0 3:0.0 4:0.0 5:0.0 
1.0 0:0.0 1:0.0 2:0.0 3:0.0 4:0.0 5:0.0 
1.0 0:0.0 1:0.0 2:0.0 3:0.0 4:0.0 5:1.0 
1.0 0:0.0 1:0.0 2:0.0 3:0.0 4:0.0 5:0.0 
1.0 0:0.0 1:0.0 2:0.0 3:0.0 4:0.0 5:0.0 
1.0 0:0.0 1:0.0 2:0.0 3:0.0 4:0.0 5:0.0 
1.0 0:0.0 1:0.0 2:0.0 3:0.0 4:0.0 5:0.0 
1.0 0:0.0 1:0.0 2:0.0 3:0.0 4:0.0 5:0.0 
1.0 0:0.0 1:0.0 2:0.0 3:0.0 4:0.0 5:0.0 
1.0 0:0.0 1:1.0 2:0.0 3:0.0 4:0.0 5:1.0 
1.0 0:0.0 1:0.0 2:0.0 3:0.0 4:0.0 5:0.0 
1.0 0:0.0 1:0.0 2:0.0 3:0.0 4:0.0 5:0.0 
1.0 0:0.0 1:0.0 2:0.0 3:0.0 4:0.0 5:0.0 
1.0 0:0.0 1:0.0 2:0.0 3:0.0 4:0.0 5:0.0 
1.0 0:0.0 1:0.0 2:0.0 3:0.0 4:0.0 5:1.0 
1.0 0:0.0 1:0.0 2:0.0 3:0.0 4:0.0 5:0.0 
1.0 0:0.0 1:0.0 2:0.0 3:0.0 4:0.0 5:0.0 
1.0 0:0.0 1:0.0 2:0.0 3:0.0 4:0.0 5:1.0 
1.0 0:0.0 1:0.0 2:0.0 3:0.0 4:0.0 5:1.0 
1.0 0:0.0 1:0.0 2:0.0 3:0.0 4:0.0 5:0.0 
1.0 0:0.0 1:0.0 2:0.0 3:0.0 4:0.0 5:0.0 
1.0 0:0.0 1:1.0 2:0.0 3:0.0 4:0.0 5:0.0 
1.0 0:0.0 1:0.0 2:0.0 3:0.0 4:0.0 5:1.0 
1.0 0:0.0 1:0.0 2:0.0 3:0.0 4:0.0 5:0.0 
1.0 0:0.0 1:0.0 2:0.0 3:0.0 4:0.0 5:0.0 
1.0 0:0.0 1:0.0 2:0.0 3:0.0 4:0.0 5:0.0 
1.0 0:0.0 1:0.0 2:0.0 3:0.0 4:0.0 5:0.0 
1.0 0:0.0 1:0.0 2:0.0 3:0.0 4:0.0 5:0.0 
1.0 0:0.0 1:0.0 2:0.0 3:0.0 4:0.0 5:1.0 
1.0 0:0.0 1:0.0 2:0.0 3:0.0 4:0.0 5:1.0 
1.0 0:0.0 1:0.0 2:0.0 3:0.0 4:0.0 5:0.0 
1.0 0:0.0 1:0.0 2:0.0 3:0.0 4:0.0 5:0.0 
1.0 0:0.0 1:0.0 2:0.0 3:0.0 4:0.0 5:0.0 
1.0 0:0.0 1:0.0 2:0.0 3:0.0 4:0.0 5:0.0 
1.0 0:0.0 1:0.0 2:0.0 3:1.0 4:0.0 5:1.0 
1.0 0:0.0 1:0.0 2:0.0 3:0.0 4:0.0 5:0.0 
1.0 0:0.0 1:0.0 2:0.0 3:0.0 4:0.0 5:0.0 
1.0 0:0.0 1:0.0 2:0.0 3:0.0 4:0.0 5:1.0 
1.0 0:0.0 1:0.0 2:0.0 3:0.0 4:0.0 5:0.0 
1.0 0:0.0 1:1.0 2:0.0 3:0.0 4:0.0 5:1.0 
1.0 0:0.0 1:1.0 2:0.0 3:0.0 4:0.0 5:0.0 
1.0 0:0.0 1:1.0 2:0.0 3:0.0 4:0.0 5:1.0 
1.0 0:0.0 1:0.0 2:0.0 3:0.0 4:0.0 5:0.0 
1.0 0:0.0 1:1.0 2:0.0 3:0.0 4:0.0 5:1.0 
1.0 0:0.0 1:0.0 2:0.0 3:0.0 4:0.0 5:0.0 
1.0 0:0.0 1:1.0 2:0.0 3:0.0 4:0.0 5:1.0 
1.0 0:0.0 1:1.0 2:0.0 3:1.0 4:0.0 5:1.0 
1.0 0:0.0 1:0.0 2:0.0 3:0.0 4:0.0 5:0.0 
1.0 0:0.0 1:0.0 2:0.0 3:0.0 4:0.0 5:0.0 
1.0 0:0.0 1:1.0 2:0.0 3:0.0 4:0.0 5:0.0 
1.0 0:0.0 1:0.0 2:0.0 3:0.0 4:0.0 5:1.0 
1.0 0:0.0 1:0.0 2:0.0 3:0.0 4:0.0 5:1.0 
1.0 0:0.0 1:0.0 2:0.0 3:0.0 4:0.0 5:1.0 
1.0 0:0.0 1:0.0 2:0.0 3:0.0 4:0.0 5:0.0 
1.0 0:0.0 1:0.0 2:0.0 3:0.0 4:0.0 5:0.0 
1.0 0:0.0 1:0.0 2:0.0 3:0.0 4:0.0 5:0.0 
1.0 0:0.0 1:1.0 2:0.0 3:1.0 4:0.0 5:0.0 
1.0 0:0.0 1:0.0 2:0.0 3:0.0 4:0.0 5:0.0 
1.0 0:0.0 1:0.0 2:0.0 3:0.0 4:0.0 5:0.0 
1.0 0:0.0 1:0.0 2:0.0 3:0.0 4:0.0 5:1.0 
1.0 0:0.0 1:0.0 2:0.0 3:0.0 4:0.0 5:0.0 
1.0 0:0.0 1:0.0 2:0.0 3:0.0 4:0.0 5:0.0 
1.0 0:0.0 1:0.0 2:0.0 3:0.0 4:0.0 5:0.0 
1.0 0:0.0 1:0.0 2:0.0 3:0.0 4:0.0 5:0.0 
1.0 0:0.0 1:0.0 2:0.0 3:0.0 4:0.0 5:0.0 
1.0 0:0.0 1:0.0 2:0.0 3:0.0 4:0.0 5:0.0 
1.0 0:0.0 1:0.0 2:0.0 3:0.0 4:0.0 5:0.0 
1.0 0:0.0 1:0.0 2:0.0 3:0.0 4:0.0 5:0.0 
1.0 0:0.0 1:0.0 2:0.0 3:0.0 4:0.0 5:1.0 
1.0 0:0.0 1:0.0 2:0.0 3:0.0 4:0.0 5:1.0 
1.0 0:0.0 1:0.0 2:0.0 3:0.0 4:0.0 5:1.0 
1.0 0:0.0 1:0.0 2:0.0 3:0.0 4:0.0 5:0.0 
1.0 0:0.0 1:0.0 2:0.0 3:0.0 4:0.0 5:1.0 
1.0 0:0.0 1:0.0 2:0.0 3:0.0 4:0.0 5:0.0 
1.0 0:0.0 1:1.0 2:0.0 3:0.0 4:0.0 5:1.0 
1.0 0:1.0 1:0.0 2:0.0 3:0.0 4:0.0 5:0.0 
1.0 0:1.0 1:0.0 2:0.0 3:0.0 4:0.0 5:0.0 
1.0 0:1.0 1:0.0 2:0.0 3:0.0 4:0.0 5:0.0 
1.0 0:1.0 1:0.0 2:0.0 3:0.0 4:0.0 5:0.0 
1.0 0:1.0 1:0.0 2:0.0 3:0.0 4:0.0 5:0.0 
1.0 0:1.0 1:0.0 2:0.0 3:0.0 4:0.0 5:0.0 
1.0 0:1.0 1:0.0 2:0.0 3:0.0 4:0.0 5:0.0 
1.0 0:1.0 1:0.0 2:0.0 3:0.0 4:0.0 5:0.0 
1.0 0:0.0 1:0.0 2:0.0 3:0.0 4:0.0 5:0.0 
1.0 0:0.0 1:0.0 2:0.0 3:0.0 4:0.0 5:0.0 
1.0 0:0.0 1:0.0 2:0.0 3:0.0 4:0.0 5:0.0 
1.0 0:0.0 1:0.0 2:0.0 3:0.0 4:0.0 5:1.0 
1.0 0:0.0 1:0.0 2:0.0 3:0.0 4:0.0 5:1.0 
1.0 0:0.0 1:1.0 2:0.0 3:0.0 4:0.0 5:0.0 
1.0 0:0.0 1:0.0 2:0.0 3:0.0 4:0.0 5:0.0 
1.0 0:0.0 1:0.0 2:0.0 3:0.0 4:0.0 5:0.0 
1.0 0:0.0 1:0.0 2:0.0 3:0.0 4:0.0 5:0.0 
1.0 0:0.0 1:0.0 2:0.0 3:0.0 4:0.0 5:0.0 
1.0 0:0.0 1:1.0 2:0.0 3:0.0 4:0.0 5:0.0 
1.0 0:0.0 1:1.0 2:0.0 3:1.0 4:0.0 5:1.0 
1.0 0:0.0 1:0.0 2:0.0 3:0.0 4:0.0 5:0.0 
1.0 0:0.0 1:0.0 2:0.0 3:0.0 4:0.0 5:0.0 
1.0 0:0.0 1:0.0 2:0.0 3:0.0 4:0.0 5:1.0 
1.0 0:0.0 1:1.0 2:0.0 3:0.0 4:0.0 5:0.0 
1.0 0:0.0 1:0.0 2:0.0 3:0.0 4:0.0 5:0.0 
1.0 0:0.0 1:0.0 2:0.0 3:0.0 4:0.0 5:0.0 
1.0 0:0.0 1:0.0 2:0.0 3:0.0 4:0.0 5:0.0 
1.0 0:0.0 1:0.0 2:0.0 3:0.0 4:0.0 5:1.0 
1.0 0:0.0 1:0.0 2:0.0 3:0.0 4:0.0 5:0.0 
1.0 0:0.0 1:0.0 2:0.0 3:0.0 4:0.0 5:1.0 
1.0 0:0.0 1:0.0 2:0.0 3:1.0 4:0.0 5:1.0 
1.0 0:0.0 1:1.0 2:0.0 3:0.0 4:0.0 5:0.0 
1.0 0:0.0 1:0.0 2:0.0 3:0.0 4:0.0 5:0.0 
1.0 0:0.0 1:0.0 2:0.0 3:0.0 4:0.0 5:0.0 
1.0 0:0.0 1:0.0 2:0.0 3:0.0 4:0.0 5:0.0 
1.0 0:0.0 1:0.0 2:0.0 3:0.0 4:0.0 5:1.0 
1.0 0:0.0 1:0.0 2:0.0 3:0.0 4:0.0 5:1.0 
1.0 0:0.0 1:0.0 2:0.0 3:0.0 4:0.0 5:1.0 
1.0 0:0.0 1:0.0 2:0.0 3:0.0 4:0.0 5:0.0 
1.0 0:0.0 1:0.0 2:0.0 3:0.0 4:0.0 5:1.0 
1.0 0:0.0 1:0.0 2:0.0 3:0.0 4:0.0 5:1.0 
1.0 0:0.0 1:0.0 2:0.0 3:0.0 4:0.0 5:1.0 
1.0 0:0.0 1:0.0 2:0.0 3:0.0 4:0.0 5:0.0 
1.0 0:0.0 1:0.0 2:0.0 3:0.0 4:0.0 5:1.0 
1.0 0:0.0 1:0.0 2:0.0 3:0.0 4:0.0 5:0.0 
1.0 0:0.0 1:0.0 2:0.0 3:0.0 4:0.0 5:0.0 
1.0 0:0.0 1:0.0 2:0.0 3:0.0 4:0.0 5:0.0 
1.0 0:0.0 1:1.0 2:0.0 3:0.0 4:0.0 5:1.0 
1.0 0:0.0 1:1.0 2:0.0 3:1.0 4:0.0 5:0.0 
1.0 0:0.0 1:0.0 2:0.0 3:1.0 4:0.0 5:1.0 
1.0 0:0.0 1:1.0 2:0.0 3:0.0 4:0.0 5:1.0 
1.0 0:0.0 1:1.0 2:0.0 3:1.0 4:0.0 5:0.0 
1.0 0:0.0 1:0.0 2:0.0 3:0.0 4:0.0 5:0.0 
1.0 0:0.0 1:0.0 2:0.0 3:0.0 4:0.0 5:0.0 
1.0 0:0.0 1:0.0 2:0.0 3:0.0 4:0.0 5:0.0 
1.0 0:0.0 1:1.0 2:0.0 3:0.0 4:0.0 5:1.0 
1.0 0:0.0 1:1.0 2:0.0 3:0.0 4:0.0 5:0.0 
1.0 0:0.0 1:0.0 2:0.0 3:0.0 4:0.0 5:0.0 
1.0 0:0.0 1:0.0 2:0.0 3:0.0 4:0.0 5:1.0 
1.0 0:1.0 1:1.0 2:0.0 3:0.0 4:0.0 5:0.0 
1.0 0:0.0 1:1.0 2:0.0 3:0.0 4:0.0 5:1.0 
1.0 0:0.0 1:0.0 2:0.0 3:0.0 4:0.0 5:0.0 
1.0 0:0.0 1:0.0 2:0.0 3:0.0 4:0.0 5:0.0 
1.0 0:0.0 1:0.0 2:0.0 3:0.0 4:0.0 5:0.0 
1.0 0:0.0 1:0.0 2:0.0 3:0.0 4:0.0 5:0.0 
1.0 0:0.0 1:0.0 2:0.0 3:0.0 4:0.0 5:0.0 
1.0 0:0.0 1:0.0 2:0.0 3:0.0 4:0.0 5:1.0 
1.0 0:0.0 1:1.0 2:0.0 3:0.0 4:0.0 5:0.0 
1.0 0:0.0 1:0.0 2:0.0 3:0.0 4:0.0 5:0.0 
1.0 0:0.0 1:1.0 2:0.0 3:0.0 4:0.0 5:1.0 
1.0 0:0.0 1:0.0 2:0.0 3:0.0 4:0.0 5:1.0 
1.0 0:0.0 1:1.0 2:0.0 3:0.0 4:0.0 5:0.0 
1.0 0:0.0 1:0.0 2:0.0 3:1.0 4:0.0 5:0.0 
1.0 0:0.0 1:0.0 2:0.0 3:0.0 4:0.0 5:1.0 
1.0 0:0.0 1:0.0 2:0.0 3:0.0 4:0.0 5:1.0 
1.0 0:0.0 1:0.0 2:0.0 3:0.0 4:0.0 5:0.0 
1.0 0:0.0 1:0.0 2:0.0 3:0.0 4:0.0 5:0.0 
1.0 0:0.0 1:0.0 2:0.0 3:0.0 4:0.0 5:0.0 
1.0 0:0.0 1:1.0 2:0.0 3:0.0 4:0.0 5:1.0 
1.0 0:0.0 1:1.0 2:0.0 3:0.0 4:0.0 5:0.0 
1.0 0:0.0 1:0.0 2:0.0 3:0.0 4:0.0 5:0.0 
1.0 0:0.0 1:0.0 2:0.0 3:0.0 4:0.0 5:0.0 
1.0 0:0.0 1:0.0 2:0.0 3:0.0 4:0.0 5:0.0 
1.0 0:0.0 1:0.0 2:0.0 3:0.0 4:0.0 5:0.0 
1.0 0:0.0 1:0.0 2:0.0 3:0.0 4:0.0 5:1.0 
1.0 0:0.0 1:1.0 2:0.0 3:0.0 4:0.0 5:0.0 
1.0 0:0.0 1:0.0 2:0.0 3:0.0 4:0.0 5:1.0 
1.0 0:0.0 1:0.0 2:0.0 3:1.0 4:0.0 5:1.0 
1.0 0:0.0 1:1.0 2:0.0 3:0.0 4:0.0 5:1.0 
1.0 0:0.0 1:1.0 2:0.0 3:1.0 4:0.0 5:0.0 
1.0 0:0.0 1:1.0 2:0.0 3:0.0 4:0.0 5:1.0 
1.0 0:0.0 1:0.0 2:0.0 3:0.0 4:0.0 5:0.0 
1.0 0:0.0 1:0.0 2:0.0 3:0.0 4:0.0 5:0.0 
1.0 0:0.0 1:0.0 2:0.0 3:0.0 4:0.0 5:0.0 
1.0 0:0.0 1:0.0 2:0.0 3:0.0 4:0.0 5:0.0 
1.0 0:0.0 1:0.0 2:0.0 3:0.0 4:0.0 5:1.0 
1.0 0:1.0 1:1.0 2:0.0 3:0.0 4:0.0 5:0.0 
1.0 0:0.0 1:0.0 2:0.0 3:0.0 4:0.0 5:0.0 
1.0 0:0.0 1:0.0 2:0.0 3:1.0 4:0.0 5:1.0 
1.0 0:0.0 1:1.0 2:0.0 3:0.0 4:0.0 5:0.0 
1.0 0:0.0 1:1.0 2:0.0 3:0.0 4:0.0 5:0.0 
1.0 0:0.0 1:0.0 2:0.0 3:0.0 4:0.0 5:0.0 
1.0 0:0.0 1:0.0 2:0.0 3:0.0 4:0.0 5:1.0 
1.0 0:0.0 1:0.0 2:0.0 3:0.0 4:0.0 5:0.0 
1.0 0:0.0 1:1.0 2:0.0 3:0.0 4:0.0 5:1.0 
1.0 0:0.0 1:0.0 2:0.0 3:0.0 4:0.0 5:0.0 
1.0 0:0.0 1:0.0 2:0.0 3:0.0 4:0.0 5:0.0 
1.0 0:0.0 1:0.0 2:0.0 3:0.0 4:0.0 5:0.0 
1.0 0:0.0 1:0.0 2:0.0 3:0.0 4:0.0 5:0.0 
1.0 0:0.0 1:0.0 2:0.0 3:0.0 4:0.0 5:0.0 
1.0 0:0.0 1:0.0 2:0.0 3:0.0 4:0.0 5:0.0 
1.0 0:0.0 1:0.0 2:0.0 3:0.0 4:0.0 5:0.0 
1.0 0:0.0 1:0.0 2:0.0 3:0.0 4:0.0 5:1.0 
1.0 0:0.0 1:0.0 2:0.0 3:0.0 4:0.0 5:1.0 
1.0 0:0.0 1:0.0 2:0.0 3:0.0 4:0.0 5:1.0 
1.0 0:0.0 1:0.0 2:0.0 3:0.0 4:0.0 5:1.0 
1.0 0:0.0 1:0.0 2:0.0 3:0.0 4:0.0 5:0.0 
1.0 0:0.0 1:0.0 2:0.0 3:0.0 4:0.0 5:0.0 
1.0 0:0.0 1:0.0 2:0.0 3:0.0 4:0.0 5:1.0 
1.0 0:0.0 1:0.0 2:0.0 3:0.0 4:0.0 5:0.0 
1.0 0:0.0 1:0.0 2:0.0 3:0.0 4:0.0 5:1.0 
1.0 0:0.0 1:0.0 2:0.0 3:0.0 4:0.0 5:0.0 
1.0 0:0.0 1:0.0 2:0.0 3:0.0 4:0.0 5:1.0 
1.0 0:0.0 1:0.0 2:0.0 3:0.0 4:0.0 5:0.0 
1.0 0:0.0 1:0.0 2:0.0 3:0.0 4:0.0 5:1.0 
1.0 0:0.0 1:0.0 2:0.0 3:1.0 4:0.0 5:1.0 
1.0 0:0.0 1:0.0 2:0.0 3:0.0 4:0.0 5:1.0 
1.0 0:0.0 1:0.0 2:0.0 3:0.0 4:0.0 5:0.0 
1.0 0:0.0 1:0.0 2:0.0 3:0.0 4:0.0 5:1.0 
1.0 0:0.0 1:0.0 2:0.0 3:0.0 4:0.0 5:1.0 
1.0 0:0.0 1:0.0 2:0.0 3:0.0 4:0.0 5:1.0 
1.0 0:0.0 1:0.0 2:0.0 3:0.0 4:0.0 5:1.0 
1.0 0:0.0 1:0.0 2:0.0 3:0.0 4:0.0 5:1.0 
1.0 0:0.0 1:0.0 2:0.0 3:0.0 4:0.0 5:1.0 
1.0 0:0.0 1:0.0 2:0.0 3:0.0 4:0.0 5:1.0 
1.0 0:0.0 1:0.0 2:0.0 3:0.0 4:0.0 5:1.0 
1.0 0:0.0 1:1.0 2:0.0 3:1.0 4:0.0 5:1.0 
1.0 0:0.0 1:0.0 2:0.0 3:0.0 4:0.0 5:1.0 
1.0 0:0.0 1:0.0 2:0.0 3:0.0 4:0.0 5:1.0 
1.0 0:0.0 1:0.0 2:0.0 3:0.0 4:0.0 5:1.0 
1.0 0:0.0 1:0.0 2:0.0 3:0.0 4:0.0 5:1.0 
1.0 0:0.0 1:0.0 2:0.0 3:0.0 4:0.0 5:0.0 
1.0 0:0.0 1:0.0 2:0.0 3:0.0 4:0.0 5:1.0 
1.0 0:0.0 1:0.0 2:0.0 3:0.0 4:0.0 5:0.0 
1.0 0:0.0 1:0.0 2:0.0 3:0.0 4:0.0 5:0.0 
1.0 0:0.0 1:0.0 2:0.0 3:1.0 4:0.0 5:0.0 
1.0 0:0.0 1:0.0 2:0.0 3:1.0 4:0.0 5:0.0 
1.0 0:0.0 1:0.0 2:0.0 3:0.0 4:0.0 5:0.0 
1.0 0:0.0 1:0.0 2:0.0 3:0.0 4:0.0 5:1.0 
1.0 0:0.0 1:0.0 2:0.0 3:0.0 4:0.0 5:1.0 
1.0 0:0.0 1:0.0 2:0.0 3:0.0 4:0.0 5:0.0 
1.0 0:0.0 1:0.0 2:0.0 3:0.0 4:0.0 5:0.0 
1.0 0:0.0 1:0.0 2:0.0 3:0.0 4:0.0 5:0.0 
1.0 0:0.0 1:0.0 2:0.0 3:0.0 4:0.0 5:0.0 
1.0 0:0.0 1:0.0 2:0.0 3:0.0 4:0.0 5:0.0 
1.0 0:0.0 1:0.0 2:0.0 3:0.0 4:0.0 5:0.0 
1.0 0:0.0 1:0.0 2:0.0 3:0.0 4:0.0 5:0.0 
1.0 0:0.0 1:0.0 2:0.0 3:0.0 4:0.0 5:0.0 
1.0 0:0.0 1:0.0 2:0.0 3:0.0 4:0.0 5:0.0 
1.0 0:0.0 1:0.0 2:0.0 3:0.0 4:0.0 5:0.0 
1.0 0:0.0 1:0.0 2:0.0 3:0.0 4:0.0 5:0.0 
1.0 0:0.0 1:0.0 2:0.0 3:0.0 4:0.0 5:1.0 
1.0 0:0.0 1:0.0 2:0.0 3:0.0 4:0.0 5:0.0 
1.0 0:0.0 1:0.0 2:0.0 3:0.0 4:0.0 5:0.0 
1.0 0:0.0 1:0.0 2:0.0 3:0.0 4:0.0 5:0.0 
1.0 0:0.0 1:0.0 2:0.0 3:0.0 4:0.0 5:0.0 
1.0 0:0.0 1:0.0 2:0.0 3:0.0 4:0.0 5:0.0 
1.0 0:0.0 1:0.0 2:0.0 3:0.0 4:0.0 5:0.0 
1.0 0:0.0 1:1.0 2:0.0 3:0.0 4:0.0 5:0.0 
1.0 0:0.0 1:0.0 2:0.0 3:0.0 4:0.0 5:0.0 
1.0 0:0.0 1:0.0 2:0.0 3:0.0 4:0.0 5:0.0 
1.0 0:0.0 1:1.0 2:0.0 3:1.0 4:0.0 5:1.0 
1.0 0:0.0 1:0.0 2:0.0 3:0.0 4:0.0 5:1.0 
1.0 0:0.0 1:1.0 2:0.0 3:0.0 4:0.0 5:1.0 
1.0 0:0.0 1:0.0 2:0.0 3:0.0 4:0.0 5:0.0 
1.0 0:0.0 1:0.0 2:0.0 3:0.0 4:0.0 5:0.0 
1.0 0:0.0 1:0.0 2:0.0 3:0.0 4:0.0 5:0.0 
1.0 0:0.0 1:0.0 2:0.0 3:0.0 4:0.0 5:0.0 
1.0 0:0.0 1:0.0 2:0.0 3:0.0 4:0.0 5:1.0 
1.0 0:0.0 1:0.0 2:0.0 3:1.0 4:0.0 5:1.0 
1.0 0:0.0 1:0.0 2:0.0 3:0.0 4:0.0 5:0.0 
1.0 0:0.0 1:0.0 2:0.0 3:1.0 4:0.0 5:0.0 
1.0 0:0.0 1:0.0 2:0.0 3:0.0 4:0.0 5:0.0 
1.0 0:0.0 1:0.0 2:0.0 3:0.0 4:0.0 5:1.0 
1.0 0:0.0 1:0.0 2:0.0 3:0.0 4:0.0 5:0.0 
1.0 0:0.0 1:0.0 2:0.0 3:0.0 4:0.0 5:1.0 
1.0 0:0.0 1:0.0 2:0.0 3:0.0 4:0.0 5:0.0 
1.0 0:0.0 1:0.0 2:0.0 3:0.0 4:0.0 5:0.0 
1.0 0:0.0 1:0.0 2:0.0 3:0.0 4:0.0 5:0.0 
1.0 0:0.0 1:0.0 2:0.0 3:0.0 4:0.0 5:0.0 
1.0 0:0.0 1:0.0 2:0.0 3:0.0 4:0.0 5:1.0 
1.0 0:0.0 1:0.0 2:0.0 3:0.0 4:0.0 5:1.0 
1.0 0:0.0 1:0.0 2:0.0 3:0.0 4:0.0 5:0.0 
1.0 0:0.0 1:0.0 2:0.0 3:0.0 4:0.0 5:0.0 
1.0 0:0.0 1:0.0 2:0.0 3:0.0 4:0.0 5:0.0 
1.0 0:0.0 1:0.0 2:0.0 3:0.0 4:0.0 5:0.0 
1.0 0:0.0 1:0.0 2:0.0 3:0.0 4:0.0 5:1.0 
1.0 0:0.0 1:0.0 2:0.0 3:0.0 4:0.0 5:1.0 
1.0 0:0.0 1:0.0 2:0.0 3:0.0 4:0.0 5:0.0 
1.0 0:0.0 1:0.0 2:0.0 3:0.0 4:0.0 5:0.0 
1.0 0:0.0 1:0.0 2:0.0 3:0.0 4:0.0 5:0.0 
1.0 0:0.0 1:0.0 2:0.0 3:0.0 4:0.0 5:0.0 
1.0 0:0.0 1:0.0 2:0.0 3:0.0 4:0.0 5:0.0 
1.0 0:0.0 1:1.0 2:0.0 3:0.0 4:0.0 5:0.0 
1.0 0:0.0 1:0.0 2:0.0 3:0.0 4:0.0 5:1.0 
1.0 0:0.0 1:0.0 2:0.0 3:0.0 4:0.0 5:1.0 
1.0 0:0.0 1:0.0 2:0.0 3:0.0 4:0.0 5:0.0 
1.0 0:0.0 1:0.0 2:0.0 3:0.0 4:0.0 5:1.0 
1.0 0:0.0 1:0.0 2:0.0 3:0.0 4:0.0 5:0.0 
1.0 0:0.0 1:0.0 2:0.0 3:0.0 4:0.0 5:0.0 
1.0 0:0.0 1:0.0 2:0.0 3:0.0 4:0.0 5:0.0 
1.0 0:0.0 1:0.0 2:0.0 3:0.0 4:0.0 5:1.0 
1.0 0:0.0 1:0.0 2:0.0 3:0.0 4:0.0 5:0.0 
1.0 0:0.0 1:0.0 2:0.0 3:0.0 4:0.0 5:0.0 
1.0 0:0.0 1:0.0 2:0.0 3:0.0 4:0.0 5:0.0 
1.0 0:0.0 1:0.0 2:0.0 3:0.0 4:0.0 5:1.0 
1.0 0:0.0 1:0.0 2:0.0 3:0.0 4:0.0 5:0.0 
1.0 0:0.0 1:0.0 2:0.0 3:0.0 4:0.0 5:0.0 
1.0 0:0.0 1:0.0 2:0.0 3:0.0 4:0.0 5:1.0 
1.0 0:0.0 1:0.0 2:0.0 3:1.0 4:0.0 5:0.0 
1.0 0:0.0 1:0.0 2:0.0 3:0.0 4:0.0 5:1.0 
1.0 0:0.0 1:0.0 2:0.0 3:0.0 4:0.0 5:0.0 
1.0 0:0.0 1:0.0 2:0.0 3:0.0 4:0.0 5:1.0 
1.0 0:0.0 1:0.0 2:0.0 3:1.0 4:0.0 5:1.0 
1.0 0:0.0 1:0.0 2:0.0 3:0.0 4:0.0 5:1.0 
1.0 0:0.0 1:0.0 2:0.0 3:1.0 4:0.0 5:1.0 
1.0 0:0.0 1:0.0 2:0.0 3:0.0 4:0.0 5:1.0 
1.0 0:0.0 1:1.0 2:0.0 3:1.0 4:0.0 5:0.0 
1.0 0:0.0 1:0.0 2:0.0 3:0.0 4:0.0 5:1.0 
1.0 0:0.0 1:0.0 2:0.0 3:0.0 4:0.0 5:0.0 
1.0 0:0.0 1:0.0 2:0.0 3:0.0 4:0.0 5:0.0 
1.0 0:1.0 1:1.0 2:0.0 3:0.0 4:0.0 5:1.0 
1.0 0:0.0 1:0.0 2:0.0 3:0.0 4:0.0 5:0.0 
1.0 0:0.0 1:0.0 2:0.0 3:0.0 4:0.0 5:1.0 
1.0 0:0.0 1:0.0 2:0.0 3:0.0 4:0.0 5:1.0 
1.0 0:0.0 1:0.0 2:0.0 3:0.0 4:0.0 5:1.0 
1.0 0:0.0 1:0.0 2:0.0 3:0.0 4:0.0 5:1.0 
1.0 0:0.0 1:0.0 2:0.0 3:0.0 4:0.0 5:1.0 
1.0 0:0.0 1:0.0 2:0.0 3:0.0 4:0.0 5:1.0 
1.0 0:0.0 1:0.0 2:0.0 3:0.0 4:0.0 5:1.0 
1.0 0:0.0 1:0.0 2:0.0 3:0.0 4:0.0 5:1.0 
1.0 0:0.0 1:0.0 2:0.0 3:0.0 4:0.0 5:0.0 
1.0 0:0.0 1:0.0 2:0.0 3:0.0 4:0.0 5:1.0 
1.0 0:0.0 1:0.0 2:0.0 3:0.0 4:0.0 5:0.0 
1.0 0:0.0 1:0.0 2:0.0 3:1.0 4:0.0 5:1.0 
1.0 0:0.0 1:0.0 2:0.0 3:0.0 4:0.0 5:0.0 
1.0 0:0.0 1:0.0 2:0.0 3:0.0 4:0.0 5:0.0 
1.0 0:0.0 1:0.0 2:0.0 3:0.0 4:0.0 5:0.0 
1.0 0:0.0 1:0.0 2:0.0 3:0.0 4:0.0 5:0.0 
1.0 0:0.0 1:0.0 2:0.0 3:0.0 4:0.0 5:0.0 
1.0 0:0.0 1:0.0 2:0.0 3:0.0 4:0.0 5:0.0 
1.0 0:0.0 1:0.0 2:0.0 3:0.0 4:0.0 5:0.0 
1.0 0:0.0 1:0.0 2:0.0 3:0.0 4:0.0 5:1.0 
1.0 0:0.0 1:0.0 2:0.0 3:0.0 4:0.0 5:0.0 
1.0 0:0.0 1:1.0 2:0.0 3:0.0 4:0.0 5:0.0 
1.0 0:0.0 1:0.0 2:0.0 3:0.0 4:0.0 5:0.0 
1.0 0:0.0 1:0.0 2:0.0 3:0.0 4:0.0 5:0.0 
1.0 0:0.0 1:0.0 2:0.0 3:0.0 4:0.0 5:0.0 
1.0 0:0.0 1:1.0 2:0.0 3:1.0 4:0.0 5:0.0 
1.0 0:0.0 1:0.0 2:0.0 3:1.0 4:0.0 5:1.0 
1.0 0:0.0 1:1.0 2:0.0 3:0.0 4:0.0 5:0.0 
1.0 0:0.0 1:0.0 2:0.0 3:0.0 4:0.0 5:1.0 
1.0 0:0.0 1:0.0 2:0.0 3:0.0 4:0.0 5:0.0 
1.0 0:0.0 1:0.0 2:0.0 3:0.0 4:0.0 5:0.0 
1.0 0:0.0 1:0.0 2:0.0 3:0.0 4:0.0 5:1.0 
1.0 0:0.0 1:0.0 2:0.0 3:0.0 4:0.0 5:1.0 
1.0 0:0.0 1:1.0 2:0.0 3:0.0 4:0.0 5:1.0 
1.0 0:0.0 1:0.0 2:0.0 3:0.0 4:0.0 5:0.0 
1.0 0:0.0 1:0.0 2:0.0 3:0.0 4:0.0 5:0.0 
1.0 0:0.0 1:0.0 2:0.0 3:0.0 4:0.0 5:0.0 
1.0 0:0.0 1:0.0 2:0.0 3:0.0 4:0.0 5:1.0 
1.0 0:0.0 1:0.0 2:0.0 3:0.0 4:0.0 5:0.0 
1.0 0:0.0 1:0.0 2:0.0 3:0.0 4:0.0 5:1.0 
1.0 0:0.0 1:0.0 2:0.0 3:0.0 4:0.0 5:1.0 
1.0 0:0.0 1:0.0 2:0.0 3:0.0 4:0.0 5:0.0 
1.0 0:0.0 1:0.0 2:0.0 3:0.0 4:0.0 5:0.0 
1.0 0:0.0 1:0.0 2:0.0 3:0.0 4:0.0 5:1.0 
1.0 0:0.0 1:0.0 2:0.0 3:0.0 4:0.0 5:0.0 
1.0 0:0.0 1:0.0 2:0.0 3:0.0 4:0.0 5:0.0 
1.0 0:0.0 1:0.0 2:0.0 3:0.0 4:0.0 5:1.0 
1.0 0:0.0 1:0.0 2:0.0 3:0.0 4:0.0 5:0.0 
1.0 0:0.0 1:0.0 2:0.0 3:0.0 4:0.0 5:0.0 
1.0 0:0.0 1:0.0 2:0.0 3:0.0 4:0.0 5:0.0 
1.0 0:0.0 1:1.0 2:0.0 3:0.0 4:0.0 5:0.0 
1.0 0:0.0 1:0.0 2:0.0 3:0.0 4:0.0 5:1.0 
1.0 0:0.0 1:0.0 2:0.0 3:0.0 4:0.0 5:1.0 
1.0 0:0.0 1:0.0 2:0.0 3:0.0 4:0.0 5:1.0 
1.0 0:0.0 1:0.0 2:0.0 3:0.0 4:0.0 5:1.0 
1.0 0:0.0 1:0.0 2:0.0 3:0.0 4:0.0 5:0.0 
1.0 0:0.0 1:0.0 2:0.0 3:0.0 4:0.0 5:0.0 
1.0 0:0.0 1:0.0 2:0.0 3:0.0 4:0.0 5:0.0 
1.0 0:0.0 1:0.0 2:0.0 3:0.0 4:0.0 5:1.0 
1.0 0:0.0 1:0.0 2:0.0 3:0.0 4:0.0 5:1.0 
1.0 0:0.0 1:0.0 2:0.0 3:0.0 4:0.0 5:0.0 
1.0 0:0.0 1:0.0 2:0.0 3:0.0 4:0.0 5:0.0 
1.0 0:0.0 1:1.0 2:0.0 3:1.0 4:0.0 5:0.0 
1.0 0:0.0 1:0.0 2:0.0 3:1.0 4:0.0 5:1.0 
1.0 0:0.0 1:0.0 2:0.0 3:0.0 4:0.0 5:0.0 
1.0 0:0.0 1:0.0 2:0.0 3:0.0 4:0.0 5:1.0 
1.0 0:0.0 1:0.0 2:0.0 3:0.0 4:0.0 5:0.0 
1.0 0:0.0 1:0.0 2:0.0 3:0.0 4:0.0 5:1.0 
1.0 0:0.0 1:0.0 2:0.0 3:0.0 4:0.0 5:0.0 
1.0 0:0.0 1:0.0 2:0.0 3:0.0 4:0.0 5:1.0 
1.0 0:0.0 1:0.0 2:0.0 3:0.0 4:0.0 5:1.0 
1.0 0:0.0 1:0.0 2:0.0 3:0.0 4:0.0 5:0.0 
1.0 0:0.0 1:0.0 2:0.0 3:0.0 4:0.0 5:0.0 
1.0 0:0.0 1:0.0 2:0.0 3:0.0 4:0.0 5:1.0 
1.0 0:0.0 1:0.0 2:0.0 3:0.0 4:0.0 5:0.0 
1.0 0:0.0 1:0.0 2:0.0 3:0.0 4:0.0 5:0.0 
1.0 0:0.0 1:0.0 2:0.0 3:0.0 4:0.0 5:1.0 
1.0 0:0.0 1:0.0 2:0.0 3:0.0 4:0.0 5:1.0 
1.0 0:0.0 1:0.0 2:0.0 3:0.0 4:0.0 5:1.0 
1.0 0:0.0 1:0.0 2:0.0 3:0.0 4:0.0 5:1.0 
1.0 0:0.0 1:0.0 2:0.0 3:0.0 4:0.0 5:0.0 
1.0 0:0.0 1:0.0 2:0.0 3:0.0 4:0.0 5:1.0 
1.0 0:0.0 1:0.0 2:0.0 3:0.0 4:0.0 5:1.0 
1.0 0:0.0 1:0.0 2:0.0 3:0.0 4:0.0 5:0.0 
1.0 0:0.0 1:0.0 2:0.0 3:0.0 4:0.0 5:0.0 
1.0 0:0.0 1:0.0 2:0.0 3:0.0 4:0.0 5:0.0 
1.0 0:0.0 1:0.0 2:0.0 3:0.0 4:0.0 5:0.0 
1.0 0:0.0 1:0.0 2:0.0 3:0.0 4:0.0 5:1.0 
1.0 0:0.0 1:0.0 2:0.0 3:0.0 4:0.0 5:0.0 
1.0 0:0.0 1:0.0 2:0.0 3:0.0 4:0.0 5:0.0 
1.0 0:0.0 1:0.0 2:0.0 3:0.0 4:0.0 5:0.0 
1.0 0:0.0 1:0.0 2:0.0 3:0.0 4:0.0 5:0.0 
1.0 0:0.0 1:0.0 2:0.0 3:0.0 4:0.0 5:1.0 
1.0 0:0.0 1:0.0 2:0.0 3:0.0 4:0.0 5:1.0 
1.0 0:0.0 1:0.0 2:0.0 3:0.0 4:0.0 5:0.0 
1.0 0:0.0 1:0.0 2:0.0 3:0.0 4:0.0 5:0.0 
1.0 0:0.0 1:0.0 2:0.0 3:0.0 4:0.0 5:0.0 
1.0 0:0.0 1:0.0 2:0.0 3:0.0 4:0.0 5:0.0 
1.0 0:0.0 1:0.0 2:0.0 3:0.0 4:0.0 5:0.0 
1.0 0:0.0 1:0.0 2:0.0 3:0.0 4:0.0 5:0.0 
1.0 0:0.0 1:0.0 2:0.0 3:0.0 4:0.0 5:1.0 
1.0 0:0.0 1:1.0 2:0.0 3:0.0 4:0.0 5:1.0 
1.0 0:0.0 1:0.0 2:0.0 3:0.0 4:0.0 5:0.0 
1.0 0:0.0 1:0.0 2:0.0 3:0.0 4:0.0 5:0.0 
1.0 0:0.0 1:0.0 2:0.0 3:0.0 4:0.0 5:0.0 
1.0 0:0.0 1:0.0 2:0.0 3:0.0 4:0.0 5:0.0 
1.0 0:0.0 1:0.0 2:0.0 3:0.0 4:0.0 5:0.0 
1.0 0:0.0 1:0.0 2:0.0 3:0.0 4:0.0 5:1.0 
1.0 0:0.0 1:0.0 2:0.0 3:0.0 4:0.0 5:0.0 
1.0 0:0.0 1:0.0 2:0.0 3:0.0 4:0.0 5:0.0 
1.0 0:0.0 1:0.0 2:0.0 3:0.0 4:0.0 5:0.0 
1.0 0:0.0 1:0.0 2:0.0 3:0.0 4:0.0 5:0.0 
1.0 0:0.0 1:0.0 2:0.0 3:0.0 4:0.0 5:1.0 
1.0 0:0.0 1:0.0 2:0.0 3:0.0 4:0.0 5:1.0 
1.0 0:0.0 1:0.0 2:0.0 3:0.0 4:0.0 5:1.0 
1.0 0:0.0 1:1.0 2:0.0 3:0.0 4:0.0 5:1.0 
1.0 0:0.0 1:0.0 2:0.0 3:0.0 4:0.0 5:0.0 
1.0 0:0.0 1:0.0 2:0.0 3:0.0 4:0.0 5:0.0 
1.0 0:0.0 1:0.0 2:0.0 3:0.0 4:0.0 5:0.0 
1.0 0:0.0 1:0.0 2:0.0 3:0.0 4:0.0 5:0.0 
1.0 0:0.0 1:0.0 2:0.0 3:0.0 4:0.0 5:0.0 
1.0 0:0.0 1:0.0 2:0.0 3:0.0 4:0.0 5:1.0 
1.0 0:0.0 1:0.0 2:0.0 3:0.0 4:0.0 5:1.0 
1.0 0:0.0 1:0.0 2:0.0 3:0.0 4:0.0 5:0.0 
1.0 0:0.0 1:0.0 2:0.0 3:0.0 4:0.0 5:1.0 
1.0 0:0.0 1:0.0 2:0.0 3:0.0 4:0.0 5:1.0 
1.0 0:0.0 1:0.0 2:0.0 3:0.0 4:0.0 5:1.0 
1.0 0:0.0 1:0.0 2:0.0 3:0.0 4:0.0 5:0.0 
1.0 0:0.0 1:0.0 2:0.0 3:0.0 4:0.0 5:1.0 
1.0 0:0.0 1:0.0 2:0.0 3:0.0 4:0.0 5:0.0 
1.0 0:0.0 1:0.0 2:0.0 3:0.0 4:0.0 5:0.0 
1.0 0:0.0 1:0.0 2:0.0 3:0.0 4:0.0 5:0.0 
1.0 0:0.0 1:0.0 2:0.0 3:0.0 4:0.0 5:0.0 
1.0 0:0.0 1:0.0 2:0.0 3:0.0 4:0.0 5:0.0 
1.0 0:0.0 1:0.0 2:0.0 3:0.0 4:0.0 5:1.0 
1.0 0:0.0 1:0.0 2:0.0 3:0.0 4:0.0 5:1.0 
1.0 0:0.0 1:0.0 2:0.0 3:0.0 4:0.0 5:0.0 
1.0 0:0.0 1:0.0 2:0.0 3:0.0 4:0.0 5:1.0 
1.0 0:0.0 1:0.0 2:0.0 3:0.0 4:0.0 5:0.0 
1.0 0:0.0 1:0.0 2:0.0 3:0.0 4:0.0 5:0.0 
1.0 0:0.0 1:0.0 2:0.0 3:0.0 4:0.0 5:0.0 
1.0 0:0.0 1:0.0 2:0.0 3:0.0 4:0.0 5:0.0 
1.0 0:0.0 1:0.0 2:0.0 3:0.0 4:0.0 5:0.0 
1.0 0:0.0 1:0.0 2:0.0 3:0.0 4:0.0 5:1.0 
1.0 0:0.0 1:0.0 2:0.0 3:0.0 4:0.0 5:0.0 
1.0 0:0.0 1:0.0 2:0.0 3:0.0 4:0.0 5:1.0 
1.0 0:0.0 1:0.0 2:0.0 3:0.0 4:0.0 5:0.0 
1.0 0:0.0 1:0.0 2:0.0 3:0.0 4:0.0 5:0.0 
1.0 0:0.0 1:0.0 2:0.0 3:0.0 4:0.0 5:0.0 
1.0 0:0.0 1:0.0 2:0.0 3:0.0 4:0.0 5:1.0 
1.0 0:0.0 1:0.0 2:0.0 3:0.0 4:0.0 5:0.0 
1.0 0:0.0 1:0.0 2:0.0 3:0.0 4:0.0 5:0.0 
1.0 0:0.0 1:0.0 2:0.0 3:0.0 4:0.0 5:1.0 
1.0 0:0.0 1:0.0 2:0.0 3:0.0 4:0.0 5:0.0 
1.0 0:0.0 1:0.0 2:0.0 3:0.0 4:0.0 5:0.0 
1.0 0:0.0 1:0.0 2:0.0 3:0.0 4:0.0 5:0.0 
1.0 0:0.0 1:0.0 2:0.0 3:0.0 4:0.0 5:1.0 
1.0 0:0.0 1:0.0 2:0.0 3:0.0 4:0.0 5:0.0 
1.0 0:0.0 1:0.0 2:0.0 3:0.0 4:0.0 5:1.0 
1.0 0:0.0 1:0.0 2:0.0 3:0.0 4:0.0 5:0.0 
1.0 0:0.0 1:0.0 2:0.0 3:1.0 4:0.0 5:1.0 
1.0 0:0.0 1:0.0 2:0.0 3:0.0 4:0.0 5:1.0 
1.0 0:0.0 1:0.0 2:0.0 3:0.0 4:0.0 5:0.0 
1.0 0:0.0 1:0.0 2:0.0 3:0.0 4:0.0 5:0.0 
1.0 0:0.0 1:1.0 2:0.0 3:0.0 4:0.0 5:0.0 
1.0 0:0.0 1:0.0 2:0.0 3:0.0 4:0.0 5:1.0 
1.0 0:0.0 1:0.0 2:0.0 3:0.0 4:0.0 5:1.0 
1.0 0:0.0 1:0.0 2:0.0 3:0.0 4:0.0 5:1.0 
1.0 0:0.0 1:0.0 2:0.0 3:0.0 4:0.0 5:1.0 
1.0 0:0.0 1:0.0 2:0.0 3:0.0 4:0.0 5:0.0 
1.0 0:0.0 1:0.0 2:0.0 3:0.0 4:0.0 5:0.0 
1.0 0:0.0 1:0.0 2:0.0 3:0.0 4:0.0 5:0.0 
1.0 0:0.0 1:0.0 2:0.0 3:0.0 4:0.0 5:0.0 
1.0 0:0.0 1:0.0 2:0.0 3:0.0 4:0.0 5:0.0 
1.0 0:0.0 1:0.0 2:0.0 3:0.0 4:0.0 5:0.0 
1.0 0:0.0 1:0.0 2:0.0 3:0.0 4:0.0 5:0.0 
1.0 0:0.0 1:0.0 2:0.0 3:0.0 4:0.0 5:0.0 
1.0 0:0.0 1:0.0 2:0.0 3:0.0 4:0.0 5:1.0 
1.0 0:0.0 1:0.0 2:0.0 3:0.0 4:0.0 5:0.0 
1.0 0:0.0 1:0.0 2:0.0 3:0.0 4:0.0 5:0.0 
1.0 0:0.0 1:0.0 2:0.0 3:0.0 4:0.0 5:0.0 
1.0 0:0.0 1:0.0 2:0.0 3:0.0 4:0.0 5:0.0 
1.0 0:0.0 1:0.0 2:0.0 3:0.0 4:0.0 5:0.0 
1.0 0:0.0 1:0.0 2:0.0 3:0.0 4:0.0 5:1.0 
1.0 0:0.0 1:0.0 2:0.0 3:0.0 4:0.0 5:1.0 
1.0 0:0.0 1:0.0 2:0.0 3:0.0 4:0.0 5:0.0 
1.0 0:0.0 1:0.0 2:0.0 3:0.0 4:0.0 5:1.0 
1.0 0:0.0 1:0.0 2:0.0 3:0.0 4:0.0 5:1.0 
1.0 0:0.0 1:0.0 2:0.0 3:0.0 4:0.0 5:0.0 
1.0 0:0.0 1:0.0 2:0.0 3:0.0 4:0.0 5:0.0 
1.0 0:0.0 1:1.0 2:0.0 3:0.0 4:0.0 5:1.0 
1.0 0:0.0 1:0.0 2:0.0 3:0.0 4:0.0 5:0.0 
1.0 0:0.0 1:0.0 2:0.0 3:0.0 4:0.0 5:1.0 
1.0 0:0.0 1:0.0 2:0.0 3:0.0 4:0.0 5:0.0 
1.0 0:0.0 1:0.0 2:0.0 3:0.0 4:0.0 5:0.0 
1.0 0:0.0 1:0.0 2:0.0 3:0.0 4:0.0 5:1.0 
1.0 0:0.0 1:0.0 2:0.0 3:0.0 4:0.0 5:0.0 
1.0 0:0.0 1:0.0 2:0.0 3:0.0 4:0.0 5:0.0 
1.0 0:0.0 1:0.0 2:0.0 3:0.0 4:0.0 5:0.0 
1.0 0:0.0 1:0.0 2:0.0 3:1.0 4:0.0 5:0.0 
1.0 0:0.0 1:0.0 2:0.0 3:0.0 4:0.0 5:1.0 
1.0 0:0.0 1:0.0 2:0.0 3:0.0 4:0.0 5:0.0 
1.0 0:0.0 1:0.0 2:0.0 3:0.0 4:0.0 5:0.0 
1.0 0:0.0 1:0.0 2:0.0 3:1.0 4:0.0 5:0.0 
1.0 0:0.0 1:0.0 2:0.0 3:0.0 4:0.0 5:0.0 
1.0 0:0.0 1:0.0 2:0.0 3:0.0 4:0.0 5:1.0 
1.0 0:0.0 1:0.0 2:0.0 3:0.0 4:0.0 5:0.0 
1.0 0:0.0 1:0.0 2:0.0 3:0.0 4:0.0 5:0.0 
1.0 0:0.0 1:0.0 2:0.0 3:0.0 4:0.0 5:0.0 
1.0 0:0.0 1:0.0 2:0.0 3:0.0 4:0.0 5:0.0 
1.0 0:0.0 1:0.0 2:0.0 3:0.0 4:0.0 5:0.0 
1.0 0:0.0 1:0.0 2:0.0 3:1.0 4:0.0 5:1.0 
1.0 0:0.0 1:0.0 2:0.0 3:0.0 4:0.0 5:1.0 
1.0 0:0.0 1:0.0 2:0.0 3:0.0 4:0.0 5:1.0 
1.0 0:1.0 1:0.0 2:0.0 3:0.0 4:0.0 5:0.0 
1.0 0:0.0 1:0.0 2:0.0 3:0.0 4:0.0 5:0.0 
1.0 0:0.0 1:0.0 2:0.0 3:0.0 4:0.0 5:1.0 
1.0 0:0.0 1:0.0 2:0.0 3:0.0 4:0.0 5:0.0 
1.0 0:0.0 1:0.0 2:0.0 3:0.0 4:0.0 5:0.0 
1.0 0:0.0 1:0.0 2:0.0 3:1.0 4:0.0 5:1.0 
1.0 0:0.0 1:0.0 2:0.0 3:0.0 4:0.0 5:0.0 
1.0 0:0.0 1:0.0 2:0.0 3:1.0 4:0.0 5:1.0 
1.0 0:0.0 1:0.0 2:0.0 3:0.0 4:0.0 5:1.0 
1.0 0:0.0 1:0.0 2:0.0 3:1.0 4:0.0 5:1.0 
1.0 0:0.0 1:0.0 2:0.0 3:0.0 4:0.0 5:0.0 
1.0 0:0.0 1:0.0 2:0.0 3:1.0 4:0.0 5:1.0 
1.0 0:0.0 1:0.0 2:0.0 3:0.0 4:0.0 5:1.0 
1.0 0:0.0 1:0.0 2:0.0 3:0.0 4:0.0 5:1.0 
1.0 0:0.0 1:0.0 2:0.0 3:1.0 4:0.0 5:1.0 
1.0 0:0.0 1:0.0 2:0.0 3:0.0 4:0.0 5:0.0 
1.0 0:0.0 1:0.0 2:0.0 3:0.0 4:0.0 5:1.0 
1.0 0:0.0 1:0.0 2:0.0 3:0.0 4:0.0 5:0.0 
1.0 0:0.0 1:0.0 2:0.0 3:0.0 4:0.0 5:1.0 
1.0 0:0.0 1:0.0 2:0.0 3:0.0 4:0.0 5:0.0 
1.0 0:0.0 1:0.0 2:0.0 3:0.0 4:0.0 5:1.0 
1.0 0:0.0 1:0.0 2:0.0 3:0.0 4:0.0 5:1.0 
1.0 0:0.0 1:0.0 2:0.0 3:0.0 4:0.0 5:1.0 
1.0 0:0.0 1:0.0 2:0.0 3:0.0 4:0.0 5:1.0 
1.0 0:0.0 1:0.0 2:0.0 3:0.0 4:0.0 5:1.0 
1.0 0:0.0 1:0.0 2:0.0 3:0.0 4:0.0 5:1.0 
1.0 0:0.0 1:0.0 2:0.0 3:0.0 4:0.0 5:1.0 
1.0 0:0.0 1:0.0 2:0.0 3:0.0 4:0.0 5:1.0 
1.0 0:0.0 1:0.0 2:0.0 3:0.0 4:0.0 5:0.0 
1.0 0:0.0 1:0.0 2:0.0 3:0.0 4:0.0 5:1.0 
1.0 0:0.0 1:0.0 2:0.0 3:0.0 4:0.0 5:1.0 
1.0 0:0.0 1:0.0 2:0.0 3:0.0 4:0.0 5:1.0 
1.0 0:0.0 1:0.0 2:0.0 3:0.0 4:0.0 5:1.0 
1.0 0:0.0 1:0.0 2:0.0 3:0.0 4:0.0 5:1.0 
1.0 0:0.0 1:0.0 2:0.0 3:0.0 4:0.0 5:0.0 
1.0 0:0.0 1:0.0 2:0.0 3:0.0 4:0.0 5:0.0 
1.0 0:0.0 1:0.0 2:0.0 3:0.0 4:0.0 5:0.0 
1.0 0:0.0 1:0.0 2:0.0 3:0.0 4:0.0 5:1.0 
1.0 0:0.0 1:0.0 2:0.0 3:0.0 4:0.0 5:0.0 
1.0 0:0.0 1:0.0 2:0.0 3:0.0 4:0.0 5:0.0 
1.0 0:0.0 1:0.0 2:0.0 3:0.0 4:0.0 5:1.0 
1.0 0:0.0 1:0.0 2:0.0 3:0.0 4:0.0 5:0.0 
1.0 0:0.0 1:0.0 2:0.0 3:0.0 4:0.0 5:0.0 
1.0 0:0.0 1:0.0 2:0.0 3:0.0 4:0.0 5:0.0 
1.0 0:0.0 1:0.0 2:0.0 3:0.0 4:0.0 5:1.0 
1.0 0:0.0 1:0.0 2:0.0 3:0.0 4:0.0 5:1.0 
1.0 0:0.0 1:0.0 2:0.0 3:0.0 4:0.0 5:0.0 
1.0 0:0.0 1:0.0 2:0.0 3:0.0 4:0.0 5:1.0 
1.0 0:0.0 1:0.0 2:0.0 3:0.0 4:0.0 5:1.0 
1.0 0:0.0 1:0.0 2:0.0 3:0.0 4:0.0 5:1.0 
1.0 0:0.0 1:0.0 2:0.0 3:0.0 4:0.0 5:1.0 
1.0 0:0.0 1:0.0 2:0.0 3:0.0 4:0.0 5:1.0 
1.0 0:0.0 1:0.0 2:0.0 3:0.0 4:0.0 5:0.0 
1.0 0:0.0 1:0.0 2:0.0 3:0.0 4:0.0 5:1.0 
1.0 0:0.0 1:0.0 2:0.0 3:0.0 4:0.0 5:0.0 
1.0 0:0.0 1:0.0 2:0.0 3:0.0 4:0.0 5:0.0 
1.0 0:0.0 1:0.0 2:0.0 3:0.0 4:0.0 5:1.0 
1.0 0:0.0 1:0.0 2:0.0 3:0.0 4:0.0 5:1.0 
1.0 0:0.0 1:0.0 2:0.0 3:0.0 4:0.0 5:0.0 
1.0 0:0.0 1:0.0 2:0.0 3:1.0 4:0.0 5:0.0 
1.0 0:0.0 1:0.0 2:0.0 3:0.0 4:0.0 5:0.0 
1.0 0:0.0 1:0.0 2:0.0 3:1.0 4:0.0 5:0.0 
1.0 0:0.0 1:0.0 2:0.0 3:0.0 4:0.0 5:1.0 
1.0 0:0.0 1:0.0 2:0.0 3:0.0 4:0.0 5:1.0 
1.0 0:0.0 1:0.0 2:0.0 3:0.0 4:0.0 5:1.0 
1.0 0:0.0 1:0.0 2:0.0 3:0.0 4:0.0 5:0.0 
1.0 0:0.0 1:0.0 2:0.0 3:0.0 4:0.0 5:0.0 
1.0 0:0.0 1:0.0 2:0.0 3:0.0 4:0.0 5:1.0 
1.0 0:0.0 1:0.0 2:0.0 3:0.0 4:0.0 5:1.0 
1.0 0:0.0 1:0.0 2:0.0 3:0.0 4:0.0 5:1.0 
1.0 0:0.0 1:0.0 2:0.0 3:0.0 4:0.0 5:0.0 
1.0 0:0.0 1:0.0 2:0.0 3:0.0 4:0.0 5:1.0 
1.0 0:0.0 1:0.0 2:0.0 3:0.0 4:0.0 5:0.0 
1.0 0:0.0 1:0.0 2:0.0 3:0.0 4:0.0 5:1.0 
1.0 0:0.0 1:0.0 2:0.0 3:0.0 4:0.0 5:1.0 
1.0 0:0.0 1:0.0 2:0.0 3:0.0 4:0.0 5:0.0 
1.0 0:0.0 1:0.0 2:0.0 3:0.0 4:0.0 5:1.0 
1.0 0:0.0 1:0.0 2:0.0 3:0.0 4:0.0 5:1.0 
1.0 0:0.0 1:0.0 2:0.0 3:0.0 4:0.0 5:1.0 
1.0 0:0.0 1:0.0 2:0.0 3:0.0 4:0.0 5:0.0 
1.0 0:0.0 1:0.0 2:0.0 3:1.0 4:0.0 5:0.0 
1.0 0:0.0 1:0.0 2:0.0 3:0.0 4:0.0 5:0.0 
1.0 0:0.0 1:0.0 2:0.0 3:1.0 4:0.0 5:1.0 
1.0 0:0.0 1:0.0 2:0.0 3:1.0 4:0.0 5:1.0 
1.0 0:0.0 1:0.0 2:0.0 3:0.0 4:0.0 5:0.0 
1.0 0:0.0 1:0.0 2:0.0 3:0.0 4:0.0 5:0.0 
1.0 0:0.0 1:0.0 2:0.0 3:0.0 4:0.0 5:0.0 
1.0 0:0.0 1:0.0 2:0.0 3:0.0 4:0.0 5:0.0 
1.0 0:0.0 1:0.0 2:0.0 3:0.0 4:0.0 5:0.0 
1.0 0:0.0 1:0.0 2:0.0 3:0.0 4:0.0 5:0.0 
1.0 0:0.0 1:0.0 2:0.0 3:0.0 4:0.0 5:0.0 
1.0 0:0.0 1:0.0 2:0.0 3:0.0 4:0.0 5:0.0 
1.0 0:0.0 1:0.0 2:0.0 3:0.0 4:0.0 5:0.0 
1.0 0:0.0 1:0.0 2:0.0 3:0.0 4:0.0 5:1.0 
1.0 0:0.0 1:0.0 2:0.0 3:0.0 4:0.0 5:0.0 
1.0 0:0.0 1:0.0 2:0.0 3:0.0 4:0.0 5:0.0 
1.0 0:0.0 1:0.0 2:0.0 3:0.0 4:0.0 5:1.0 
1.0 0:0.0 1:0.0 2:0.0 3:0.0 4:0.0 5:1.0 
1.0 0:0.0 1:0.0 2:0.0 3:0.0 4:0.0 5:0.0 
1.0 0:0.0 1:0.0 2:0.0 3:0.0 4:0.0 5:0.0 
1.0 0:0.0 1:0.0 2:0.0 3:0.0 4:0.0 5:0.0 
1.0 0:0.0 1:0.0 2:0.0 3:0.0 4:0.0 5:1.0 
1.0 0:0.0 1:0.0 2:0.0 3:0.0 4:0.0 5:1.0 
1.0 0:0.0 1:0.0 2:0.0 3:0.0 4:0.0 5:0.0 
1.0 0:0.0 1:0.0 2:0.0 3:0.0 4:0.0 5:0.0 
1.0 0:0.0 1:0.0 2:0.0 3:0.0 4:0.0 5:1.0 
1.0 0:0.0 1:0.0 2:0.0 3:0.0 4:0.0 5:0.0 
1.0 0:0.0 1:0.0 2:0.0 3:0.0 4:0.0 5:0.0 
1.0 0:0.0 1:0.0 2:0.0 3:0.0 4:0.0 5:0.0 
1.0 0:0.0 1:0.0 2:0.0 3:0.0 4:0.0 5:0.0 
1.0 0:0.0 1:0.0 2:0.0 3:0.0 4:0.0 5:0.0 
1.0 0:0.0 1:0.0 2:0.0 3:0.0 4:0.0 5:0.0 
1.0 0:0.0 1:0.0 2:0.0 3:0.0 4:0.0 5:0.0 
1.0 0:0.0 1:0.0 2:0.0 3:0.0 4:0.0 5:0.0 
1.0 0:0.0 1:0.0 2:0.0 3:0.0 4:0.0 5:0.0 
1.0 0:0.0 1:0.0 2:0.0 3:0.0 4:0.0 5:1.0 
1.0 0:0.0 1:0.0 2:0.0 3:0.0 4:0.0 5:0.0 
1.0 0:0.0 1:0.0 2:0.0 3:0.0 4:0.0 5:0.0 
1.0 0:0.0 1:0.0 2:0.0 3:0.0 4:0.0 5:0.0 
1.0 0:0.0 1:0.0 2:0.0 3:0.0 4:0.0 5:0.0 
1.0 0:0.0 1:0.0 2:0.0 3:0.0 4:0.0 5:1.0 
1.0 0:0.0 1:0.0 2:0.0 3:0.0 4:0.0 5:0.0 
1.0 0:0.0 1:0.0 2:0.0 3:0.0 4:0.0 5:1.0 
1.0 0:0.0 1:0.0 2:0.0 3:0.0 4:0.0 5:0.0 
1.0 0:0.0 1:0.0 2:0.0 3:0.0 4:0.0 5:0.0 
1.0 0:0.0 1:0.0 2:0.0 3:0.0 4:0.0 5:1.0 
1.0 0:0.0 1:0.0 2:0.0 3:0.0 4:0.0 5:0.0 
1.0 0:0.0 1:0.0 2:0.0 3:0.0 4:0.0 5:0.0 
1.0 0:0.0 1:0.0 2:0.0 3:0.0 4:0.0 5:0.0 
1.0 0:0.0 1:0.0 2:0.0 3:0.0 4:0.0 5:0.0 
1.0 0:0.0 1:0.0 2:0.0 3:1.0 4:0.0 5:0.0 
1.0 0:0.0 1:0.0 2:0.0 3:0.0 4:0.0 5:0.0 
1.0 0:1.0 1:0.0 2:0.0 3:0.0 4:0.0 5:0.0 
1.0 0:0.0 1:0.0 2:0.0 3:1.0 4:0.0 5:0.0 
1.0 0:1.0 1:0.0 2:0.0 3:0.0 4:0.0 5:1.0 
1.0 0:1.0 1:0.0 2:0.0 3:0.0 4:0.0 5:0.0 
1.0 0:1.0 1:0.0 2:0.0 3:0.0 4:0.0 5:0.0 
1.0 0:1.0 1:0.0 2:0.0 3:0.0 4:0.0 5:0.0 
1.0 0:0.0 1:0.0 2:0.0 3:0.0 4:0.0 5:0.0 
1.0 0:1.0 1:0.0 2:0.0 3:0.0 4:0.0 5:0.0 
1.0 0:0.0 1:0.0 2:0.0 3:0.0 4:0.0 5:0.0 
1.0 0:1.0 1:0.0 2:0.0 3:0.0 4:0.0 5:0.0 
1.0 0:0.0 1:0.0 2:0.0 3:0.0 4:0.0 5:0.0 
1.0 0:0.0 1:0.0 2:0.0 3:0.0 4:0.0 5:1.0 
1.0 0:1.0 1:0.0 2:0.0 3:0.0 4:0.0 5:0.0 
1.0 0:0.0 1:0.0 2:0.0 3:1.0 4:0.0 5:0.0 
1.0 0:0.0 1:0.0 2:0.0 3:0.0 4:0.0 5:0.0 
1.0 0:1.0 1:0.0 2:0.0 3:0.0 4:0.0 5:0.0 
1.0 0:0.0 1:0.0 2:0.0 3:0.0 4:0.0 5:0.0 
1.0 0:1.0 1:0.0 2:0.0 3:0.0 4:0.0 5:0.0 
1.0 0:0.0 1:0.0 2:0.0 3:0.0 4:0.0 5:1.0 
1.0 0:1.0 1:0.0 2:0.0 3:0.0 4:0.0 5:0.0 
1.0 0:0.0 1:0.0 2:0.0 3:0.0 4:0.0 5:0.0 
1.0 0:0.0 1:0.0 2:0.0 3:0.0 4:0.0 5:0.0 
1.0 0:0.0 1:0.0 2:0.0 3:0.0 4:0.0 5:0.0 
1.0 0:0.0 1:0.0 2:0.0 3:0.0 4:0.0 5:0.0 
1.0 0:0.0 1:0.0 2:0.0 3:0.0 4:0.0 5:0.0 
1.0 0:0.0 1:0.0 2:0.0 3:0.0 4:0.0 5:1.0 
1.0 0:0.0 1:0.0 2:0.0 3:0.0 4:0.0 5:0.0 
1.0 0:0.0 1:0.0 2:0.0 3:0.0 4:0.0 5:0.0 
1.0 0:0.0 1:0.0 2:0.0 3:0.0 4:0.0 5:0.0 
1.0 0:0.0 1:0.0 2:0.0 3:0.0 4:0.0 5:1.0 
1.0 0:0.0 1:0.0 2:0.0 3:0.0 4:0.0 5:1.0 
1.0 0:0.0 1:0.0 2:0.0 3:0.0 4:0.0 5:1.0 
1.0 0:0.0 1:0.0 2:0.0 3:0.0 4:0.0 5:1.0 
1.0 0:0.0 1:0.0 2:0.0 3:1.0 4:0.0 5:0.0 
1.0 0:0.0 1:0.0 2:0.0 3:0.0 4:0.0 5:0.0 
1.0 0:0.0 1:0.0 2:0.0 3:1.0 4:0.0 5:0.0 
1.0 0:0.0 1:0.0 2:0.0 3:1.0 4:0.0 5:0.0 
1.0 0:0.0 1:0.0 2:0.0 3:0.0 4:0.0 5:0.0 
1.0 0:0.0 1:0.0 2:0.0 3:1.0 4:0.0 5:0.0 
1.0 0:0.0 1:0.0 2:0.0 3:1.0 4:0.0 5:0.0 
1.0 0:0.0 1:0.0 2:0.0 3:0.0 4:0.0 5:0.0 
1.0 0:0.0 1:0.0 2:0.0 3:0.0 4:0.0 5:0.0 
1.0 0:0.0 1:0.0 2:0.0 3:0.0 4:0.0 5:0.0 
1.0 0:0.0 1:0.0 2:0.0 3:0.0 4:0.0 5:0.0 
1.0 0:0.0 1:0.0 2:0.0 3:0.0 4:0.0 5:0.0 
1.0 0:0.0 1:0.0 2:0.0 3:0.0 4:0.0 5:0.0 
1.0 0:0.0 1:0.0 2:0.0 3:0.0 4:0.0 5:0.0 
1.0 0:0.0 1:0.0 2:0.0 3:1.0 4:0.0 5:1.0 
1.0 0:0.0 1:0.0 2:0.0 3:0.0 4:0.0 5:0.0 
1.0 0:0.0 1:0.0 2:0.0 3:1.0 4:0.0 5:1.0 
1.0 0:0.0 1:0.0 2:0.0 3:0.0 4:0.0 5:0.0 
1.0 0:0.0 1:0.0 2:0.0 3:1.0 4:0.0 5:1.0 
1.0 0:0.0 1:0.0 2:0.0 3:1.0 4:0.0 5:1.0 
1.0 0:0.0 1:0.0 2:0.0 3:0.0 4:0.0 5:0.0 
1.0 0:0.0 1:0.0 2:0.0 3:1.0 4:0.0 5:1.0 
1.0 0:0.0 1:0.0 2:0.0 3:1.0 4:0.0 5:0.0 
1.0 0:0.0 1:0.0 2:0.0 3:1.0 4:0.0 5:1.0 
1.0 0:0.0 1:0.0 2:0.0 3:1.0 4:0.0 5:1.0 
1.0 0:0.0 1:0.0 2:0.0 3:1.0 4:0.0 5:0.0 
1.0 0:0.0 1:0.0 2:0.0 3:1.0 4:0.0 5:1.0 
1.0 0:0.0 1:0.0 2:0.0 3:0.0 4:0.0 5:0.0 
1.0 0:0.0 1:0.0 2:0.0 3:1.0 4:0.0 5:1.0 
1.0 0:0.0 1:0.0 2:0.0 3:0.0 4:0.0 5:0.0 
1.0 0:0.0 1:0.0 2:0.0 3:0.0 4:0.0 5:0.0 
1.0 0:0.0 1:0.0 2:0.0 3:0.0 4:0.0 5:0.0 
1.0 0:0.0 1:0.0 2:0.0 3:0.0 4:0.0 5:0.0 
1.0 0:0.0 1:0.0 2:0.0 3:0.0 4:0.0 5:0.0 
1.0 0:0.0 1:0.0 2:0.0 3:0.0 4:0.0 5:0.0 
1.0 0:0.0 1:0.0 2:0.0 3:1.0 4:0.0 5:0.0 
1.0 0:0.0 1:0.0 2:0.0 3:0.0 4:0.0 5:0.0 
1.0 0:0.0 1:0.0 2:0.0 3:0.0 4:0.0 5:0.0 
1.0 0:0.0 1:0.0 2:0.0 3:0.0 4:0.0 5:0.0 
1.0 0:0.0 1:0.0 2:0.0 3:0.0 4:0.0 5:0.0 
1.0 0:0.0 1:0.0 2:0.0 3:0.0 4:0.0 5:0.0 
1.0 0:0.0 1:0.0 2:0.0 3:0.0 4:0.0 5:0.0 
1.0 0:0.0 1:0.0 2:0.0 3:0.0 4:0.0 5:1.0 
1.0 0:0.0 1:0.0 2:0.0 3:0.0 4:0.0 5:1.0 
1.0 0:0.0 1:0.0 2:0.0 3:0.0 4:0.0 5:0.0 
1.0 0:0.0 1:0.0 2:0.0 3:0.0 4:0.0 5:0.0 
1.0 0:0.0 1:0.0 2:0.0 3:0.0 4:0.0 5:0.0 
1.0 0:1.0 1:0.0 2:0.0 3:0.0 4:0.0 5:1.0 
1.0 0:0.0 1:0.0 2:0.0 3:0.0 4:0.0 5:0.0 
1.0 0:0.0 1:0.0 2:0.0 3:0.0 4:0.0 5:1.0 
1.0 0:1.0 1:0.0 2:0.0 3:0.0 4:0.0 5:1.0 
1.0 0:0.0 1:0.0 2:0.0 3:0.0 4:0.0 5:0.0 
1.0 0:0.0 1:0.0 2:0.0 3:0.0 4:0.0 5:0.0 
1.0 0:0.0 1:0.0 2:0.0 3:0.0 4:0.0 5:0.0 
1.0 0:0.0 1:0.0 2:0.0 3:0.0 4:0.0 5:0.0 
1.0 0:0.0 1:0.0 2:0.0 3:0.0 4:0.0 5:0.0 
1.0 0:0.0 1:0.0 2:0.0 3:0.0 4:0.0 5:0.0 
1.0 0:0.0 1:0.0 2:0.0 3:0.0 4:0.0 5:0.0 
1.0 0:0.0 1:0.0 2:0.0 3:0.0 4:0.0 5:0.0 
1.0 0:0.0 1:0.0 2:0.0 3:0.0 4:0.0 5:0.0 
1.0 0:0.0 1:0.0 2:0.0 3:0.0 4:0.0 5:0.0 
1.0 0:0.0 1:0.0 2:0.0 3:0.0 4:0.0 5:0.0 
1.0 0:0.0 1:0.0 2:0.0 3:0.0 4:0.0 5:0.0 
1.0 0:0.0 1:0.0 2:0.0 3:0.0 4:0.0 5:0.0 
1.0 0:0.0 1:0.0 2:0.0 3:0.0 4:0.0 5:0.0 
1.0 0:0.0 1:0.0 2:0.0 3:0.0 4:0.0 5:0.0 
1.0 0:0.0 1:0.0 2:0.0 3:0.0 4:0.0 5:0.0 
1.0 0:0.0 1:0.0 2:0.0 3:0.0 4:0.0 5:0.0 
1.0 0:0.0 1:0.0 2:0.0 3:0.0 4:0.0 5:0.0 
1.0 0:0.0 1:0.0 2:0.0 3:0.0 4:0.0 5:0.0 
1.0 0:0.0 1:0.0 2:0.0 3:0.0 4:0.0 5:0.0 
1.0 0:0.0 1:0.0 2:0.0 3:0.0 4:0.0 5:1.0 
1.0 0:0.0 1:1.0 2:0.0 3:0.0 4:0.0 5:1.0 
1.0 0:0.0 1:0.0 2:0.0 3:0.0 4:0.0 5:0.0 
1.0 0:0.0 1:0.0 2:0.0 3:0.0 4:0.0 5:0.0 
1.0 0:0.0 1:0.0 2:0.0 3:0.0 4:0.0 5:1.0 
1.0 0:0.0 1:0.0 2:0.0 3:0.0 4:0.0 5:0.0 
1.0 0:0.0 1:0.0 2:0.0 3:0.0 4:0.0 5:0.0 
1.0 0:0.0 1:0.0 2:0.0 3:0.0 4:0.0 5:1.0 
1.0 0:0.0 1:0.0 2:0.0 3:0.0 4:0.0 5:0.0 
1.0 0:0.0 1:0.0 2:0.0 3:0.0 4:0.0 5:1.0 
1.0 0:0.0 1:0.0 2:0.0 3:0.0 4:0.0 5:1.0 
1.0 0:0.0 1:1.0 2:0.0 3:0.0 4:0.0 5:0.0 
1.0 0:0.0 1:0.0 2:0.0 3:0.0 4:0.0 5:0.0 
1.0 0:0.0 1:0.0 2:0.0 3:0.0 4:0.0 5:1.0 
1.0 0:0.0 1:0.0 2:0.0 3:0.0 4:0.0 5:0.0 
1.0 0:0.0 1:0.0 2:0.0 3:0.0 4:0.0 5:0.0 
1.0 0:0.0 1:0.0 2:0.0 3:1.0 4:0.0 5:0.0 
1.0 0:0.0 1:1.0 2:0.0 3:0.0 4:0.0 5:1.0 
1.0 0:0.0 1:0.0 2:0.0 3:0.0 4:0.0 5:0.0 
1.0 0:0.0 1:0.0 2:0.0 3:0.0 4:0.0 5:0.0 
1.0 0:0.0 1:0.0 2:0.0 3:0.0 4:0.0 5:0.0 
1.0 0:0.0 1:0.0 2:0.0 3:0.0 4:0.0 5:0.0 
1.0 0:0.0 1:0.0 2:0.0 3:1.0 4:0.0 5:0.0 
1.0 0:0.0 1:0.0 2:0.0 3:0.0 4:0.0 5:0.0 
1.0 0:0.0 1:0.0 2:0.0 3:0.0 4:0.0 5:0.0 
1.0 0:0.0 1:0.0 2:0.0 3:1.0 4:0.0 5:0.0 
1.0 0:0.0 1:0.0 2:0.0 3:0.0 4:0.0 5:1.0 
1.0 0:0.0 1:0.0 2:0.0 3:0.0 4:0.0 5:0.0 
1.0 0:0.0 1:0.0 2:0.0 3:0.0 4:0.0 5:0.0 
1.0 0:0.0 1:0.0 2:0.0 3:0.0 4:0.0 5:0.0 
1.0 0:0.0 1:0.0 2:0.0 3:0.0 4:0.0 5:0.0 
1.0 0:0.0 1:0.0 2:0.0 3:0.0 4:0.0 5:0.0 
1.0 0:0.0 1:0.0 2:0.0 3:0.0 4:0.0 5:1.0 
1.0 0:0.0 1:0.0 2:0.0 3:0.0 4:0.0 5:0.0 
1.0 0:0.0 1:0.0 2:0.0 3:0.0 4:0.0 5:1.0 
1.0 0:0.0 1:0.0 2:0.0 3:0.0 4:0.0 5:1.0 
1.0 0:0.0 1:0.0 2:0.0 3:1.0 4:0.0 5:1.0 
1.0 0:0.0 1:0.0 2:0.0 3:0.0 4:0.0 5:1.0 
1.0 0:0.0 1:0.0 2:0.0 3:0.0 4:0.0 5:0.0 
1.0 0:0.0 1:0.0 2:0.0 3:0.0 4:0.0 5:0.0 
1.0 0:0.0 1:0.0 2:0.0 3:0.0 4:0.0 5:0.0 
1.0 0:0.0 1:0.0 2:0.0 3:0.0 4:0.0 5:0.0 
1.0 0:0.0 1:0.0 2:0.0 3:1.0 4:0.0 5:1.0 
1.0 0:0.0 1:0.0 2:0.0 3:0.0 4:0.0 5:0.0 
1.0 0:0.0 1:0.0 2:0.0 3:0.0 4:0.0 5:0.0 
1.0 0:0.0 1:0.0 2:0.0 3:0.0 4:0.0 5:0.0 
1.0 0:0.0 1:0.0 2:0.0 3:0.0 4:0.0 5:0.0 
1.0 0:0.0 1:0.0 2:0.0 3:0.0 4:0.0 5:0.0 
1.0 0:0.0 1:0.0 2:0.0 3:0.0 4:0.0 5:0.0 
1.0 0:0.0 1:0.0 2:0.0 3:0.0 4:0.0 5:1.0 
1.0 0:0.0 1:0.0 2:0.0 3:0.0 4:0.0 5:0.0 
1.0 0:0.0 1:0.0 2:0.0 3:0.0 4:0.0 5:0.0 
1.0 0:0.0 1:0.0 2:0.0 3:0.0 4:0.0 5:0.0 
1.0 0:0.0 1:0.0 2:0.0 3:0.0 4:0.0 5:1.0 
1.0 0:0.0 1:0.0 2:0.0 3:0.0 4:0.0 5:0.0 
1.0 0:0.0 1:0.0 2:0.0 3:0.0 4:0.0 5:1.0 
1.0 0:0.0 1:0.0 2:0.0 3:1.0 4:0.0 5:1.0 
1.0 0:0.0 1:0.0 2:0.0 3:0.0 4:0.0 5:0.0 
1.0 0:0.0 1:1.0 2:0.0 3:0.0 4:0.0 5:0.0 
1.0 0:0.0 1:0.0 2:0.0 3:0.0 4:0.0 5:0.0 
1.0 0:0.0 1:0.0 2:0.0 3:0.0 4:0.0 5:1.0 
1.0 0:0.0 1:0.0 2:0.0 3:0.0 4:0.0 5:1.0 
1.0 0:0.0 1:0.0 2:0.0 3:0.0 4:0.0 5:0.0 
1.0 0:0.0 1:0.0 2:0.0 3:0.0 4:0.0 5:0.0 
1.0 0:0.0 1:0.0 2:0.0 3:0.0 4:0.0 5:0.0 
1.0 0:0.0 1:0.0 2:0.0 3:0.0 4:0.0 5:0.0 
1.0 0:0.0 1:0.0 2:0.0 3:0.0 4:0.0 5:1.0 
1.0 0:0.0 1:0.0 2:0.0 3:0.0 4:0.0 5:0.0 
1.0 0:0.0 1:0.0 2:0.0 3:0.0 4:0.0 5:0.0 
1.0 0:0.0 1:0.0 2:0.0 3:0.0 4:0.0 5:0.0 
1.0 0:0.0 1:0.0 2:0.0 3:0.0 4:0.0 5:0.0 
1.0 0:0.0 1:0.0 2:0.0 3:0.0 4:0.0 5:0.0 
1.0 0:0.0 1:0.0 2:0.0 3:0.0 4:0.0 5:0.0 
1.0 0:0.0 1:0.0 2:0.0 3:0.0 4:0.0 5:0.0 
1.0 0:0.0 1:0.0 2:0.0 3:0.0 4:0.0 5:0.0 
1.0 0:0.0 1:0.0 2:0.0 3:0.0 4:0.0 5:0.0 
1.0 0:0.0 1:0.0 2:0.0 3:0.0 4:0.0 5:1.0 
1.0 0:0.0 1:1.0 2:0.0 3:0.0 4:0.0 5:0.0 
1.0 0:0.0 1:0.0 2:0.0 3:0.0 4:0.0 5:1.0 
1.0 0:0.0 1:0.0 2:0.0 3:0.0 4:0.0 5:1.0 
1.0 0:0.0 1:0.0 2:0.0 3:0.0 4:0.0 5:0.0 
1.0 0:0.0 1:0.0 2:0.0 3:0.0 4:0.0 5:0.0 
1.0 0:0.0 1:0.0 2:0.0 3:0.0 4:0.0 5:0.0 
1.0 0:0.0 1:0.0 2:0.0 3:0.0 4:0.0 5:1.0 
1.0 0:0.0 1:0.0 2:0.0 3:0.0 4:0.0 5:0.0 
1.0 0:0.0 1:0.0 2:0.0 3:0.0 4:0.0 5:1.0 
1.0 0:0.0 1:0.0 2:0.0 3:0.0 4:0.0 5:1.0 
1.0 0:0.0 1:0.0 2:0.0 3:0.0 4:0.0 5:0.0 
1.0 0:0.0 1:0.0 2:0.0 3:0.0 4:0.0 5:0.0 
1.0 0:0.0 1:0.0 2:0.0 3:0.0 4:0.0 5:1.0 
1.0 0:1.0 1:0.0 2:0.0 3:0.0 4:0.0 5:1.0 
1.0 0:0.0 1:0.0 2:0.0 3:0.0 4:0.0 5:1.0 
1.0 0:0.0 1:0.0 2:0.0 3:0.0 4:0.0 5:0.0 
1.0 0:1.0 1:0.0 2:0.0 3:0.0 4:0.0 5:0.0 
1.0 0:0.0 1:0.0 2:0.0 3:0.0 4:0.0 5:0.0 
1.0 0:0.0 1:0.0 2:0.0 3:0.0 4:0.0 5:0.0 
1.0 0:0.0 1:0.0 2:0.0 3:0.0 4:0.0 5:0.0 
1.0 0:0.0 1:0.0 2:0.0 3:0.0 4:0.0 5:1.0 
1.0 0:0.0 1:0.0 2:0.0 3:0.0 4:0.0 5:0.0 
1.0 0:0.0 1:0.0 2:0.0 3:0.0 4:0.0 5:1.0 
1.0 0:0.0 1:0.0 2:0.0 3:0.0 4:0.0 5:1.0 
1.0 0:0.0 1:0.0 2:0.0 3:0.0 4:0.0 5:1.0 
1.0 0:0.0 1:0.0 2:0.0 3:0.0 4:0.0 5:1.0 
1.0 0:0.0 1:0.0 2:0.0 3:0.0 4:0.0 5:0.0 
1.0 0:0.0 1:0.0 2:0.0 3:0.0 4:0.0 5:1.0 
1.0 0:0.0 1:0.0 2:0.0 3:0.0 4:0.0 5:1.0 
1.0 0:0.0 1:0.0 2:0.0 3:0.0 4:0.0 5:1.0 
1.0 0:0.0 1:0.0 2:0.0 3:0.0 4:0.0 5:1.0 
1.0 0:0.0 1:0.0 2:0.0 3:0.0 4:0.0 5:0.0 
1.0 0:0.0 1:0.0 2:0.0 3:0.0 4:0.0 5:1.0 
1.0 0:0.0 1:0.0 2:0.0 3:0.0 4:0.0 5:0.0 
1.0 0:0.0 1:0.0 2:0.0 3:0.0 4:0.0 5:1.0 
1.0 0:0.0 1:0.0 2:0.0 3:0.0 4:0.0 5:1.0 
1.0 0:0.0 1:0.0 2:0.0 3:0.0 4:0.0 5:0.0 
1.0 0:0.0 1:0.0 2:0.0 3:0.0 4:0.0 5:0.0 
1.0 0:0.0 1:0.0 2:0.0 3:0.0 4:0.0 5:0.0 
1.0 0:0.0 1:0.0 2:0.0 3:0.0 4:0.0 5:1.0 
1.0 0:0.0 1:0.0 2:0.0 3:0.0 4:0.0 5:0.0 
1.0 0:0.0 1:0.0 2:0.0 3:0.0 4:0.0 5:0.0 
1.0 0:0.0 1:0.0 2:0.0 3:0.0 4:0.0 5:1.0 
1.0 0:0.0 1:0.0 2:0.0 3:0.0 4:0.0 5:0.0 
1.0 0:0.0 1:0.0 2:0.0 3:0.0 4:0.0 5:1.0 
1.0 0:0.0 1:0.0 2:0.0 3:0.0 4:0.0 5:1.0 
1.0 0:0.0 1:0.0 2:0.0 3:0.0 4:0.0 5:1.0 
1.0 0:0.0 1:0.0 2:0.0 3:0.0 4:0.0 5:1.0 
1.0 0:0.0 1:0.0 2:0.0 3:0.0 4:0.0 5:0.0 
1.0 0:0.0 1:0.0 2:0.0 3:0.0 4:0.0 5:1.0 
1.0 0:0.0 1:0.0 2:0.0 3:0.0 4:0.0 5:1.0 
1.0 0:0.0 1:0.0 2:0.0 3:0.0 4:0.0 5:0.0 
1.0 0:0.0 1:0.0 2:0.0 3:0.0 4:0.0 5:1.0 
1.0 0:0.0 1:0.0 2:0.0 3:0.0 4:0.0 5:1.0 
1.0 0:0.0 1:0.0 2:0.0 3:0.0 4:0.0 5:1.0 
1.0 0:0.0 1:0.0 2:0.0 3:0.0 4:0.0 5:1.0 
1.0 0:0.0 1:0.0 2:0.0 3:0.0 4:0.0 5:1.0 
1.0 0:0.0 1:0.0 2:0.0 3:0.0 4:0.0 5:0.0 
1.0 0:0.0 1:0.0 2:0.0 3:0.0 4:0.0 5:1.0 
1.0 0:0.0 1:0.0 2:0.0 3:0.0 4:0.0 5:1.0 
1.0 0:0.0 1:0.0 2:0.0 3:0.0 4:0.0 5:1.0 
1.0 0:0.0 1:1.0 2:0.0 3:0.0 4:0.0 5:1.0 
1.0 0:0.0 1:0.0 2:0.0 3:0.0 4:0.0 5:0.0 
1.0 0:0.0 1:0.0 2:0.0 3:0.0 4:0.0 5:1.0 
1.0 0:0.0 1:0.0 2:0.0 3:0.0 4:0.0 5:1.0 
1.0 0:0.0 1:0.0 2:0.0 3:0.0 4:0.0 5:0.0 
1.0 0:0.0 1:0.0 2:0.0 3:0.0 4:0.0 5:1.0 
1.0 0:0.0 1:0.0 2:0.0 3:0.0 4:0.0 5:1.0 
1.0 0:0.0 1:0.0 2:0.0 3:0.0 4:0.0 5:0.0 
1.0 0:0.0 1:0.0 2:0.0 3:0.0 4:0.0 5:1.0 
1.0 0:0.0 1:0.0 2:0.0 3:0.0 4:0.0 5:1.0 
1.0 0:0.0 1:0.0 2:0.0 3:0.0 4:0.0 5:0.0 
1.0 0:0.0 1:0.0 2:0.0 3:0.0 4:0.0 5:1.0 
1.0 0:0.0 1:0.0 2:0.0 3:0.0 4:0.0 5:0.0 
1.0 0:0.0 1:0.0 2:0.0 3:0.0 4:0.0 5:1.0 
1.0 0:0.0 1:0.0 2:0.0 3:0.0 4:0.0 5:1.0 
1.0 0:0.0 1:0.0 2:0.0 3:0.0 4:0.0 5:0.0 
1.0 0:0.0 1:0.0 2:0.0 3:0.0 4:0.0 5:1.0 
1.0 0:0.0 1:1.0 2:0.0 3:0.0 4:0.0 5:1.0 
1.0 0:0.0 1:0.0 2:0.0 3:0.0 4:0.0 5:1.0 
1.0 0:0.0 1:0.0 2:0.0 3:0.0 4:0.0 5:1.0 
1.0 0:0.0 1:0.0 2:0.0 3:0.0 4:0.0 5:0.0 
1.0 0:0.0 1:0.0 2:0.0 3:0.0 4:0.0 5:1.0 
1.0 0:0.0 1:0.0 2:0.0 3:1.0 4:0.0 5:0.0 
1.0 0:0.0 1:0.0 2:0.0 3:0.0 4:0.0 5:1.0 
1.0 0:0.0 1:0.0 2:0.0 3:0.0 4:0.0 5:1.0 
1.0 0:0.0 1:0.0 2:0.0 3:0.0 4:0.0 5:1.0 
1.0 0:0.0 1:0.0 2:0.0 3:0.0 4:0.0 5:0.0 
1.0 0:0.0 1:0.0 2:0.0 3:0.0 4:0.0 5:1.0 
1.0 0:0.0 1:0.0 2:0.0 3:0.0 4:0.0 5:0.0 
1.0 0:0.0 1:0.0 2:0.0 3:0.0 4:0.0 5:0.0 
1.0 0:0.0 1:0.0 2:0.0 3:0.0 4:0.0 5:1.0 
1.0 0:0.0 1:0.0 2:0.0 3:0.0 4:0.0 5:0.0 
1.0 0:0.0 1:0.0 2:0.0 3:0.0 4:0.0 5:0.0 
1.0 0:0.0 1:0.0 2:0.0 3:0.0 4:0.0 5:1.0 
1.0 0:0.0 1:0.0 2:0.0 3:0.0 4:0.0 5:0.0 
1.0 0:0.0 1:0.0 2:0.0 3:0.0 4:0.0 5:0.0 
1.0 0:0.0 1:0.0 2:0.0 3:0.0 4:0.0 5:0.0 
1.0 0:0.0 1:0.0 2:0.0 3:0.0 4:0.0 5:0.0 
1.0 0:0.0 1:0.0 2:0.0 3:0.0 4:0.0 5:0.0 
1.0 0:0.0 1:0.0 2:0.0 3:0.0 4:0.0 5:0.0 
1.0 0:0.0 1:0.0 2:0.0 3:0.0 4:0.0 5:0.0 
1.0 0:0.0 1:0.0 2:0.0 3:0.0 4:0.0 5:0.0 
1.0 0:0.0 1:0.0 2:0.0 3:1.0 4:0.0 5:1.0 
1.0 0:0.0 1:0.0 2:0.0 3:0.0 4:0.0 5:1.0 
1.0 0:0.0 1:0.0 2:0.0 3:0.0 4:0.0 5:1.0 
1.0 0:0.0 1:0.0 2:0.0 3:0.0 4:0.0 5:1.0 
1.0 0:0.0 1:0.0 2:0.0 3:0.0 4:0.0 5:0.0 
1.0 0:0.0 1:0.0 2:0.0 3:0.0 4:0.0 5:0.0 
1.0 0:0.0 1:0.0 2:0.0 3:0.0 4:0.0 5:0.0 
1.0 0:0.0 1:1.0 2:0.0 3:1.0 4:0.0 5:0.0 
1.0 0:0.0 1:0.0 2:0.0 3:0.0 4:0.0 5:0.0 
1.0 0:0.0 1:0.0 2:0.0 3:0.0 4:0.0 5:1.0 
1.0 0:0.0 1:0.0 2:0.0 3:0.0 4:0.0 5:1.0 
1.0 0:0.0 1:0.0 2:0.0 3:0.0 4:0.0 5:1.0 
1.0 0:0.0 1:0.0 2:0.0 3:0.0 4:0.0 5:0.0 
1.0 0:0.0 1:0.0 2:0.0 3:0.0 4:0.0 5:0.0 
1.0 0:0.0 1:0.0 2:0.0 3:0.0 4:0.0 5:0.0 
1.0 0:0.0 1:0.0 2:0.0 3:0.0 4:0.0 5:0.0 
1.0 0:0.0 1:0.0 2:0.0 3:0.0 4:0.0 5:1.0 
1.0 0:0.0 1:0.0 2:0.0 3:0.0 4:0.0 5:0.0 
1.0 0:0.0 1:0.0 2:0.0 3:0.0 4:0.0 5:0.0 
1.0 0:0.0 1:0.0 2:0.0 3:0.0 4:0.0 5:0.0 
1.0 0:0.0 1:0.0 2:0.0 3:0.0 4:0.0 5:1.0 
1.0 0:0.0 1:0.0 2:0.0 3:0.0 4:0.0 5:0.0 
1.0 0:0.0 1:0.0 2:0.0 3:0.0 4:0.0 5:0.0 
1.0 0:0.0 1:0.0 2:0.0 3:0.0 4:0.0 5:0.0 
1.0 0:0.0 1:0.0 2:0.0 3:0.0 4:0.0 5:0.0 
1.0 0:0.0 1:0.0 2:0.0 3:0.0 4:0.0 5:0.0 
1.0 0:0.0 1:0.0 2:0.0 3:0.0 4:0.0 5:0.0 
1.0 0:0.0 1:1.0 2:0.0 3:0.0 4:0.0 5:1.0 
1.0 0:0.0 1:0.0 2:0.0 3:0.0 4:0.0 5:1.0 
1.0 0:0.0 1:0.0 2:0.0 3:0.0 4:0.0 5:0.0 
1.0 0:0.0 1:0.0 2:0.0 3:1.0 4:0.0 5:1.0 
1.0 0:0.0 1:0.0 2:0.0 3:1.0 4:0.0 5:1.0 
1.0 0:0.0 1:0.0 2:0.0 3:1.0 4:0.0 5:1.0 
1.0 0:0.0 1:0.0 2:0.0 3:0.0 4:0.0 5:0.0 
1.0 0:0.0 1:1.0 2:0.0 3:0.0 4:0.0 5:1.0 
1.0 0:0.0 1:0.0 2:0.0 3:0.0 4:0.0 5:1.0 
1.0 0:0.0 1:0.0 2:0.0 3:0.0 4:0.0 5:0.0 
1.0 0:0.0 1:0.0 2:0.0 3:0.0 4:0.0 5:0.0 
1.0 0:0.0 1:0.0 2:0.0 3:0.0 4:0.0 5:0.0 
1.0 0:0.0 1:0.0 2:0.0 3:0.0 4:0.0 5:0.0 
1.0 0:0.0 1:0.0 2:0.0 3:1.0 4:0.0 5:1.0 
1.0 0:0.0 1:0.0 2:0.0 3:0.0 4:0.0 5:0.0 
1.0 0:0.0 1:0.0 2:0.0 3:0.0 4:0.0 5:0.0 
1.0 0:0.0 1:0.0 2:0.0 3:0.0 4:0.0 5:0.0 
1.0 0:0.0 1:0.0 2:0.0 3:0.0 4:0.0 5:0.0 
1.0 0:0.0 1:0.0 2:0.0 3:0.0 4:0.0 5:1.0 
1.0 0:0.0 1:0.0 2:0.0 3:0.0 4:0.0 5:1.0 
1.0 0:0.0 1:0.0 2:0.0 3:0.0 4:0.0 5:1.0 
1.0 0:0.0 1:0.0 2:0.0 3:0.0 4:0.0 5:1.0 
1.0 0:0.0 1:0.0 2:0.0 3:0.0 4:0.0 5:0.0 
1.0 0:0.0 1:0.0 2:0.0 3:1.0 4:0.0 5:1.0 
1.0 0:0.0 1:0.0 2:0.0 3:0.0 4:0.0 5:0.0 
1.0 0:0.0 1:0.0 2:0.0 3:0.0 4:0.0 5:1.0 
1.0 0:0.0 1:0.0 2:0.0 3:0.0 4:0.0 5:0.0 
1.0 0:0.0 1:1.0 2:0.0 3:1.0 4:0.0 5:0.0 
1.0 0:0.0 1:0.0 2:0.0 3:0.0 4:0.0 5:1.0 
1.0 0:0.0 1:0.0 2:0.0 3:0.0 4:0.0 5:0.0 
1.0 0:0.0 1:0.0 2:0.0 3:0.0 4:0.0 5:1.0 
1.0 0:0.0 1:0.0 2:0.0 3:0.0 4:0.0 5:0.0 
1.0 0:0.0 1:0.0 2:0.0 3:0.0 4:0.0 5:1.0 
1.0 0:0.0 1:0.0 2:0.0 3:0.0 4:0.0 5:0.0 
1.0 0:0.0 1:0.0 2:0.0 3:0.0 4:0.0 5:0.0 
1.0 0:0.0 1:0.0 2:0.0 3:0.0 4:0.0 5:0.0 
1.0 0:0.0 1:1.0 2:0.0 3:0.0 4:0.0 5:0.0 
1.0 0:0.0 1:0.0 2:0.0 3:0.0 4:0.0 5:0.0 
1.0 0:0.0 1:0.0 2:0.0 3:0.0 4:0.0 5:1.0 
1.0 0:0.0 1:0.0 2:0.0 3:0.0 4:0.0 5:0.0 
1.0 0:0.0 1:0.0 2:0.0 3:0.0 4:0.0 5:1.0 
1.0 0:0.0 1:1.0 2:0.0 3:0.0 4:0.0 5:0.0 
1.0 0:0.0 1:1.0 2:0.0 3:0.0 4:0.0 5:0.0 
1.0 0:0.0 1:0.0 2:0.0 3:0.0 4:0.0 5:0.0 
1.0 0:0.0 1:1.0 2:0.0 3:0.0 4:0.0 5:1.0 
1.0 0:0.0 1:1.0 2:0.0 3:0.0 4:0.0 5:0.0 
1.0 0:0.0 1:1.0 2:0.0 3:0.0 4:0.0 5:1.0 
1.0 0:0.0 1:0.0 2:0.0 3:0.0 4:0.0 5:0.0 
1.0 0:0.0 1:0.0 2:0.0 3:0.0 4:0.0 5:0.0 
1.0 0:0.0 1:0.0 2:0.0 3:0.0 4:0.0 5:1.0 
1.0 0:0.0 1:0.0 2:0.0 3:0.0 4:0.0 5:1.0 
1.0 0:0.0 1:0.0 2:0.0 3:0.0 4:0.0 5:1.0 
1.0 0:0.0 1:0.0 2:0.0 3:0.0 4:0.0 5:1.0 
1.0 0:0.0 1:0.0 2:0.0 3:0.0 4:0.0 5:1.0 
1.0 0:0.0 1:0.0 2:0.0 3:0.0 4:0.0 5:1.0 
1.0 0:0.0 1:0.0 2:0.0 3:0.0 4:0.0 5:1.0 
1.0 0:0.0 1:0.0 2:0.0 3:0.0 4:0.0 5:0.0 
1.0 0:0.0 1:0.0 2:0.0 3:0.0 4:0.0 5:0.0 
1.0 0:0.0 1:0.0 2:0.0 3:0.0 4:0.0 5:0.0 
1.0 0:0.0 1:0.0 2:0.0 3:0.0 4:0.0 5:1.0 
1.0 0:0.0 1:0.0 2:0.0 3:0.0 4:0.0 5:1.0 
1.0 0:0.0 1:0.0 2:0.0 3:0.0 4:0.0 5:1.0 
1.0 0:0.0 1:0.0 2:0.0 3:0.0 4:0.0 5:1.0 
1.0 0:0.0 1:0.0 2:0.0 3:0.0 4:0.0 5:1.0 
1.0 0:0.0 1:0.0 2:0.0 3:0.0 4:0.0 5:1.0 
1.0 0:0.0 1:0.0 2:0.0 3:0.0 4:0.0 5:1.0 
1.0 0:0.0 1:0.0 2:0.0 3:0.0 4:0.0 5:0.0 
1.0 0:0.0 1:0.0 2:0.0 3:0.0 4:0.0 5:0.0 
1.0 0:0.0 1:0.0 2:0.0 3:0.0 4:0.0 5:0.0 
1.0 0:0.0 1:0.0 2:0.0 3:0.0 4:0.0 5:0.0 
1.0 0:0.0 1:0.0 2:0.0 3:0.0 4:0.0 5:0.0 
1.0 0:0.0 1:0.0 2:0.0 3:0.0 4:0.0 5:0.0 
1.0 0:0.0 1:0.0 2:0.0 3:0.0 4:0.0 5:0.0 
1.0 0:0.0 1:1.0 2:0.0 3:0.0 4:0.0 5:0.0 
1.0 0:0.0 1:0.0 2:0.0 3:0.0 4:0.0 5:0.0 
1.0 0:0.0 1:0.0 2:0.0 3:0.0 4:0.0 5:1.0 
1.0 0:0.0 1:0.0 2:0.0 3:0.0 4:0.0 5:0.0 
1.0 0:0.0 1:1.0 2:0.0 3:0.0 4:0.0 5:1.0 
1.0 0:0.0 1:0.0 2:0.0 3:0.0 4:0.0 5:0.0 
1.0 0:1.0 1:0.0 2:0.0 3:0.0 4:0.0 5:0.0 
1.0 0:0.0 1:1.0 2:0.0 3:0.0 4:0.0 5:0.0 
1.0 0:0.0 1:0.0 2:0.0 3:0.0 4:0.0 5:0.0 
1.0 0:0.0 1:0.0 2:0.0 3:0.0 4:0.0 5:0.0 
1.0 0:0.0 1:0.0 2:0.0 3:0.0 4:0.0 5:0.0 
1.0 0:0.0 1:0.0 2:0.0 3:0.0 4:0.0 5:0.0 
1.0 0:0.0 1:0.0 2:0.0 3:0.0 4:0.0 5:0.0 
1.0 0:0.0 1:0.0 2:0.0 3:0.0 4:0.0 5:0.0 
1.0 0:0.0 1:0.0 2:0.0 3:0.0 4:0.0 5:1.0 
1.0 0:0.0 1:0.0 2:0.0 3:0.0 4:0.0 5:0.0 
1.0 0:0.0 1:0.0 2:0.0 3:0.0 4:0.0 5:0.0 
1.0 0:0.0 1:0.0 2:0.0 3:0.0 4:0.0 5:0.0 
1.0 0:0.0 1:0.0 2:0.0 3:0.0 4:0.0 5:0.0 
1.0 0:0.0 1:0.0 2:0.0 3:0.0 4:0.0 5:0.0 
1.0 0:0.0 1:0.0 2:0.0 3:0.0 4:0.0 5:1.0 
1.0 0:0.0 1:0.0 2:0.0 3:0.0 4:0.0 5:0.0 
1.0 0:0.0 1:0.0 2:0.0 3:0.0 4:0.0 5:0.0 
1.0 0:0.0 1:0.0 2:0.0 3:0.0 4:0.0 5:1.0 
1.0 0:0.0 1:0.0 2:0.0 3:0.0 4:0.0 5:0.0 
1.0 0:0.0 1:0.0 2:0.0 3:0.0 4:0.0 5:1.0 
1.0 0:0.0 1:0.0 2:0.0 3:0.0 4:0.0 5:0.0 
1.0 0:0.0 1:0.0 2:0.0 3:0.0 4:0.0 5:0.0 
1.0 0:0.0 1:0.0 2:0.0 3:1.0 4:0.0 5:1.0 
1.0 0:0.0 1:0.0 2:0.0 3:0.0 4:0.0 5:1.0 
1.0 0:0.0 1:0.0 2:0.0 3:0.0 4:0.0 5:1.0 
1.0 0:0.0 1:0.0 2:0.0 3:0.0 4:0.0 5:0.0 
1.0 0:0.0 1:0.0 2:0.0 3:0.0 4:0.0 5:0.0 
1.0 0:0.0 1:0.0 2:0.0 3:0.0 4:0.0 5:1.0 
1.0 0:0.0 1:0.0 2:0.0 3:0.0 4:0.0 5:0.0 
1.0 0:0.0 1:0.0 2:0.0 3:0.0 4:0.0 5:0.0 
1.0 0:0.0 1:0.0 2:0.0 3:0.0 4:0.0 5:1.0 
1.0 0:0.0 1:0.0 2:0.0 3:0.0 4:0.0 5:0.0 
1.0 0:0.0 1:0.0 2:0.0 3:0.0 4:0.0 5:1.0 
1.0 0:0.0 1:0.0 2:0.0 3:0.0 4:0.0 5:1.0 
1.0 0:0.0 1:0.0 2:0.0 3:0.0 4:0.0 5:0.0 
1.0 0:0.0 1:0.0 2:0.0 3:0.0 4:0.0 5:1.0 
1.0 0:0.0 1:0.0 2:0.0 3:0.0 4:0.0 5:1.0 
1.0 0:0.0 1:0.0 2:0.0 3:0.0 4:0.0 5:0.0 
1.0 0:0.0 1:0.0 2:0.0 3:0.0 4:0.0 5:0.0 
1.0 0:0.0 1:0.0 2:0.0 3:0.0 4:0.0 5:0.0 
1.0 0:0.0 1:0.0 2:0.0 3:0.0 4:0.0 5:0.0 
1.0 0:0.0 1:0.0 2:0.0 3:0.0 4:0.0 5:0.0 
1.0 0:0.0 1:0.0 2:0.0 3:0.0 4:0.0 5:0.0 
1.0 0:0.0 1:0.0 2:0.0 3:0.0 4:0.0 5:0.0 
1.0 0:0.0 1:0.0 2:0.0 3:0.0 4:0.0 5:0.0 
1.0 0:0.0 1:0.0 2:0.0 3:0.0 4:0.0 5:0.0 
1.0 0:0.0 1:0.0 2:0.0 3:0.0 4:0.0 5:1.0 
1.0 0:0.0 1:0.0 2:0.0 3:0.0 4:0.0 5:0.0 
1.0 0:0.0 1:0.0 2:0.0 3:0.0 4:0.0 5:0.0 
1.0 0:0.0 1:0.0 2:0.0 3:0.0 4:0.0 5:0.0 
1.0 0:0.0 1:0.0 2:0.0 3:0.0 4:0.0 5:0.0 
1.0 0:0.0 1:0.0 2:0.0 3:0.0 4:0.0 5:0.0 
1.0 0:0.0 1:0.0 2:0.0 3:0.0 4:0.0 5:0.0 
1.0 0:0.0 1:0.0 2:0.0 3:0.0 4:0.0 5:0.0 
1.0 0:0.0 1:0.0 2:0.0 3:0.0 4:0.0 5:0.0 
1.0 0:0.0 1:0.0 2:0.0 3:0.0 4:0.0 5:0.0 
1.0 0:0.0 1:0.0 2:0.0 3:0.0 4:0.0 5:0.0 
1.0 0:0.0 1:0.0 2:0.0 3:0.0 4:0.0 5:1.0 
1.0 0:0.0 1:0.0 2:0.0 3:0.0 4:0.0 5:0.0 
1.0 0:0.0 1:0.0 2:0.0 3:0.0 4:0.0 5:1.0 
1.0 0:0.0 1:0.0 2:0.0 3:0.0 4:0.0 5:0.0 
1.0 0:0.0 1:0.0 2:0.0 3:0.0 4:0.0 5:0.0 
1.0 0:0.0 1:0.0 2:0.0 3:0.0 4:0.0 5:0.0 
1.0 0:0.0 1:0.0 2:0.0 3:0.0 4:0.0 5:1.0 
1.0 0:0.0 1:0.0 2:0.0 3:0.0 4:0.0 5:0.0 
1.0 0:0.0 1:0.0 2:0.0 3:0.0 4:0.0 5:0.0 
1.0 0:0.0 1:0.0 2:0.0 3:0.0 4:0.0 5:0.0 
1.0 0:0.0 1:0.0 2:0.0 3:0.0 4:0.0 5:0.0 
1.0 0:0.0 1:0.0 2:0.0 3:0.0 4:0.0 5:0.0 
1.0 0:0.0 1:0.0 2:0.0 3:0.0 4:0.0 5:0.0 
1.0 0:0.0 1:0.0 2:0.0 3:0.0 4:0.0 5:1.0 
1.0 0:0.0 1:0.0 2:0.0 3:0.0 4:0.0 5:0.0 
1.0 0:0.0 1:0.0 2:0.0 3:0.0 4:0.0 5:0.0 
1.0 0:0.0 1:0.0 2:0.0 3:0.0 4:0.0 5:1.0 
1.0 0:0.0 1:0.0 2:0.0 3:1.0 4:0.0 5:0.0 
1.0 0:0.0 1:0.0 2:0.0 3:0.0 4:0.0 5:0.0 
1.0 0:0.0 1:0.0 2:0.0 3:0.0 4:0.0 5:0.0 
1.0 0:0.0 1:0.0 2:0.0 3:0.0 4:0.0 5:0.0 
1.0 0:0.0 1:0.0 2:0.0 3:0.0 4:0.0 5:0.0 
1.0 0:0.0 1:0.0 2:0.0 3:0.0 4:0.0 5:0.0 
1.0 0:0.0 1:0.0 2:0.0 3:0.0 4:0.0 5:0.0 
1.0 0:0.0 1:0.0 2:0.0 3:0.0 4:0.0 5:0.0 
1.0 0:0.0 1:0.0 2:0.0 3:0.0 4:0.0 5:1.0 
1.0 0:0.0 1:0.0 2:0.0 3:0.0 4:0.0 5:0.0 
1.0 0:0.0 1:0.0 2:0.0 3:0.0 4:0.0 5:0.0 
1.0 0:0.0 1:0.0 2:0.0 3:0.0 4:0.0 5:0.0 
1.0 0:0.0 1:0.0 2:0.0 3:0.0 4:0.0 5:0.0 
1.0 0:0.0 1:0.0 2:0.0 3:0.0 4:0.0 5:0.0 
1.0 0:0.0 1:0.0 2:0.0 3:0.0 4:0.0 5:0.0 
1.0 0:0.0 1:0.0 2:0.0 3:0.0 4:0.0 5:0.0 
1.0 0:0.0 1:0.0 2:0.0 3:0.0 4:0.0 5:1.0 
1.0 0:0.0 1:0.0 2:0.0 3:0.0 4:0.0 5:0.0 
1.0 0:0.0 1:0.0 2:0.0 3:0.0 4:0.0 5:0.0 
1.0 0:0.0 1:0.0 2:0.0 3:0.0 4:0.0 5:0.0 
1.0 0:0.0 1:0.0 2:0.0 3:0.0 4:0.0 5:0.0 
1.0 0:0.0 1:0.0 2:0.0 3:0.0 4:0.0 5:1.0 
1.0 0:0.0 1:0.0 2:0.0 3:0.0 4:0.0 5:0.0 
1.0 0:0.0 1:0.0 2:0.0 3:0.0 4:0.0 5:0.0 
1.0 0:0.0 1:0.0 2:0.0 3:0.0 4:0.0 5:0.0 
1.0 0:0.0 1:0.0 2:0.0 3:0.0 4:0.0 5:0.0 
1.0 0:0.0 1:0.0 2:0.0 3:0.0 4:0.0 5:1.0 
1.0 0:0.0 1:0.0 2:0.0 3:0.0 4:0.0 5:0.0 
1.0 0:0.0 1:0.0 2:0.0 3:0.0 4:0.0 5:0.0 
1.0 0:0.0 1:0.0 2:0.0 3:0.0 4:0.0 5:0.0 
1.0 0:0.0 1:0.0 2:0.0 3:0.0 4:0.0 5:0.0 
1.0 0:0.0 1:0.0 2:0.0 3:0.0 4:0.0 5:0.0 
1.0 0:0.0 1:0.0 2:0.0 3:0.0 4:0.0 5:0.0 
1.0 0:0.0 1:0.0 2:0.0 3:0.0 4:0.0 5:0.0 
1.0 0:0.0 1:0.0 2:0.0 3:0.0 4:0.0 5:0.0 
1.0 0:0.0 1:0.0 2:0.0 3:0.0 4:0.0 5:0.0 
1.0 0:0.0 1:0.0 2:0.0 3:0.0 4:0.0 5:0.0 
1.0 0:0.0 1:0.0 2:0.0 3:0.0 4:0.0 5:0.0 
1.0 0:0.0 1:0.0 2:0.0 3:0.0 4:0.0 5:0.0 
1.0 0:0.0 1:0.0 2:0.0 3:0.0 4:0.0 5:0.0 
1.0 0:0.0 1:0.0 2:0.0 3:0.0 4:0.0 5:1.0 
1.0 0:0.0 1:0.0 2:0.0 3:0.0 4:0.0 5:0.0 
1.0 0:0.0 1:0.0 2:0.0 3:0.0 4:0.0 5:0.0 
1.0 0:0.0 1:0.0 2:0.0 3:0.0 4:0.0 5:1.0 
1.0 0:0.0 1:0.0 2:0.0 3:0.0 4:0.0 5:0.0 
1.0 0:0.0 1:0.0 2:0.0 3:0.0 4:0.0 5:0.0 
1.0 0:0.0 1:0.0 2:0.0 3:0.0 4:0.0 5:1.0 
1.0 0:0.0 1:0.0 2:0.0 3:0.0 4:0.0 5:0.0 
1.0 0:0.0 1:0.0 2:0.0 3:0.0 4:0.0 5:1.0 
1.0 0:0.0 1:0.0 2:0.0 3:0.0 4:0.0 5:1.0 
1.0 0:0.0 1:1.0 2:0.0 3:1.0 4:0.0 5:0.0 
1.0 0:0.0 1:0.0 2:0.0 3:0.0 4:0.0 5:1.0 
1.0 0:0.0 1:0.0 2:0.0 3:0.0 4:0.0 5:0.0 
1.0 0:0.0 1:0.0 2:0.0 3:0.0 4:0.0 5:0.0 
1.0 0:0.0 1:0.0 2:0.0 3:0.0 4:0.0 5:0.0 
1.0 0:0.0 1:0.0 2:0.0 3:0.0 4:0.0 5:0.0 
1.0 0:0.0 1:0.0 2:0.0 3:0.0 4:0.0 5:0.0 
1.0 0:0.0 1:0.0 2:0.0 3:0.0 4:0.0 5:0.0 
1.0 0:0.0 1:0.0 2:0.0 3:0.0 4:0.0 5:0.0 
1.0 0:0.0 1:0.0 2:0.0 3:0.0 4:0.0 5:0.0 
1.0 0:0.0 1:0.0 2:0.0 3:0.0 4:0.0 5:0.0 
1.0 0:0.0 1:0.0 2:0.0 3:0.0 4:0.0 5:0.0 
1.0 0:0.0 1:0.0 2:0.0 3:0.0 4:0.0 5:0.0 
1.0 0:0.0 1:0.0 2:0.0 3:0.0 4:0.0 5:0.0 
1.0 0:0.0 1:0.0 2:0.0 3:0.0 4:0.0 5:0.0 
1.0 0:0.0 1:0.0 2:0.0 3:0.0 4:0.0 5:0.0 
1.0 0:0.0 1:0.0 2:0.0 3:0.0 4:0.0 5:0.0 
1.0 0:0.0 1:0.0 2:0.0 3:0.0 4:0.0 5:0.0 
1.0 0:0.0 1:0.0 2:0.0 3:0.0 4:0.0 5:1.0 
1.0 0:0.0 1:0.0 2:0.0 3:0.0 4:0.0 5:0.0 
1.0 0:0.0 1:0.0 2:0.0 3:0.0 4:0.0 5:1.0 
1.0 0:0.0 1:0.0 2:0.0 3:0.0 4:0.0 5:0.0 
1.0 0:0.0 1:0.0 2:0.0 3:0.0 4:0.0 5:1.0 
1.0 0:0.0 1:0.0 2:0.0 3:0.0 4:0.0 5:1.0 
1.0 0:0.0 1:0.0 2:0.0 3:0.0 4:0.0 5:1.0 
1.0 0:0.0 1:1.0 2:0.0 3:0.0 4:0.0 5:0.0 
1.0 0:0.0 1:0.0 2:0.0 3:0.0 4:0.0 5:1.0 
1.0 0:0.0 1:0.0 2:0.0 3:0.0 4:0.0 5:0.0 
1.0 0:0.0 1:0.0 2:0.0 3:0.0 4:0.0 5:1.0 
1.0 0:0.0 1:1.0 2:0.0 3:0.0 4:0.0 5:0.0 
1.0 0:0.0 1:0.0 2:0.0 3:0.0 4:0.0 5:0.0 
1.0 0:0.0 1:1.0 2:0.0 3:0.0 4:0.0 5:0.0 
1.0 0:0.0 1:0.0 2:0.0 3:0.0 4:0.0 5:0.0 
1.0 0:0.0 1:1.0 2:0.0 3:0.0 4:0.0 5:0.0 
1.0 0:0.0 1:0.0 2:0.0 3:0.0 4:0.0 5:0.0 
1.0 0:0.0 1:1.0 2:0.0 3:1.0 4:0.0 5:1.0 
1.0 0:0.0 1:0.0 2:0.0 3:0.0 4:0.0 5:0.0 
1.0 0:0.0 1:0.0 2:0.0 3:0.0 4:0.0 5:0.0 
1.0 0:0.0 1:0.0 2:0.0 3:0.0 4:0.0 5:0.0 
1.0 0:0.0 1:0.0 2:0.0 3:0.0 4:0.0 5:0.0 
1.0 0:0.0 1:0.0 2:0.0 3:0.0 4:0.0 5:0.0 
1.0 0:0.0 1:0.0 2:0.0 3:0.0 4:0.0 5:0.0 
1.0 0:0.0 1:0.0 2:0.0 3:0.0 4:0.0 5:0.0 
1.0 0:0.0 1:0.0 2:0.0 3:0.0 4:0.0 5:0.0 
1.0 0:0.0 1:0.0 2:0.0 3:0.0 4:0.0 5:0.0 
1.0 0:0.0 1:1.0 2:0.0 3:0.0 4:0.0 5:0.0 
1.0 0:0.0 1:0.0 2:0.0 3:0.0 4:0.0 5:0.0 
1.0 0:0.0 1:0.0 2:0.0 3:0.0 4:0.0 5:1.0 
1.0 0:0.0 1:0.0 2:0.0 3:0.0 4:0.0 5:0.0 
1.0 0:0.0 1:0.0 2:0.0 3:0.0 4:0.0 5:0.0 
1.0 0:0.0 1:0.0 2:0.0 3:0.0 4:0.0 5:1.0 
1.0 0:0.0 1:1.0 2:0.0 3:0.0 4:0.0 5:0.0 
1.0 0:0.0 1:1.0 2:0.0 3:1.0 4:0.0 5:1.0 
1.0 0:0.0 1:0.0 2:0.0 3:1.0 4:0.0 5:1.0 
1.0 0:0.0 1:0.0 2:0.0 3:0.0 4:0.0 5:0.0 
1.0 0:0.0 1:0.0 2:0.0 3:0.0 4:0.0 5:0.0 
1.0 0:0.0 1:0.0 2:0.0 3:0.0 4:0.0 5:1.0 
1.0 0:0.0 1:0.0 2:0.0 3:0.0 4:0.0 5:0.0 
1.0 0:0.0 1:0.0 2:0.0 3:0.0 4:0.0 5:1.0 
1.0 0:0.0 1:0.0 2:0.0 3:0.0 4:0.0 5:0.0 
1.0 0:0.0 1:0.0 2:0.0 3:0.0 4:0.0 5:0.0 
1.0 0:0.0 1:0.0 2:0.0 3:0.0 4:0.0 5:0.0 
1.0 0:0.0 1:0.0 2:0.0 3:0.0 4:0.0 5:0.0 
1.0 0:0.0 1:0.0 2:0.0 3:0.0 4:0.0 5:0.0 
1.0 0:0.0 1:0.0 2:0.0 3:0.0 4:0.0 5:0.0 
1.0 0:0.0 1:0.0 2:0.0 3:0.0 4:0.0 5:0.0 
1.0 0:0.0 1:0.0 2:0.0 3:0.0 4:0.0 5:0.0 
1.0 0:0.0 1:0.0 2:0.0 3:0.0 4:0.0 5:0.0 
1.0 0:0.0 1:0.0 2:0.0 3:0.0 4:0.0 5:0.0 
1.0 0:0.0 1:0.0 2:0.0 3:0.0 4:0.0 5:0.0 
1.0 0:0.0 1:0.0 2:0.0 3:0.0 4:0.0 5:1.0 
1.0 0:0.0 1:0.0 2:0.0 3:0.0 4:0.0 5:0.0 
1.0 0:0.0 1:0.0 2:0.0 3:0.0 4:0.0 5:0.0 
1.0 0:0.0 1:0.0 2:0.0 3:0.0 4:0.0 5:0.0 
1.0 0:0.0 1:0.0 2:0.0 3:0.0 4:0.0 5:0.0 
1.0 0:0.0 1:0.0 2:0.0 3:0.0 4:0.0 5:0.0 
1.0 0:0.0 1:0.0 2:0.0 3:0.0 4:0.0 5:0.0 
1.0 0:0.0 1:0.0 2:0.0 3:0.0 4:0.0 5:0.0 
1.0 0:0.0 1:0.0 2:0.0 3:0.0 4:0.0 5:0.0 
1.0 0:0.0 1:0.0 2:0.0 3:0.0 4:0.0 5:1.0 
1.0 0:0.0 1:0.0 2:0.0 3:0.0 4:0.0 5:1.0 
1.0 0:0.0 1:0.0 2:0.0 3:0.0 4:0.0 5:0.0 
1.0 0:0.0 1:0.0 2:0.0 3:1.0 4:0.0 5:1.0 
1.0 0:0.0 1:0.0 2:0.0 3:0.0 4:0.0 5:0.0 
1.0 0:0.0 1:0.0 2:0.0 3:0.0 4:0.0 5:0.0 
1.0 0:0.0 1:1.0 2:0.0 3:0.0 4:0.0 5:0.0 
1.0 0:0.0 1:0.0 2:0.0 3:0.0 4:0.0 5:0.0 
1.0 0:0.0 1:0.0 2:0.0 3:0.0 4:0.0 5:0.0 
1.0 0:0.0 1:0.0 2:0.0 3:0.0 4:0.0 5:0.0 
1.0 0:0.0 1:0.0 2:0.0 3:0.0 4:0.0 5:0.0 
1.0 0:0.0 1:0.0 2:0.0 3:0.0 4:0.0 5:0.0 
1.0 0:0.0 1:0.0 2:0.0 3:0.0 4:0.0 5:0.0 
1.0 0:0.0 1:0.0 2:0.0 3:0.0 4:0.0 5:0.0 
1.0 0:0.0 1:0.0 2:0.0 3:0.0 4:0.0 5:0.0 
1.0 0:0.0 1:0.0 2:0.0 3:0.0 4:0.0 5:0.0 
1.0 0:0.0 1:0.0 2:0.0 3:0.0 4:0.0 5:0.0 
1.0 0:0.0 1:0.0 2:0.0 3:0.0 4:0.0 5:0.0 
1.0 0:0.0 1:0.0 2:0.0 3:0.0 4:0.0 5:0.0 
1.0 0:0.0 1:0.0 2:0.0 3:0.0 4:0.0 5:1.0 
1.0 0:0.0 1:0.0 2:0.0 3:0.0 4:0.0 5:1.0 
1.0 0:0.0 1:1.0 2:0.0 3:1.0 4:0.0 5:0.0 
1.0 0:0.0 1:0.0 2:0.0 3:0.0 4:0.0 5:1.0 
1.0 0:0.0 1:0.0 2:0.0 3:0.0 4:0.0 5:0.0 
1.0 0:0.0 1:0.0 2:0.0 3:0.0 4:0.0 5:1.0 
1.0 0:0.0 1:0.0 2:0.0 3:0.0 4:0.0 5:0.0 
1.0 0:0.0 1:0.0 2:0.0 3:0.0 4:0.0 5:0.0 
1.0 0:0.0 1:0.0 2:0.0 3:0.0 4:0.0 5:1.0 
1.0 0:0.0 1:0.0 2:0.0 3:0.0 4:0.0 5:0.0 
1.0 0:0.0 1:0.0 2:0.0 3:0.0 4:0.0 5:0.0 
1.0 0:0.0 1:0.0 2:0.0 3:0.0 4:0.0 5:1.0 
1.0 0:0.0 1:0.0 2:0.0 3:0.0 4:0.0 5:0.0 
1.0 0:0.0 1:0.0 2:0.0 3:0.0 4:0.0 5:1.0 
1.0 0:0.0 1:0.0 2:0.0 3:0.0 4:0.0 5:0.0 
1.0 0:0.0 1:0.0 2:0.0 3:0.0 4:0.0 5:0.0 
1.0 0:0.0 1:0.0 2:0.0 3:0.0 4:0.0 5:1.0 
1.0 0:0.0 1:0.0 2:0.0 3:0.0 4:0.0 5:0.0 
1.0 0:0.0 1:0.0 2:0.0 3:0.0 4:0.0 5:0.0 
1.0 0:0.0 1:0.0 2:0.0 3:0.0 4:0.0 5:1.0 
1.0 0:0.0 1:0.0 2:0.0 3:0.0 4:0.0 5:0.0 
1.0 0:0.0 1:0.0 2:0.0 3:0.0 4:0.0 5:1.0 
1.0 0:0.0 1:0.0 2:0.0 3:0.0 4:0.0 5:0.0 
1.0 0:0.0 1:0.0 2:0.0 3:0.0 4:0.0 5:1.0 
1.0 0:0.0 1:0.0 2:0.0 3:0.0 4:0.0 5:1.0 
1.0 0:0.0 1:0.0 2:0.0 3:0.0 4:0.0 5:0.0 
1.0 0:0.0 1:0.0 2:0.0 3:0.0 4:0.0 5:0.0 
1.0 0:0.0 1:0.0 2:0.0 3:0.0 4:0.0 5:1.0 
1.0 0:0.0 1:0.0 2:0.0 3:0.0 4:0.0 5:1.0 
1.0 0:0.0 1:0.0 2:0.0 3:0.0 4:0.0 5:0.0 
1.0 0:0.0 1:0.0 2:0.0 3:0.0 4:0.0 5:0.0 
1.0 0:0.0 1:0.0 2:0.0 3:0.0 4:0.0 5:0.0 
1.0 0:0.0 1:0.0 2:0.0 3:0.0 4:0.0 5:0.0 
1.0 0:0.0 1:0.0 2:0.0 3:0.0 4:0.0 5:0.0 
1.0 0:0.0 1:0.0 2:0.0 3:0.0 4:0.0 5:0.0 
1.0 0:0.0 1:0.0 2:0.0 3:0.0 4:0.0 5:0.0 
1.0 0:0.0 1:0.0 2:0.0 3:0.0 4:0.0 5:1.0 
1.0 0:0.0 1:0.0 2:0.0 3:0.0 4:0.0 5:0.0 
1.0 0:0.0 1:0.0 2:0.0 3:0.0 4:0.0 5:1.0 
1.0 0:0.0 1:0.0 2:0.0 3:0.0 4:0.0 5:0.0 
1.0 0:0.0 1:0.0 2:0.0 3:0.0 4:0.0 5:0.0 
1.0 0:0.0 1:0.0 2:0.0 3:0.0 4:0.0 5:1.0 
1.0 0:0.0 1:0.0 2:0.0 3:0.0 4:0.0 5:0.0 
1.0 0:0.0 1:0.0 2:0.0 3:0.0 4:0.0 5:0.0 
1.0 0:0.0 1:0.0 2:0.0 3:0.0 4:0.0 5:0.0 
1.0 0:0.0 1:0.0 2:0.0 3:0.0 4:0.0 5:0.0 
1.0 0:0.0 1:1.0 2:0.0 3:0.0 4:0.0 5:0.0 
1.0 0:0.0 1:0.0 2:0.0 3:0.0 4:0.0 5:0.0 
1.0 0:0.0 1:0.0 2:0.0 3:0.0 4:0.0 5:0.0 
1.0 0:0.0 1:0.0 2:0.0 3:0.0 4:0.0 5:0.0 
1.0 0:0.0 1:0.0 2:0.0 3:0.0 4:0.0 5:0.0 
1.0 0:0.0 1:0.0 2:0.0 3:0.0 4:0.0 5:0.0 
1.0 0:0.0 1:0.0 2:0.0 3:0.0 4:0.0 5:1.0 
1.0 0:0.0 1:0.0 2:0.0 3:0.0 4:0.0 5:0.0 
1.0 0:0.0 1:0.0 2:0.0 3:0.0 4:0.0 5:0.0 
1.0 0:0.0 1:0.0 2:0.0 3:0.0 4:0.0 5:0.0 
1.0 0:0.0 1:0.0 2:0.0 3:0.0 4:0.0 5:0.0 
1.0 0:0.0 1:0.0 2:0.0 3:0.0 4:0.0 5:1.0 
1.0 0:0.0 1:0.0 2:0.0 3:0.0 4:0.0 5:0.0 
1.0 0:0.0 1:0.0 2:0.0 3:0.0 4:0.0 5:1.0 
1.0 0:0.0 1:0.0 2:0.0 3:0.0 4:0.0 5:0.0 
1.0 0:0.0 1:0.0 2:0.0 3:0.0 4:0.0 5:0.0 
1.0 0:1.0 1:0.0 2:0.0 3:0.0 4:0.0 5:0.0 
1.0 0:0.0 1:0.0 2:0.0 3:0.0 4:0.0 5:0.0 
1.0 0:0.0 1:0.0 2:0.0 3:0.0 4:0.0 5:1.0 
1.0 0:0.0 1:0.0 2:0.0 3:0.0 4:0.0 5:1.0 
1.0 0:0.0 1:0.0 2:0.0 3:0.0 4:0.0 5:1.0 
1.0 0:0.0 1:0.0 2:0.0 3:0.0 4:0.0 5:0.0 
1.0 0:1.0 1:0.0 2:0.0 3:0.0 4:0.0 5:0.0 
1.0 0:0.0 1:0.0 2:0.0 3:0.0 4:0.0 5:1.0 
1.0 0:0.0 1:1.0 2:0.0 3:1.0 4:0.0 5:0.0 
1.0 0:0.0 1:0.0 2:0.0 3:0.0 4:0.0 5:1.0 
1.0 0:0.0 1:0.0 2:0.0 3:0.0 4:0.0 5:0.0 
1.0 0:0.0 1:0.0 2:0.0 3:0.0 4:0.0 5:0.0 
1.0 0:0.0 1:0.0 2:0.0 3:0.0 4:0.0 5:1.0 
1.0 0:0.0 1:0.0 2:0.0 3:0.0 4:0.0 5:1.0 
1.0 0:0.0 1:0.0 2:0.0 3:0.0 4:0.0 5:1.0 
1.0 0:0.0 1:0.0 2:0.0 3:0.0 4:0.0 5:0.0 
1.0 0:0.0 1:0.0 2:0.0 3:0.0 4:0.0 5:0.0 
1.0 0:0.0 1:0.0 2:0.0 3:0.0 4:0.0 5:0.0 
1.0 0:0.0 1:0.0 2:0.0 3:0.0 4:0.0 5:0.0 
1.0 0:0.0 1:0.0 2:0.0 3:0.0 4:0.0 5:0.0 
1.0 0:0.0 1:0.0 2:0.0 3:0.0 4:0.0 5:1.0 
1.0 0:0.0 1:0.0 2:0.0 3:0.0 4:0.0 5:1.0 
1.0 0:0.0 1:0.0 2:0.0 3:0.0 4:0.0 5:1.0 
1.0 0:0.0 1:0.0 2:0.0 3:0.0 4:0.0 5:1.0 
1.0 0:0.0 1:0.0 2:0.0 3:0.0 4:0.0 5:1.0 
1.0 0:0.0 1:0.0 2:0.0 3:0.0 4:0.0 5:1.0 
1.0 0:0.0 1:0.0 2:0.0 3:0.0 4:0.0 5:0.0 
1.0 0:0.0 1:0.0 2:0.0 3:0.0 4:0.0 5:0.0 
1.0 0:0.0 1:0.0 2:0.0 3:0.0 4:0.0 5:1.0 
1.0 0:0.0 1:0.0 2:0.0 3:0.0 4:0.0 5:0.0 
1.0 0:0.0 1:0.0 2:0.0 3:0.0 4:0.0 5:1.0 
1.0 0:0.0 1:0.0 2:0.0 3:0.0 4:0.0 5:0.0 
1.0 0:0.0 1:0.0 2:0.0 3:0.0 4:0.0 5:0.0 
1.0 0:0.0 1:0.0 2:0.0 3:0.0 4:0.0 5:0.0 
1.0 0:0.0 1:0.0 2:0.0 3:0.0 4:0.0 5:0.0 
1.0 0:0.0 1:0.0 2:0.0 3:0.0 4:0.0 5:1.0 
1.0 0:0.0 1:0.0 2:0.0 3:0.0 4:0.0 5:0.0 
1.0 0:0.0 1:0.0 2:0.0 3:0.0 4:0.0 5:0.0 
1.0 0:0.0 1:0.0 2:0.0 3:0.0 4:0.0 5:0.0 
1.0 0:0.0 1:0.0 2:0.0 3:0.0 4:0.0 5:0.0 
1.0 0:0.0 1:0.0 2:0.0 3:0.0 4:0.0 5:0.0 
1.0 0:0.0 1:0.0 2:0.0 3:0.0 4:0.0 5:0.0 
1.0 0:0.0 1:0.0 2:0.0 3:0.0 4:0.0 5:1.0 
1.0 0:0.0 1:0.0 2:0.0 3:0.0 4:0.0 5:1.0 
1.0 0:0.0 1:0.0 2:0.0 3:0.0 4:0.0 5:1.0 
1.0 0:0.0 1:1.0 2:0.0 3:0.0 4:0.0 5:0.0 
1.0 0:1.0 1:0.0 2:0.0 3:0.0 4:0.0 5:0.0 
1.0 0:0.0 1:1.0 2:0.0 3:0.0 4:0.0 5:0.0 
1.0 0:1.0 1:0.0 2:0.0 3:0.0 4:0.0 5:0.0 
1.0 0:0.0 1:1.0 2:0.0 3:0.0 4:0.0 5:0.0 
1.0 0:0.0 1:0.0 2:0.0 3:0.0 4:0.0 5:0.0 
1.0 0:0.0 1:0.0 2:0.0 3:0.0 4:0.0 5:0.0 
1.0 0:0.0 1:0.0 2:0.0 3:1.0 4:0.0 5:1.0 
1.0 0:0.0 1:0.0 2:0.0 3:0.0 4:0.0 5:1.0 
1.0 0:0.0 1:0.0 2:0.0 3:0.0 4:0.0 5:1.0 
1.0 0:0.0 1:0.0 2:0.0 3:0.0 4:0.0 5:0.0 
1.0 0:0.0 1:0.0 2:0.0 3:0.0 4:0.0 5:1.0 
1.0 0:0.0 1:0.0 2:0.0 3:0.0 4:0.0 5:1.0 
1.0 0:0.0 1:0.0 2:0.0 3:0.0 4:0.0 5:0.0 
1.0 0:0.0 1:0.0 2:0.0 3:0.0 4:0.0 5:0.0 
1.0 0:0.0 1:0.0 2:0.0 3:0.0 4:0.0 5:0.0 
1.0 0:0.0 1:0.0 2:0.0 3:0.0 4:0.0 5:0.0 
1.0 0:0.0 1:0.0 2:0.0 3:0.0 4:0.0 5:0.0 
1.0 0:0.0 1:0.0 2:0.0 3:0.0 4:0.0 5:1.0 
1.0 0:0.0 1:0.0 2:0.0 3:0.0 4:0.0 5:0.0 
1.0 0:0.0 1:0.0 2:0.0 3:0.0 4:0.0 5:0.0 
1.0 0:0.0 1:0.0 2:0.0 3:0.0 4:0.0 5:1.0 
1.0 0:0.0 1:1.0 2:0.0 3:0.0 4:0.0 5:1.0 
1.0 0:0.0 1:0.0 2:0.0 3:0.0 4:0.0 5:0.0 
1.0 0:0.0 1:1.0 2:0.0 3:0.0 4:0.0 5:0.0 
1.0 0:0.0 1:0.0 2:0.0 3:0.0 4:0.0 5:0.0 
1.0 0:0.0 1:0.0 2:0.0 3:0.0 4:0.0 5:1.0 
1.0 0:0.0 1:1.0 2:0.0 3:0.0 4:0.0 5:0.0 
1.0 0:0.0 1:0.0 2:0.0 3:0.0 4:0.0 5:0.0 
1.0 0:0.0 1:0.0 2:0.0 3:0.0 4:0.0 5:0.0 
1.0 0:0.0 1:0.0 2:0.0 3:0.0 4:0.0 5:1.0 
1.0 0:0.0 1:0.0 2:0.0 3:0.0 4:0.0 5:1.0 
1.0 0:0.0 1:0.0 2:0.0 3:0.0 4:0.0 5:1.0 
1.0 0:0.0 1:0.0 2:0.0 3:0.0 4:0.0 5:1.0 
1.0 0:0.0 1:1.0 2:0.0 3:0.0 4:0.0 5:1.0 
1.0 0:0.0 1:0.0 2:0.0 3:0.0 4:0.0 5:1.0 
1.0 0:0.0 1:0.0 2:0.0 3:0.0 4:0.0 5:1.0 
1.0 0:0.0 1:0.0 2:0.0 3:0.0 4:0.0 5:0.0 
1.0 0:0.0 1:0.0 2:0.0 3:0.0 4:0.0 5:0.0 
1.0 0:0.0 1:1.0 2:0.0 3:0.0 4:0.0 5:0.0 
1.0 0:0.0 1:1.0 2:0.0 3:0.0 4:0.0 5:1.0 
1.0 0:0.0 1:0.0 2:0.0 3:0.0 4:0.0 5:0.0 
1.0 0:0.0 1:0.0 2:0.0 3:0.0 4:0.0 5:0.0 
1.0 0:0.0 1:0.0 2:0.0 3:0.0 4:0.0 5:1.0 
1.0 0:0.0 1:1.0 2:0.0 3:0.0 4:0.0 5:1.0 
1.0 0:0.0 1:0.0 2:0.0 3:0.0 4:0.0 5:1.0 
1.0 0:0.0 1:1.0 2:0.0 3:0.0 4:0.0 5:0.0 
1.0 0:0.0 1:0.0 2:0.0 3:0.0 4:0.0 5:0.0 
1.0 0:0.0 1:0.0 2:0.0 3:0.0 4:0.0 5:0.0 
1.0 0:0.0 1:0.0 2:0.0 3:0.0 4:0.0 5:0.0 
1.0 0:0.0 1:0.0 2:0.0 3:0.0 4:0.0 5:1.0 
1.0 0:0.0 1:0.0 2:0.0 3:0.0 4:0.0 5:1.0 
1.0 0:0.0 1:0.0 2:0.0 3:0.0 4:0.0 5:0.0 
1.0 0:0.0 1:0.0 2:0.0 3:0.0 4:0.0 5:0.0 
1.0 0:0.0 1:0.0 2:0.0 3:0.0 4:0.0 5:1.0 
1.0 0:0.0 1:0.0 2:0.0 3:0.0 4:0.0 5:0.0 
1.0 0:0.0 1:0.0 2:0.0 3:0.0 4:0.0 5:0.0 
1.0 0:0.0 1:0.0 2:0.0 3:0.0 4:0.0 5:1.0 
1.0 0:0.0 1:0.0 2:0.0 3:1.0 4:0.0 5:1.0 
1.0 0:0.0 1:0.0 2:0.0 3:0.0 4:0.0 5:1.0 
1.0 0:0.0 1:0.0 2:0.0 3:0.0 4:0.0 5:1.0 
1.0 0:0.0 1:0.0 2:0.0 3:0.0 4:0.0 5:1.0 
1.0 0:0.0 1:1.0 2:0.0 3:0.0 4:0.0 5:0.0 
1.0 0:0.0 1:1.0 2:0.0 3:0.0 4:0.0 5:0.0 
1.0 0:0.0 1:0.0 2:0.0 3:0.0 4:0.0 5:0.0 
1.0 0:0.0 1:0.0 2:0.0 3:0.0 4:0.0 5:0.0 
1.0 0:0.0 1:1.0 2:0.0 3:0.0 4:0.0 5:0.0 
1.0 0:0.0 1:1.0 2:0.0 3:0.0 4:0.0 5:1.0 
1.0 0:0.0 1:0.0 2:0.0 3:0.0 4:0.0 5:0.0 
1.0 0:0.0 1:1.0 2:0.0 3:0.0 4:0.0 5:0.0 
1.0 0:0.0 1:0.0 2:0.0 3:0.0 4:0.0 5:1.0 
1.0 0:0.0 1:0.0 2:0.0 3:0.0 4:0.0 5:0.0 
1.0 0:0.0 1:0.0 2:0.0 3:0.0 4:0.0 5:1.0 
1.0 0:0.0 1:0.0 2:0.0 3:0.0 4:0.0 5:0.0 
1.0 0:0.0 1:0.0 2:0.0 3:0.0 4:0.0 5:0.0 
1.0 0:0.0 1:0.0 2:0.0 3:0.0 4:0.0 5:0.0 
1.0 0:0.0 1:0.0 2:0.0 3:0.0 4:0.0 5:0.0 
1.0 0:0.0 1:0.0 2:0.0 3:0.0 4:0.0 5:1.0 
1.0 0:0.0 1:0.0 2:0.0 3:0.0 4:0.0 5:0.0 
1.0 0:0.0 1:0.0 2:0.0 3:0.0 4:0.0 5:0.0 
1.0 0:0.0 1:1.0 2:0.0 3:0.0 4:0.0 5:1.0 
1.0 0:0.0 1:1.0 2:0.0 3:0.0 4:0.0 5:1.0 
1.0 0:0.0 1:0.0 2:0.0 3:0.0 4:0.0 5:0.0 
1.0 0:0.0 1:1.0 2:0.0 3:0.0 4:0.0 5:0.0 
1.0 0:0.0 1:0.0 2:0.0 3:0.0 4:0.0 5:0.0 
1.0 0:0.0 1:0.0 2:0.0 3:0.0 4:0.0 5:1.0 
1.0 0:0.0 1:1.0 2:0.0 3:0.0 4:0.0 5:1.0 
1.0 0:0.0 1:1.0 2:0.0 3:0.0 4:0.0 5:1.0 
1.0 0:0.0 1:0.0 2:0.0 3:0.0 4:0.0 5:0.0 
1.0 0:0.0 1:0.0 2:0.0 3:0.0 4:0.0 5:1.0 
1.0 0:0.0 1:1.0 2:0.0 3:0.0 4:0.0 5:0.0 
1.0 0:0.0 1:0.0 2:0.0 3:0.0 4:0.0 5:0.0 
1.0 0:0.0 1:0.0 2:0.0 3:0.0 4:0.0 5:0.0 
1.0 0:0.0 1:1.0 2:0.0 3:0.0 4:0.0 5:0.0 
1.0 0:0.0 1:0.0 2:0.0 3:0.0 4:0.0 5:1.0 
1.0 0:0.0 1:1.0 2:0.0 3:0.0 4:0.0 5:0.0 
1.0 0:0.0 1:0.0 2:0.0 3:0.0 4:0.0 5:1.0 
1.0 0:0.0 1:0.0 2:0.0 3:0.0 4:0.0 5:0.0 
1.0 0:0.0 1:0.0 2:0.0 3:0.0 4:0.0 5:0.0 
1.0 0:0.0 1:0.0 2:0.0 3:0.0 4:0.0 5:1.0 
1.0 0:0.0 1:1.0 2:0.0 3:0.0 4:0.0 5:1.0 
1.0 0:0.0 1:1.0 2:0.0 3:0.0 4:0.0 5:1.0 
1.0 0:0.0 1:1.0 2:0.0 3:1.0 4:0.0 5:0.0 
1.0 0:0.0 1:0.0 2:0.0 3:0.0 4:0.0 5:1.0 
1.0 0:0.0 1:1.0 2:0.0 3:0.0 4:0.0 5:0.0 
1.0 0:0.0 1:0.0 2:0.0 3:0.0 4:0.0 5:0.0 
1.0 0:0.0 1:0.0 2:0.0 3:0.0 4:0.0 5:0.0 
1.0 0:0.0 1:0.0 2:0.0 3:0.0 4:0.0 5:1.0 
1.0 0:0.0 1:0.0 2:0.0 3:0.0 4:0.0 5:0.0 
1.0 0:0.0 1:0.0 2:0.0 3:0.0 4:0.0 5:0.0 
1.0 0:0.0 1:0.0 2:0.0 3:0.0 4:0.0 5:0.0 
1.0 0:0.0 1:0.0 2:0.0 3:0.0 4:0.0 5:0.0 
1.0 0:0.0 1:0.0 2:0.0 3:0.0 4:0.0 5:0.0 
1.0 0:0.0 1:0.0 2:0.0 3:0.0 4:0.0 5:0.0 
1.0 0:0.0 1:0.0 2:0.0 3:0.0 4:0.0 5:0.0 
1.0 0:0.0 1:0.0 2:0.0 3:0.0 4:0.0 5:1.0 
1.0 0:0.0 1:0.0 2:0.0 3:0.0 4:0.0 5:0.0 
1.0 0:0.0 1:0.0 2:0.0 3:0.0 4:0.0 5:0.0 
1.0 0:0.0 1:0.0 2:0.0 3:0.0 4:0.0 5:0.0 
1.0 0:0.0 1:0.0 2:0.0 3:0.0 4:0.0 5:0.0 
1.0 0:0.0 1:0.0 2:0.0 3:0.0 4:0.0 5:1.0 
1.0 0:0.0 1:0.0 2:0.0 3:0.0 4:0.0 5:0.0 
1.0 0:0.0 1:0.0 2:0.0 3:0.0 4:0.0 5:0.0 
1.0 0:0.0 1:0.0 2:0.0 3:0.0 4:0.0 5:0.0 
1.0 0:0.0 1:0.0 2:0.0 3:0.0 4:0.0 5:0.0 
1.0 0:0.0 1:0.0 2:0.0 3:0.0 4:0.0 5:1.0 
1.0 0:0.0 1:0.0 2:0.0 3:1.0 4:0.0 5:1.0 
1.0 0:0.0 1:0.0 2:0.0 3:0.0 4:0.0 5:0.0 
1.0 0:0.0 1:0.0 2:0.0 3:0.0 4:0.0 5:1.0 
1.0 0:0.0 1:0.0 2:0.0 3:0.0 4:0.0 5:0.0 
1.0 0:0.0 1:0.0 2:0.0 3:0.0 4:0.0 5:0.0 
1.0 0:0.0 1:0.0 2:0.0 3:0.0 4:0.0 5:1.0 
1.0 0:0.0 1:0.0 2:0.0 3:0.0 4:0.0 5:1.0 
1.0 0:0.0 1:0.0 2:0.0 3:0.0 4:0.0 5:1.0 
1.0 0:0.0 1:0.0 2:0.0 3:0.0 4:0.0 5:0.0 
1.0 0:0.0 1:0.0 2:0.0 3:0.0 4:0.0 5:0.0 
1.0 0:0.0 1:0.0 2:0.0 3:0.0 4:0.0 5:0.0 
1.0 0:0.0 1:0.0 2:0.0 3:0.0 4:0.0 5:1.0 
1.0 0:0.0 1:0.0 2:0.0 3:0.0 4:0.0 5:1.0 
1.0 0:0.0 1:1.0 2:0.0 3:0.0 4:0.0 5:1.0 
1.0 0:0.0 1:1.0 2:0.0 3:0.0 4:0.0 5:1.0 
1.0 0:0.0 1:1.0 2:0.0 3:0.0 4:0.0 5:0.0 
1.0 0:0.0 1:1.0 2:0.0 3:0.0 4:0.0 5:0.0 
1.0 0:0.0 1:1.0 2:0.0 3:0.0 4:0.0 5:1.0 
1.0 0:0.0 1:0.0 2:0.0 3:0.0 4:0.0 5:0.0 
1.0 0:0.0 1:1.0 2:0.0 3:0.0 4:0.0 5:1.0 
1.0 0:0.0 1:0.0 2:0.0 3:0.0 4:0.0 5:0.0 
1.0 0:1.0 1:0.0 2:0.0 3:0.0 4:0.0 5:0.0 
1.0 0:0.0 1:0.0 2:0.0 3:0.0 4:0.0 5:0.0 
1.0 0:0.0 1:0.0 2:0.0 3:0.0 4:0.0 5:1.0 
1.0 0:0.0 1:0.0 2:0.0 3:0.0 4:0.0 5:1.0 
1.0 0:0.0 1:1.0 2:0.0 3:0.0 4:0.0 5:0.0 
1.0 0:0.0 1:0.0 2:0.0 3:0.0 4:0.0 5:1.0 
1.0 0:0.0 1:0.0 2:0.0 3:0.0 4:0.0 5:1.0 
1.0 0:0.0 1:0.0 2:0.0 3:0.0 4:0.0 5:0.0 
1.0 0:0.0 1:1.0 2:0.0 3:0.0 4:0.0 5:0.0 
1.0 0:0.0 1:0.0 2:0.0 3:0.0 4:0.0 5:0.0 
1.0 0:0.0 1:0.0 2:0.0 3:0.0 4:0.0 5:0.0 
1.0 0:0.0 1:1.0 2:0.0 3:0.0 4:0.0 5:0.0 
1.0 0:0.0 1:0.0 2:0.0 3:0.0 4:0.0 5:1.0 
1.0 0:0.0 1:0.0 2:0.0 3:0.0 4:0.0 5:1.0 
1.0 0:0.0 1:1.0 2:0.0 3:0.0 4:0.0 5:0.0 
1.0 0:0.0 1:0.0 2:0.0 3:0.0 4:0.0 5:0.0 
1.0 0:0.0 1:1.0 2:0.0 3:0.0 4:0.0 5:0.0 
1.0 0:0.0 1:0.0 2:0.0 3:0.0 4:0.0 5:0.0 
1.0 0:0.0 1:1.0 2:0.0 3:0.0 4:0.0 5:0.0 
1.0 0:0.0 1:0.0 2:0.0 3:0.0 4:0.0 5:0.0 
1.0 0:0.0 1:0.0 2:0.0 3:0.0 4:0.0 5:0.0 
1.0 0:0.0 1:0.0 2:0.0 3:0.0 4:0.0 5:0.0 
1.0 0:0.0 1:0.0 2:0.0 3:0.0 4:0.0 5:0.0 
1.0 0:0.0 1:0.0 2:0.0 3:0.0 4:0.0 5:0.0 
1.0 0:0.0 1:0.0 2:0.0 3:0.0 4:0.0 5:1.0 
1.0 0:0.0 1:0.0 2:0.0 3:0.0 4:0.0 5:0.0 
1.0 0:0.0 1:0.0 2:0.0 3:0.0 4:0.0 5:0.0 
1.0 0:0.0 1:1.0 2:0.0 3:0.0 4:0.0 5:0.0 
1.0 0:0.0 1:0.0 2:0.0 3:0.0 4:0.0 5:1.0 
1.0 0:0.0 1:0.0 2:0.0 3:0.0 4:0.0 5:1.0 
1.0 0:0.0 1:0.0 2:0.0 3:0.0 4:0.0 5:0.0 
1.0 0:0.0 1:0.0 2:0.0 3:0.0 4:0.0 5:1.0 
1.0 0:0.0 1:0.0 2:0.0 3:0.0 4:0.0 5:0.0 
1.0 0:0.0 1:0.0 2:0.0 3:1.0 4:0.0 5:0.0 
1.0 0:0.0 1:0.0 2:0.0 3:0.0 4:0.0 5:0.0 
1.0 0:0.0 1:0.0 2:0.0 3:1.0 4:0.0 5:1.0 
1.0 0:0.0 1:0.0 2:0.0 3:0.0 4:0.0 5:1.0 
1.0 0:0.0 1:1.0 2:0.0 3:1.0 4:0.0 5:0.0 
1.0 0:0.0 1:1.0 2:0.0 3:1.0 4:0.0 5:0.0 
1.0 0:0.0 1:0.0 2:0.0 3:0.0 4:0.0 5:0.0 
1.0 0:0.0 1:0.0 2:0.0 3:0.0 4:0.0 5:0.0 
1.0 0:0.0 1:0.0 2:0.0 3:0.0 4:0.0 5:0.0 
1.0 0:0.0 1:1.0 2:0.0 3:1.0 4:0.0 5:0.0 
1.0 0:0.0 1:0.0 2:0.0 3:0.0 4:0.0 5:0.0 
1.0 0:0.0 1:0.0 2:0.0 3:0.0 4:0.0 5:0.0 
1.0 0:0.0 1:1.0 2:0.0 3:1.0 4:0.0 5:0.0 
1.0 0:0.0 1:1.0 2:0.0 3:1.0 4:0.0 5:1.0 
1.0 0:0.0 1:1.0 2:0.0 3:1.0 4:0.0 5:0.0 
1.0 0:0.0 1:1.0 2:0.0 3:1.0 4:0.0 5:1.0 
1.0 0:0.0 1:0.0 2:0.0 3:0.0 4:0.0 5:0.0 
1.0 0:0.0 1:0.0 2:0.0 3:0.0 4:0.0 5:1.0 
1.0 0:0.0 1:0.0 2:0.0 3:0.0 4:0.0 5:1.0 
1.0 0:0.0 1:0.0 2:0.0 3:0.0 4:0.0 5:1.0 
1.0 0:1.0 1:1.0 2:0.0 3:0.0 4:0.0 5:1.0 
1.0 0:0.0 1:1.0 2:0.0 3:0.0 4:0.0 5:1.0 
1.0 0:0.0 1:1.0 2:0.0 3:0.0 4:0.0 5:1.0 
1.0 0:0.0 1:0.0 2:0.0 3:0.0 4:0.0 5:0.0 
1.0 0:0.0 1:0.0 2:0.0 3:0.0 4:0.0 5:1.0 
1.0 0:0.0 1:0.0 2:0.0 3:0.0 4:0.0 5:0.0 
1.0 0:0.0 1:0.0 2:0.0 3:0.0 4:0.0 5:0.0 
1.0 0:0.0 1:0.0 2:0.0 3:0.0 4:0.0 5:1.0 
1.0 0:0.0 1:1.0 2:0.0 3:0.0 4:0.0 5:1.0 
1.0 0:0.0 1:1.0 2:0.0 3:0.0 4:0.0 5:0.0 
1.0 0:0.0 1:1.0 2:0.0 3:0.0 4:0.0 5:0.0 
1.0 0:0.0 1:1.0 2:0.0 3:0.0 4:0.0 5:0.0 
1.0 0:1.0 1:1.0 2:0.0 3:0.0 4:0.0 5:1.0 
1.0 0:1.0 1:1.0 2:0.0 3:0.0 4:0.0 5:0.0 
1.0 0:1.0 1:1.0 2:0.0 3:0.0 4:0.0 5:0.0 
1.0 0:1.0 1:1.0 2:0.0 3:1.0 4:0.0 5:0.0 
1.0 0:0.0 1:0.0 2:0.0 3:0.0 4:0.0 5:0.0 
1.0 0:0.0 1:0.0 2:0.0 3:0.0 4:0.0 5:1.0 
1.0 0:0.0 1:0.0 2:0.0 3:0.0 4:0.0 5:1.0 
1.0 0:0.0 1:0.0 2:0.0 3:0.0 4:0.0 5:1.0 
1.0 0:0.0 1:0.0 2:0.0 3:0.0 4:0.0 5:0.0 
1.0 0:0.0 1:1.0 2:0.0 3:0.0 4:0.0 5:0.0 
1.0 0:1.0 1:0.0 2:0.0 3:0.0 4:0.0 5:0.0 
1.0 0:0.0 1:1.0 2:0.0 3:0.0 4:0.0 5:0.0 
1.0 0:1.0 1:1.0 2:0.0 3:0.0 4:0.0 5:0.0 
1.0 0:0.0 1:0.0 2:0.0 3:0.0 4:0.0 5:1.0 
1.0 0:1.0 1:1.0 2:0.0 3:0.0 4:0.0 5:1.0 
1.0 0:1.0 1:1.0 2:0.0 3:0.0 4:0.0 5:0.0 
1.0 0:1.0 1:1.0 2:0.0 3:0.0 4:0.0 5:0.0 
1.0 0:0.0 1:0.0 2:0.0 3:0.0 4:0.0 5:1.0 
1.0 0:0.0 1:0.0 2:0.0 3:0.0 4:0.0 5:1.0 
1.0 0:0.0 1:0.0 2:0.0 3:0.0 4:0.0 5:1.0 
1.0 0:0.0 1:0.0 2:0.0 3:0.0 4:0.0 5:1.0 
1.0 0:0.0 1:0.0 2:0.0 3:0.0 4:0.0 5:0.0 
1.0 0:0.0 1:0.0 2:0.0 3:0.0 4:0.0 5:0.0 
1.0 0:0.0 1:0.0 2:0.0 3:0.0 4:0.0 5:0.0 
1.0 0:0.0 1:0.0 2:0.0 3:0.0 4:0.0 5:0.0 
1.0 0:0.0 1:0.0 2:0.0 3:0.0 4:0.0 5:1.0 
1.0 0:0.0 1:0.0 2:0.0 3:0.0 4:0.0 5:0.0 
1.0 0:0.0 1:0.0 2:0.0 3:0.0 4:0.0 5:1.0 
1.0 0:0.0 1:0.0 2:0.0 3:0.0 4:0.0 5:0.0 
1.0 0:0.0 1:0.0 2:0.0 3:0.0 4:0.0 5:1.0 
1.0 0:0.0 1:0.0 2:0.0 3:0.0 4:0.0 5:0.0 
1.0 0:0.0 1:0.0 2:0.0 3:0.0 4:0.0 5:1.0 
1.0 0:0.0 1:0.0 2:0.0 3:0.0 4:0.0 5:0.0 
1.0 0:0.0 1:0.0 2:0.0 3:1.0 4:0.0 5:1.0 
1.0 0:0.0 1:0.0 2:0.0 3:0.0 4:0.0 5:1.0 
1.0 0:0.0 1:0.0 2:0.0 3:0.0 4:0.0 5:1.0 
1.0 0:0.0 1:0.0 2:0.0 3:0.0 4:0.0 5:1.0 
1.0 0:0.0 1:0.0 2:0.0 3:0.0 4:0.0 5:1.0 
1.0 0:0.0 1:0.0 2:0.0 3:0.0 4:0.0 5:1.0 
1.0 0:0.0 1:0.0 2:0.0 3:0.0 4:0.0 5:0.0 
1.0 0:0.0 1:0.0 2:0.0 3:0.0 4:0.0 5:1.0 
1.0 0:0.0 1:0.0 2:0.0 3:0.0 4:0.0 5:1.0 
1.0 0:0.0 1:0.0 2:0.0 3:0.0 4:0.0 5:0.0 
1.0 0:0.0 1:0.0 2:0.0 3:0.0 4:0.0 5:0.0 
1.0 0:0.0 1:0.0 2:0.0 3:0.0 4:0.0 5:0.0 
1.0 0:0.0 1:0.0 2:0.0 3:0.0 4:0.0 5:0.0 
1.0 0:0.0 1:0.0 2:0.0 3:0.0 4:0.0 5:0.0 
1.0 0:0.0 1:0.0 2:0.0 3:0.0 4:0.0 5:1.0 
1.0 0:0.0 1:0.0 2:0.0 3:0.0 4:0.0 5:1.0 
1.0 0:0.0 1:0.0 2:0.0 3:0.0 4:0.0 5:0.0 
1.0 0:0.0 1:0.0 2:0.0 3:0.0 4:0.0 5:1.0 
1.0 0:0.0 1:0.0 2:0.0 3:0.0 4:0.0 5:0.0 
1.0 0:0.0 1:0.0 2:0.0 3:0.0 4:0.0 5:0.0 
1.0 0:0.0 1:0.0 2:0.0 3:0.0 4:0.0 5:0.0 
1.0 0:0.0 1:0.0 2:0.0 3:0.0 4:0.0 5:0.0 
1.0 0:0.0 1:0.0 2:0.0 3:0.0 4:0.0 5:0.0 
1.0 0:0.0 1:1.0 2:0.0 3:0.0 4:0.0 5:0.0 
1.0 0:0.0 1:1.0 2:0.0 3:0.0 4:0.0 5:0.0 
1.0 0:0.0 1:0.0 2:0.0 3:0.0 4:0.0 5:0.0 
1.0 0:0.0 1:0.0 2:0.0 3:0.0 4:0.0 5:0.0 
1.0 0:0.0 1:0.0 2:0.0 3:0.0 4:0.0 5:0.0 
1.0 0:0.0 1:0.0 2:0.0 3:0.0 4:0.0 5:1.0 
1.0 0:0.0 1:0.0 2:0.0 3:0.0 4:0.0 5:0.0 
1.0 0:0.0 1:1.0 2:0.0 3:0.0 4:0.0 5:0.0 
1.0 0:0.0 1:1.0 2:0.0 3:0.0 4:0.0 5:0.0 
1.0 0:0.0 1:1.0 2:0.0 3:0.0 4:0.0 5:0.0 
1.0 0:0.0 1:1.0 2:0.0 3:0.0 4:0.0 5:1.0 
1.0 0:0.0 1:1.0 2:0.0 3:0.0 4:0.0 5:1.0 
1.0 0:0.0 1:1.0 2:0.0 3:0.0 4:0.0 5:1.0 
1.0 0:0.0 1:1.0 2:0.0 3:0.0 4:0.0 5:0.0 
1.0 0:0.0 1:1.0 2:0.0 3:0.0 4:0.0 5:1.0 
1.0 0:0.0 1:0.0 2:0.0 3:0.0 4:0.0 5:0.0 
1.0 0:0.0 1:0.0 2:0.0 3:0.0 4:0.0 5:1.0 
1.0 0:0.0 1:0.0 2:0.0 3:0.0 4:0.0 5:1.0 
1.0 0:0.0 1:0.0 2:0.0 3:0.0 4:0.0 5:1.0 
1.0 0:0.0 1:0.0 2:0.0 3:0.0 4:0.0 5:0.0 
1.0 0:0.0 1:0.0 2:0.0 3:0.0 4:0.0 5:0.0 
1.0 0:0.0 1:1.0 2:0.0 3:0.0 4:0.0 5:0.0 
1.0 0:0.0 1:0.0 2:0.0 3:0.0 4:0.0 5:0.0 
1.0 0:0.0 1:0.0 2:0.0 3:0.0 4:0.0 5:0.0 
1.0 0:0.0 1:0.0 2:0.0 3:0.0 4:0.0 5:0.0 
1.0 0:0.0 1:0.0 2:0.0 3:0.0 4:0.0 5:1.0 
1.0 0:0.0 1:0.0 2:0.0 3:0.0 4:0.0 5:0.0 
1.0 0:0.0 1:0.0 2:0.0 3:0.0 4:0.0 5:0.0 
1.0 0:0.0 1:0.0 2:0.0 3:0.0 4:0.0 5:0.0 
1.0 0:0.0 1:0.0 2:0.0 3:0.0 4:0.0 5:0.0 
1.0 0:0.0 1:0.0 2:0.0 3:0.0 4:0.0 5:0.0 
1.0 0:0.0 1:0.0 2:0.0 3:0.0 4:0.0 5:1.0 
1.0 0:0.0 1:0.0 2:0.0 3:0.0 4:0.0 5:0.0 
1.0 0:0.0 1:0.0 2:0.0 3:0.0 4:0.0 5:0.0 
1.0 0:0.0 1:0.0 2:0.0 3:0.0 4:0.0 5:0.0 
1.0 0:0.0 1:0.0 2:0.0 3:0.0 4:0.0 5:0.0 
1.0 0:0.0 1:0.0 2:0.0 3:0.0 4:0.0 5:1.0 
1.0 0:0.0 1:1.0 2:0.0 3:0.0 4:0.0 5:0.0 
1.0 0:0.0 1:0.0 2:0.0 3:0.0 4:0.0 5:1.0 
1.0 0:0.0 1:1.0 2:0.0 3:0.0 4:0.0 5:0.0 
1.0 0:0.0 1:0.0 2:0.0 3:0.0 4:0.0 5:0.0 
1.0 0:0.0 1:0.0 2:0.0 3:0.0 4:0.0 5:0.0 
1.0 0:0.0 1:0.0 2:0.0 3:0.0 4:0.0 5:0.0 
1.0 0:0.0 1:0.0 2:0.0 3:0.0 4:0.0 5:1.0 
1.0 0:0.0 1:0.0 2:0.0 3:0.0 4:0.0 5:1.0 
1.0 0:0.0 1:0.0 2:0.0 3:0.0 4:0.0 5:0.0 
1.0 0:0.0 1:0.0 2:0.0 3:0.0 4:0.0 5:1.0 
1.0 0:0.0 1:0.0 2:0.0 3:0.0 4:0.0 5:0.0 
1.0 0:0.0 1:1.0 2:0.0 3:0.0 4:0.0 5:0.0 
1.0 0:0.0 1:0.0 2:0.0 3:0.0 4:0.0 5:1.0 
1.0 0:0.0 1:0.0 2:0.0 3:0.0 4:0.0 5:1.0 
1.0 0:0.0 1:0.0 2:0.0 3:0.0 4:0.0 5:0.0 
1.0 0:0.0 1:0.0 2:0.0 3:0.0 4:0.0 5:0.0 
1.0 0:0.0 1:0.0 2:0.0 3:0.0 4:0.0 5:0.0 
1.0 0:0.0 1:0.0 2:0.0 3:0.0 4:0.0 5:0.0 
1.0 0:0.0 1:0.0 2:0.0 3:0.0 4:0.0 5:1.0 
1.0 0:0.0 1:0.0 2:0.0 3:0.0 4:0.0 5:0.0 
1.0 0:0.0 1:0.0 2:0.0 3:0.0 4:0.0 5:1.0 
1.0 0:0.0 1:0.0 2:0.0 3:0.0 4:0.0 5:0.0 
1.0 0:0.0 1:0.0 2:0.0 3:0.0 4:0.0 5:0.0 
1.0 0:0.0 1:0.0 2:0.0 3:0.0 4:0.0 5:0.0 
1.0 0:0.0 1:0.0 2:0.0 3:0.0 4:0.0 5:1.0 
1.0 0:0.0 1:0.0 2:0.0 3:0.0 4:0.0 5:0.0 
1.0 0:0.0 1:1.0 2:0.0 3:0.0 4:0.0 5:0.0 
1.0 0:0.0 1:0.0 2:0.0 3:0.0 4:0.0 5:0.0 
1.0 0:0.0 1:0.0 2:0.0 3:0.0 4:0.0 5:0.0 
1.0 0:0.0 1:0.0 2:0.0 3:0.0 4:0.0 5:0.0 
1.0 0:0.0 1:0.0 2:0.0 3:0.0 4:0.0 5:1.0 
1.0 0:0.0 1:0.0 2:0.0 3:0.0 4:0.0 5:1.0 
1.0 0:0.0 1:0.0 2:0.0 3:0.0 4:0.0 5:0.0 
1.0 0:0.0 1:0.0 2:0.0 3:0.0 4:0.0 5:0.0 
1.0 0:0.0 1:0.0 2:0.0 3:0.0 4:0.0 5:0.0 
1.0 0:0.0 1:0.0 2:0.0 3:0.0 4:0.0 5:0.0 
1.0 0:0.0 1:0.0 2:0.0 3:0.0 4:0.0 5:0.0 
1.0 0:0.0 1:0.0 2:0.0 3:0.0 4:0.0 5:0.0 
1.0 0:0.0 1:0.0 2:0.0 3:0.0 4:0.0 5:0.0 
1.0 0:0.0 1:0.0 2:0.0 3:0.0 4:0.0 5:1.0 
1.0 0:0.0 1:0.0 2:0.0 3:0.0 4:0.0 5:0.0 
1.0 0:0.0 1:0.0 2:0.0 3:0.0 4:0.0 5:1.0 
1.0 0:0.0 1:0.0 2:0.0 3:0.0 4:0.0 5:0.0 
1.0 0:0.0 1:0.0 2:0.0 3:0.0 4:0.0 5:1.0 
1.0 0:0.0 1:0.0 2:0.0 3:0.0 4:0.0 5:1.0 
1.0 0:0.0 1:0.0 2:0.0 3:0.0 4:0.0 5:0.0 
1.0 0:0.0 1:0.0 2:0.0 3:0.0 4:0.0 5:0.0 
1.0 0:0.0 1:0.0 2:0.0 3:0.0 4:0.0 5:0.0 
1.0 0:0.0 1:0.0 2:0.0 3:0.0 4:0.0 5:0.0 
1.0 0:0.0 1:0.0 2:0.0 3:0.0 4:0.0 5:0.0 
1.0 0:0.0 1:0.0 2:0.0 3:0.0 4:0.0 5:1.0 
1.0 0:0.0 1:0.0 2:0.0 3:0.0 4:0.0 5:0.0 
1.0 0:0.0 1:0.0 2:0.0 3:0.0 4:0.0 5:0.0 
1.0 0:0.0 1:0.0 2:0.0 3:0.0 4:0.0 5:0.0 
1.0 0:0.0 1:0.0 2:0.0 3:0.0 4:0.0 5:1.0 
1.0 0:0.0 1:0.0 2:0.0 3:0.0 4:0.0 5:1.0 
1.0 0:0.0 1:0.0 2:0.0 3:0.0 4:0.0 5:0.0 
1.0 0:0.0 1:0.0 2:0.0 3:0.0 4:0.0 5:0.0 
1.0 0:0.0 1:0.0 2:0.0 3:0.0 4:0.0 5:0.0 
1.0 0:0.0 1:0.0 2:0.0 3:0.0 4:0.0 5:0.0 
1.0 0:0.0 1:0.0 2:0.0 3:0.0 4:0.0 5:1.0 
1.0 0:0.0 1:0.0 2:0.0 3:0.0 4:0.0 5:1.0 
1.0 0:0.0 1:0.0 2:0.0 3:0.0 4:0.0 5:1.0 
1.0 0:0.0 1:0.0 2:0.0 3:0.0 4:0.0 5:0.0 
1.0 0:0.0 1:0.0 2:0.0 3:0.0 4:0.0 5:1.0 
1.0 0:0.0 1:0.0 2:0.0 3:0.0 4:0.0 5:1.0 
1.0 0:0.0 1:0.0 2:0.0 3:0.0 4:0.0 5:0.0 
1.0 0:0.0 1:0.0 2:0.0 3:0.0 4:0.0 5:1.0 
1.0 0:0.0 1:0.0 2:0.0 3:0.0 4:0.0 5:1.0 
1.0 0:0.0 1:0.0 2:0.0 3:0.0 4:0.0 5:0.0 
1.0 0:0.0 1:0.0 2:0.0 3:0.0 4:0.0 5:1.0 
1.0 0:0.0 1:0.0 2:0.0 3:0.0 4:0.0 5:1.0 
1.0 0:0.0 1:0.0 2:0.0 3:0.0 4:0.0 5:1.0 
1.0 0:0.0 1:0.0 2:0.0 3:0.0 4:0.0 5:1.0 
1.0 0:0.0 1:0.0 2:0.0 3:0.0 4:0.0 5:0.0 
1.0 0:0.0 1:0.0 2:0.0 3:0.0 4:0.0 5:0.0 
1.0 0:0.0 1:0.0 2:0.0 3:0.0 4:0.0 5:0.0 
1.0 0:0.0 1:0.0 2:0.0 3:0.0 4:0.0 5:0.0 
1.0 0:0.0 1:0.0 2:0.0 3:0.0 4:0.0 5:0.0 
1.0 0:0.0 1:0.0 2:0.0 3:0.0 4:0.0 5:0.0 
1.0 0:0.0 1:0.0 2:0.0 3:0.0 4:0.0 5:0.0 
1.0 0:0.0 1:0.0 2:0.0 3:0.0 4:0.0 5:0.0 
1.0 0:0.0 1:0.0 2:0.0 3:0.0 4:0.0 5:0.0 
1.0 0:0.0 1:0.0 2:0.0 3:0.0 4:0.0 5:1.0 
1.0 0:0.0 1:0.0 2:0.0 3:0.0 4:0.0 5:0.0 
1.0 0:0.0 1:0.0 2:0.0 3:0.0 4:0.0 5:0.0 
1.0 0:0.0 1:0.0 2:0.0 3:0.0 4:0.0 5:0.0 
1.0 0:0.0 1:1.0 2:0.0 3:0.0 4:0.0 5:1.0 
1.0 0:0.0 1:0.0 2:0.0 3:0.0 4:0.0 5:0.0 
1.0 0:0.0 1:0.0 2:0.0 3:0.0 4:0.0 5:0.0 
1.0 0:0.0 1:0.0 2:0.0 3:0.0 4:0.0 5:0.0 
1.0 0:0.0 1:0.0 2:0.0 3:0.0 4:0.0 5:0.0 
1.0 0:0.0 1:0.0 2:0.0 3:0.0 4:0.0 5:0.0 
1.0 0:0.0 1:0.0 2:0.0 3:0.0 4:0.0 5:0.0 
1.0 0:0.0 1:0.0 2:0.0 3:0.0 4:0.0 5:1.0 
1.0 0:0.0 1:0.0 2:0.0 3:0.0 4:0.0 5:0.0 
1.0 0:0.0 1:0.0 2:0.0 3:0.0 4:0.0 5:0.0 
1.0 0:0.0 1:0.0 2:0.0 3:0.0 4:0.0 5:0.0 
1.0 0:0.0 1:0.0 2:0.0 3:0.0 4:0.0 5:1.0 
1.0 0:0.0 1:1.0 2:0.0 3:0.0 4:0.0 5:1.0 
1.0 0:0.0 1:0.0 2:0.0 3:0.0 4:0.0 5:0.0 
1.0 0:0.0 1:0.0 2:0.0 3:0.0 4:0.0 5:0.0 
1.0 0:0.0 1:0.0 2:0.0 3:0.0 4:0.0 5:0.0 
1.0 0:0.0 1:0.0 2:0.0 3:0.0 4:0.0 5:1.0 
1.0 0:0.0 1:0.0 2:0.0 3:0.0 4:0.0 5:0.0 
1.0 0:0.0 1:0.0 2:0.0 3:0.0 4:0.0 5:1.0 
1.0 0:0.0 1:0.0 2:0.0 3:0.0 4:0.0 5:0.0 
1.0 0:0.0 1:0.0 2:0.0 3:0.0 4:0.0 5:0.0 
1.0 0:0.0 1:0.0 2:0.0 3:0.0 4:0.0 5:0.0 
1.0 0:0.0 1:0.0 2:0.0 3:0.0 4:0.0 5:0.0 
1.0 0:0.0 1:0.0 2:0.0 3:0.0 4:0.0 5:0.0 
1.0 0:0.0 1:1.0 2:0.0 3:1.0 4:0.0 5:0.0 
1.0 0:0.0 1:0.0 2:0.0 3:0.0 4:0.0 5:1.0 
1.0 0:0.0 1:0.0 2:0.0 3:0.0 4:0.0 5:0.0 
1.0 0:0.0 1:0.0 2:0.0 3:0.0 4:0.0 5:0.0 
1.0 0:0.0 1:0.0 2:0.0 3:0.0 4:0.0 5:0.0 
1.0 0:0.0 1:0.0 2:0.0 3:0.0 4:0.0 5:0.0 
1.0 0:0.0 1:0.0 2:0.0 3:0.0 4:0.0 5:0.0 
1.0 0:0.0 1:0.0 2:0.0 3:0.0 4:0.0 5:0.0 
1.0 0:0.0 1:0.0 2:0.0 3:0.0 4:0.0 5:1.0 
1.0 0:0.0 1:0.0 2:0.0 3:0.0 4:0.0 5:1.0 
1.0 0:0.0 1:0.0 2:0.0 3:0.0 4:0.0 5:0.0 
1.0 0:0.0 1:0.0 2:0.0 3:0.0 4:0.0 5:0.0 
1.0 0:0.0 1:0.0 2:0.0 3:0.0 4:0.0 5:1.0 
1.0 0:0.0 1:0.0 2:0.0 3:0.0 4:0.0 5:1.0 
1.0 0:0.0 1:0.0 2:0.0 3:0.0 4:0.0 5:1.0 
1.0 0:0.0 1:0.0 2:0.0 3:0.0 4:0.0 5:0.0 
1.0 0:0.0 1:0.0 2:0.0 3:0.0 4:0.0 5:0.0 
1.0 0:0.0 1:0.0 2:0.0 3:0.0 4:0.0 5:0.0 
1.0 0:0.0 1:1.0 2:0.0 3:0.0 4:0.0 5:0.0 
1.0 0:0.0 1:0.0 2:0.0 3:0.0 4:0.0 5:1.0 
1.0 0:0.0 1:0.0 2:0.0 3:0.0 4:0.0 5:0.0 
1.0 0:0.0 1:1.0 2:0.0 3:0.0 4:0.0 5:0.0 
1.0 0:0.0 1:0.0 2:0.0 3:0.0 4:0.0 5:0.0 
1.0 0:0.0 1:0.0 2:0.0 3:0.0 4:0.0 5:0.0 
1.0 0:0.0 1:0.0 2:0.0 3:0.0 4:0.0 5:0.0 
1.0 0:0.0 1:1.0 2:0.0 3:0.0 4:0.0 5:0.0 
1.0 0:0.0 1:0.0 2:0.0 3:0.0 4:0.0 5:0.0 
1.0 0:0.0 1:1.0 2:0.0 3:0.0 4:0.0 5:1.0 
1.0 0:0.0 1:0.0 2:0.0 3:0.0 4:0.0 5:0.0 
1.0 0:0.0 1:0.0 2:0.0 3:0.0 4:0.0 5:0.0 
1.0 0:0.0 1:0.0 2:0.0 3:0.0 4:0.0 5:0.0 
1.0 0:0.0 1:0.0 2:0.0 3:0.0 4:0.0 5:0.0 
1.0 0:0.0 1:0.0 2:0.0 3:0.0 4:0.0 5:0.0 
1.0 0:0.0 1:1.0 2:0.0 3:0.0 4:0.0 5:0.0 
1.0 0:0.0 1:0.0 2:0.0 3:0.0 4:0.0 5:0.0 
1.0 0:0.0 1:0.0 2:0.0 3:0.0 4:0.0 5:0.0 
1.0 0:0.0 1:0.0 2:0.0 3:0.0 4:0.0 5:1.0 
1.0 0:0.0 1:0.0 2:0.0 3:0.0 4:0.0 5:0.0 
1.0 0:0.0 1:0.0 2:0.0 3:0.0 4:0.0 5:0.0 
1.0 0:0.0 1:0.0 2:0.0 3:0.0 4:0.0 5:0.0 
1.0 0:0.0 1:0.0 2:0.0 3:0.0 4:0.0 5:0.0 
1.0 0:0.0 1:0.0 2:0.0 3:0.0 4:0.0 5:1.0 
1.0 0:0.0 1:0.0 2:0.0 3:0.0 4:0.0 5:0.0 
1.0 0:0.0 1:0.0 2:0.0 3:0.0 4:0.0 5:0.0 
1.0 0:0.0 1:1.0 2:0.0 3:0.0 4:0.0 5:1.0 
1.0 0:0.0 1:0.0 2:0.0 3:0.0 4:0.0 5:1.0 
1.0 0:0.0 1:0.0 2:0.0 3:0.0 4:0.0 5:1.0 
1.0 0:0.0 1:0.0 2:0.0 3:0.0 4:0.0 5:1.0 
1.0 0:0.0 1:0.0 2:0.0 3:0.0 4:0.0 5:1.0 
1.0 0:0.0 1:0.0 2:0.0 3:0.0 4:0.0 5:1.0 
1.0 0:0.0 1:0.0 2:0.0 3:0.0 4:0.0 5:1.0 
1.0 0:0.0 1:0.0 2:0.0 3:0.0 4:0.0 5:0.0 
1.0 0:0.0 1:0.0 2:0.0 3:0.0 4:0.0 5:0.0 
1.0 0:0.0 1:0.0 2:0.0 3:0.0 4:0.0 5:0.0 
1.0 0:0.0 1:0.0 2:0.0 3:0.0 4:0.0 5:0.0 
1.0 0:0.0 1:0.0 2:0.0 3:0.0 4:0.0 5:0.0 
1.0 0:0.0 1:0.0 2:0.0 3:0.0 4:0.0 5:0.0 
1.0 0:0.0 1:0.0 2:0.0 3:0.0 4:0.0 5:1.0 
1.0 0:0.0 1:0.0 2:0.0 3:0.0 4:0.0 5:1.0 
1.0 0:0.0 1:0.0 2:0.0 3:0.0 4:0.0 5:1.0 
1.0 0:0.0 1:0.0 2:0.0 3:0.0 4:0.0 5:0.0 
1.0 0:0.0 1:0.0 2:0.0 3:0.0 4:0.0 5:0.0 
1.0 0:0.0 1:0.0 2:0.0 3:0.0 4:0.0 5:1.0 
1.0 0:0.0 1:0.0 2:0.0 3:0.0 4:0.0 5:0.0 
1.0 0:0.0 1:0.0 2:0.0 3:0.0 4:0.0 5:0.0 
1.0 0:0.0 1:0.0 2:0.0 3:0.0 4:0.0 5:0.0 
1.0 0:0.0 1:0.0 2:0.0 3:0.0 4:0.0 5:1.0 
1.0 0:0.0 1:0.0 2:0.0 3:0.0 4:0.0 5:0.0 
1.0 0:0.0 1:0.0 2:0.0 3:0.0 4:0.0 5:0.0 
1.0 0:0.0 1:0.0 2:0.0 3:0.0 4:0.0 5:0.0 
1.0 0:0.0 1:0.0 2:0.0 3:0.0 4:0.0 5:1.0 
1.0 0:0.0 1:0.0 2:0.0 3:0.0 4:0.0 5:0.0 
1.0 0:0.0 1:0.0 2:0.0 3:0.0 4:0.0 5:1.0 
1.0 0:0.0 1:0.0 2:0.0 3:0.0 4:0.0 5:0.0 
1.0 0:0.0 1:0.0 2:0.0 3:0.0 4:0.0 5:0.0 
1.0 0:0.0 1:0.0 2:0.0 3:0.0 4:0.0 5:0.0 
1.0 0:0.0 1:0.0 2:0.0 3:0.0 4:0.0 5:1.0 
1.0 0:0.0 1:0.0 2:0.0 3:0.0 4:0.0 5:1.0 
1.0 0:0.0 1:0.0 2:0.0 3:0.0 4:0.0 5:1.0 
1.0 0:0.0 1:0.0 2:0.0 3:0.0 4:0.0 5:0.0 
1.0 0:0.0 1:0.0 2:0.0 3:0.0 4:0.0 5:0.0 
1.0 0:0.0 1:0.0 2:0.0 3:0.0 4:0.0 5:1.0 
1.0 0:0.0 1:0.0 2:0.0 3:0.0 4:0.0 5:0.0 
1.0 0:0.0 1:1.0 2:0.0 3:0.0 4:0.0 5:1.0 
1.0 0:0.0 1:0.0 2:0.0 3:0.0 4:0.0 5:0.0 
1.0 0:0.0 1:0.0 2:0.0 3:0.0 4:0.0 5:0.0 
1.0 0:0.0 1:1.0 2:0.0 3:0.0 4:0.0 5:0.0 
1.0 0:0.0 1:0.0 2:0.0 3:0.0 4:0.0 5:0.0 
1.0 0:0.0 1:0.0 2:0.0 3:0.0 4:0.0 5:0.0 
1.0 0:0.0 1:0.0 2:0.0 3:0.0 4:0.0 5:0.0 
1.0 0:0.0 1:0.0 2:0.0 3:0.0 4:0.0 5:0.0 
1.0 0:0.0 1:0.0 2:0.0 3:0.0 4:0.0 5:0.0 
1.0 0:0.0 1:0.0 2:0.0 3:0.0 4:0.0 5:0.0 
1.0 0:0.0 1:1.0 2:0.0 3:1.0 4:0.0 5:1.0 
1.0 0:0.0 1:1.0 2:0.0 3:0.0 4:0.0 5:1.0 
1.0 0:0.0 1:0.0 2:0.0 3:0.0 4:0.0 5:0.0 
1.0 0:0.0 1:0.0 2:0.0 3:0.0 4:0.0 5:1.0 
1.0 0:0.0 1:0.0 2:0.0 3:0.0 4:0.0 5:0.0 
1.0 0:0.0 1:0.0 2:0.0 3:0.0 4:0.0 5:0.0 
1.0 0:0.0 1:0.0 2:0.0 3:0.0 4:0.0 5:0.0 
1.0 0:0.0 1:0.0 2:0.0 3:0.0 4:0.0 5:0.0 
1.0 0:0.0 1:0.0 2:0.0 3:0.0 4:0.0 5:0.0 
1.0 0:0.0 1:0.0 2:0.0 3:0.0 4:0.0 5:0.0 
1.0 0:0.0 1:0.0 2:0.0 3:0.0 4:0.0 5:0.0 
1.0 0:0.0 1:0.0 2:0.0 3:0.0 4:0.0 5:0.0 
1.0 0:0.0 1:0.0 2:0.0 3:0.0 4:0.0 5:0.0 
1.0 0:0.0 1:0.0 2:0.0 3:0.0 4:0.0 5:0.0 
1.0 0:0.0 1:0.0 2:0.0 3:0.0 4:0.0 5:0.0 
1.0 0:0.0 1:0.0 2:0.0 3:0.0 4:0.0 5:0.0 
1.0 0:0.0 1:0.0 2:0.0 3:0.0 4:0.0 5:1.0 
1.0 0:0.0 1:0.0 2:0.0 3:0.0 4:0.0 5:0.0 
1.0 0:0.0 1:0.0 2:0.0 3:0.0 4:0.0 5:0.0 
1.0 0:0.0 1:1.0 2:0.0 3:0.0 4:0.0 5:0.0 
1.0 0:0.0 1:0.0 2:0.0 3:0.0 4:0.0 5:0.0 
1.0 0:0.0 1:0.0 2:0.0 3:0.0 4:0.0 5:1.0 
1.0 0:0.0 1:0.0 2:0.0 3:0.0 4:0.0 5:1.0 
1.0 0:0.0 1:0.0 2:0.0 3:0.0 4:0.0 5:0.0 
1.0 0:0.0 1:0.0 2:0.0 3:0.0 4:0.0 5:0.0 
1.0 0:0.0 1:0.0 2:0.0 3:0.0 4:0.0 5:0.0 
1.0 0:0.0 1:0.0 2:0.0 3:0.0 4:0.0 5:0.0 
1.0 0:0.0 1:0.0 2:0.0 3:0.0 4:0.0 5:0.0 
1.0 0:0.0 1:0.0 2:0.0 3:0.0 4:0.0 5:0.0 
1.0 0:0.0 1:0.0 2:0.0 3:0.0 4:0.0 5:0.0 
1.0 0:0.0 1:1.0 2:0.0 3:0.0 4:0.0 5:0.0 
1.0 0:0.0 1:1.0 2:0.0 3:0.0 4:0.0 5:0.0 
1.0 0:0.0 1:0.0 2:0.0 3:0.0 4:0.0 5:1.0 
1.0 0:0.0 1:1.0 2:0.0 3:0.0 4:0.0 5:0.0 
1.0 0:0.0 1:1.0 2:0.0 3:1.0 4:0.0 5:1.0 
1.0 0:0.0 1:0.0 2:0.0 3:0.0 4:0.0 5:1.0 
1.0 0:0.0 1:0.0 2:0.0 3:0.0 4:0.0 5:0.0 
1.0 0:0.0 1:0.0 2:0.0 3:0.0 4:0.0 5:0.0 
1.0 0:0.0 1:0.0 2:0.0 3:0.0 4:0.0 5:0.0 
1.0 0:0.0 1:0.0 2:0.0 3:0.0 4:0.0 5:0.0 
1.0 0:0.0 1:0.0 2:0.0 3:0.0 4:0.0 5:0.0 
1.0 0:0.0 1:0.0 2:0.0 3:0.0 4:0.0 5:0.0 
1.0 0:0.0 1:0.0 2:0.0 3:0.0 4:0.0 5:0.0 
1.0 0:0.0 1:0.0 2:0.0 3:0.0 4:0.0 5:0.0 
1.0 0:0.0 1:0.0 2:0.0 3:0.0 4:0.0 5:0.0 
1.0 0:0.0 1:0.0 2:0.0 3:0.0 4:0.0 5:0.0 
1.0 0:0.0 1:0.0 2:0.0 3:0.0 4:0.0 5:0.0 
1.0 0:0.0 1:0.0 2:0.0 3:0.0 4:0.0 5:0.0 
1.0 0:0.0 1:0.0 2:0.0 3:0.0 4:0.0 5:0.0 
1.0 0:0.0 1:0.0 2:0.0 3:0.0 4:0.0 5:0.0 
1.0 0:0.0 1:0.0 2:0.0 3:0.0 4:0.0 5:0.0 
1.0 0:0.0 1:0.0 2:0.0 3:0.0 4:0.0 5:0.0 
1.0 0:0.0 1:0.0 2:0.0 3:0.0 4:0.0 5:1.0 
1.0 0:0.0 1:0.0 2:0.0 3:0.0 4:0.0 5:0.0 
1.0 0:0.0 1:0.0 2:0.0 3:0.0 4:0.0 5:0.0 
1.0 0:0.0 1:0.0 2:0.0 3:0.0 4:0.0 5:0.0 
1.0 0:0.0 1:0.0 2:0.0 3:0.0 4:0.0 5:0.0 
1.0 0:0.0 1:0.0 2:0.0 3:0.0 4:0.0 5:0.0 
1.0 0:0.0 1:0.0 2:0.0 3:0.0 4:0.0 5:0.0 
1.0 0:0.0 1:0.0 2:0.0 3:0.0 4:0.0 5:0.0 
1.0 0:0.0 1:0.0 2:0.0 3:0.0 4:0.0 5:0.0 
1.0 0:0.0 1:0.0 2:0.0 3:0.0 4:0.0 5:0.0 
1.0 0:0.0 1:0.0 2:0.0 3:0.0 4:0.0 5:0.0 
1.0 0:0.0 1:0.0 2:0.0 3:0.0 4:0.0 5:1.0 
1.0 0:0.0 1:0.0 2:0.0 3:0.0 4:0.0 5:0.0 
1.0 0:0.0 1:1.0 2:0.0 3:0.0 4:0.0 5:1.0 
1.0 0:0.0 1:0.0 2:0.0 3:0.0 4:0.0 5:0.0 
1.0 0:0.0 1:0.0 2:0.0 3:0.0 4:0.0 5:1.0 
1.0 0:0.0 1:0.0 2:0.0 3:0.0 4:0.0 5:0.0 
1.0 0:0.0 1:0.0 2:0.0 3:0.0 4:0.0 5:0.0 
1.0 0:0.0 1:0.0 2:0.0 3:0.0 4:0.0 5:0.0 
1.0 0:0.0 1:0.0 2:0.0 3:0.0 4:0.0 5:0.0 
1.0 0:0.0 1:0.0 2:0.0 3:0.0 4:0.0 5:1.0 
1.0 0:0.0 1:0.0 2:0.0 3:0.0 4:0.0 5:0.0 
1.0 0:0.0 1:0.0 2:0.0 3:0.0 4:0.0 5:0.0 
1.0 0:0.0 1:0.0 2:0.0 3:0.0 4:0.0 5:0.0 
1.0 0:0.0 1:0.0 2:0.0 3:0.0 4:0.0 5:0.0 
1.0 0:0.0 1:0.0 2:0.0 3:0.0 4:0.0 5:1.0 
1.0 0:0.0 1:0.0 2:0.0 3:0.0 4:0.0 5:0.0 
1.0 0:0.0 1:0.0 2:0.0 3:0.0 4:0.0 5:0.0 
1.0 0:0.0 1:0.0 2:0.0 3:0.0 4:0.0 5:0.0 
1.0 0:0.0 1:0.0 2:0.0 3:0.0 4:0.0 5:0.0 
1.0 0:0.0 1:0.0 2:0.0 3:0.0 4:0.0 5:0.0 
1.0 0:0.0 1:0.0 2:0.0 3:0.0 4:0.0 5:0.0 
1.0 0:0.0 1:1.0 2:0.0 3:0.0 4:0.0 5:0.0 
1.0 0:0.0 1:0.0 2:0.0 3:0.0 4:0.0 5:0.0 
1.0 0:0.0 1:1.0 2:0.0 3:0.0 4:0.0 5:0.0 
1.0 0:0.0 1:1.0 2:0.0 3:0.0 4:0.0 5:0.0 
1.0 0:0.0 1:0.0 2:0.0 3:0.0 4:0.0 5:0.0 
1.0 0:0.0 1:0.0 2:0.0 3:0.0 4:0.0 5:1.0 
1.0 0:0.0 1:0.0 2:0.0 3:0.0 4:0.0 5:1.0 
1.0 0:0.0 1:0.0 2:0.0 3:0.0 4:0.0 5:0.0 
1.0 0:0.0 1:0.0 2:0.0 3:0.0 4:0.0 5:1.0 
1.0 0:0.0 1:0.0 2:0.0 3:0.0 4:0.0 5:1.0 
1.0 0:0.0 1:0.0 2:0.0 3:0.0 4:0.0 5:1.0 
1.0 0:0.0 1:0.0 2:0.0 3:0.0 4:0.0 5:0.0 
1.0 0:0.0 1:0.0 2:0.0 3:0.0 4:0.0 5:0.0 
1.0 0:0.0 1:0.0 2:0.0 3:0.0 4:0.0 5:0.0 
1.0 0:0.0 1:0.0 2:0.0 3:0.0 4:0.0 5:1.0 
1.0 0:0.0 1:0.0 2:0.0 3:0.0 4:0.0 5:1.0 
1.0 0:0.0 1:0.0 2:0.0 3:0.0 4:0.0 5:0.0 
1.0 0:0.0 1:1.0 2:0.0 3:0.0 4:0.0 5:0.0 
1.0 0:0.0 1:0.0 2:0.0 3:0.0 4:0.0 5:0.0 
1.0 0:0.0 1:0.0 2:0.0 3:0.0 4:0.0 5:0.0 
1.0 0:0.0 1:0.0 2:0.0 3:0.0 4:0.0 5:0.0 
1.0 0:0.0 1:0.0 2:0.0 3:0.0 4:0.0 5:0.0 
1.0 0:0.0 1:0.0 2:0.0 3:0.0 4:0.0 5:0.0 
1.0 0:1.0 1:1.0 2:0.0 3:0.0 4:0.0 5:0.0 
1.0 0:0.0 1:0.0 2:0.0 3:0.0 4:0.0 5:0.0 
1.0 0:0.0 1:0.0 2:0.0 3:0.0 4:0.0 5:0.0 
1.0 0:0.0 1:0.0 2:0.0 3:0.0 4:0.0 5:0.0 
1.0 0:0.0 1:0.0 2:0.0 3:0.0 4:0.0 5:0.0 
1.0 0:0.0 1:0.0 2:0.0 3:0.0 4:0.0 5:0.0 
1.0 0:0.0 1:0.0 2:0.0 3:0.0 4:0.0 5:0.0 
1.0 0:0.0 1:0.0 2:0.0 3:0.0 4:0.0 5:0.0 
1.0 0:0.0 1:0.0 2:0.0 3:0.0 4:0.0 5:0.0 
1.0 0:0.0 1:0.0 2:0.0 3:0.0 4:0.0 5:0.0 
1.0 0:0.0 1:0.0 2:0.0 3:0.0 4:0.0 5:0.0 
1.0 0:0.0 1:0.0 2:0.0 3:0.0 4:0.0 5:0.0 
1.0 0:0.0 1:0.0 2:0.0 3:0.0 4:0.0 5:0.0 
1.0 0:0.0 1:0.0 2:0.0 3:0.0 4:0.0 5:0.0 
1.0 0:0.0 1:0.0 2:0.0 3:0.0 4:0.0 5:0.0 
1.0 0:0.0 1:0.0 2:0.0 3:0.0 4:0.0 5:0.0 
1.0 0:0.0 1:0.0 2:0.0 3:0.0 4:0.0 5:0.0 
1.0 0:0.0 1:0.0 2:0.0 3:0.0 4:0.0 5:0.0 
1.0 0:0.0 1:0.0 2:0.0 3:0.0 4:0.0 5:0.0 
1.0 0:0.0 1:0.0 2:0.0 3:0.0 4:0.0 5:1.0 
1.0 0:0.0 1:0.0 2:0.0 3:0.0 4:0.0 5:0.0 
1.0 0:0.0 1:0.0 2:0.0 3:0.0 4:0.0 5:0.0 
1.0 0:0.0 1:0.0 2:0.0 3:0.0 4:0.0 5:0.0 
1.0 0:0.0 1:0.0 2:0.0 3:0.0 4:0.0 5:0.0 
1.0 0:0.0 1:0.0 2:0.0 3:0.0 4:0.0 5:1.0 
1.0 0:0.0 1:0.0 2:0.0 3:0.0 4:0.0 5:0.0 
1.0 0:0.0 1:0.0 2:0.0 3:0.0 4:0.0 5:0.0 
1.0 0:0.0 1:0.0 2:0.0 3:0.0 4:0.0 5:0.0 
1.0 0:0.0 1:0.0 2:0.0 3:0.0 4:0.0 5:0.0 
1.0 0:0.0 1:0.0 2:0.0 3:0.0 4:0.0 5:1.0 
1.0 0:0.0 1:0.0 2:0.0 3:0.0 4:0.0 5:1.0 
1.0 0:0.0 1:0.0 2:0.0 3:0.0 4:0.0 5:0.0 
1.0 0:0.0 1:0.0 2:0.0 3:0.0 4:0.0 5:1.0 
1.0 0:0.0 1:0.0 2:0.0 3:0.0 4:0.0 5:0.0 
1.0 0:0.0 1:0.0 2:0.0 3:0.0 4:0.0 5:0.0 
1.0 0:0.0 1:0.0 2:0.0 3:0.0 4:0.0 5:0.0 
1.0 0:0.0 1:0.0 2:0.0 3:0.0 4:0.0 5:0.0 
1.0 0:0.0 1:0.0 2:0.0 3:0.0 4:0.0 5:1.0 
1.0 0:0.0 1:0.0 2:0.0 3:0.0 4:0.0 5:1.0 
1.0 0:0.0 1:1.0 2:0.0 3:0.0 4:0.0 5:1.0 
1.0 0:0.0 1:0.0 2:0.0 3:0.0 4:0.0 5:0.0 
